digraph Tree {
node [shape=box] ;
0 [label="sex <= -0.072\ngini = 0.498\nsamples = 628\nvalue = [471, 529]"] ;
1 [label="sex <= -0.462\ngini = 0.104\nsamples = 309\nvalue = [445, 26]"] ;
0 -> 1 [labeldistance=2.5, labelangle=45, headlabel="True"] ;
2 [label="gini = 0.032\nsamples = 281\nvalue = [418, 7]"] ;
1 -> 2 ;
3 [label="gini = 0.485\nsamples = 28\nvalue = [27, 19]"] ;
1 -> 3 ;
4 [label="school <= 2.671\ngini = 0.093\nsamples = 319\nvalue = [26, 503]"] ;
0 -> 4 [labeldistance=2.5, labelangle=-45, headlabel="False"] ;
5 [label="gini = 0.06\nsamples = 311\nvalue = [16, 500]"] ;
4 -> 5 ;
6 [label="gini = 0.355\nsamples = 8\nvalue = [10, 3]"] ;
4 -> 6 ;
}