digraph Tree {
node [shape=box, style="filled, rounded", color="black", fontname=helvetica] ;
edge [fontname=helvetica] ;
0 [label="sex <= -0.072\ngini = 0.498\nsamples = 628\nvalue = [471, 529]", fillcolor="#e9f4fc"] ;
1 [label="sex <= -0.462\ngini = 0.104\nsamples = 309\nvalue = [445, 26]", fillcolor="#e78845"] ;
0 -> 1 [labeldistance=2.5, labelangle=45, headlabel="True"] ;
2 [label="school <= 1.914\ngini = 0.032\nsamples = 281\nvalue = [418, 7]", fillcolor="#e5833c"] ;
1 -> 2 ;
3 [label="internet <= 0.112\ngini = 0.019\nsamples = 280\nvalue = [418, 4]", fillcolor="#e5823b"] ;
2 -> 3 ;
4 [label="gini = 0.0\nsamples = 155\nvalue = [235, 0]", fillcolor="#e58139"] ;
3 -> 4 ;
5 [label="famrel <= -2.38\ngini = 0.042\nsamples = 125\nvalue = [183, 4]", fillcolor="#e6843d"] ;
3 -> 5 ;
6 [label="sex <= -0.666\ngini = 0.444\nsamples = 2\nvalue = [1, 2]", fillcolor="#9ccef2"] ;
5 -> 6 ;
7 [label="gini = 0.0\nsamples = 1\nvalue = [1, 0]", fillcolor="#e58139"] ;
6 -> 7 ;
8 [label="gini = 0.0\nsamples = 1\nvalue = [0, 2]", fillcolor="#399de5"] ;
6 -> 8 ;
9 [label="studytime <= 1.27\ngini = 0.022\nsamples = 123\nvalue = [182, 2]", fillcolor="#e5823b"] ;
5 -> 9 ;
10 [label="guardian <= 1.773\ngini = 0.012\nsamples = 112\nvalue = [169, 1]", fillcolor="#e5823a"] ;
9 -> 10 ;
11 [label="gini = 0.0\nsamples = 104\nvalue = [158, 0]", fillcolor="#e58139"] ;
10 -> 11 ;
12 [label="reason <= -0.249\ngini = 0.153\nsamples = 8\nvalue = [11, 1]", fillcolor="#e78c4b"] ;
10 -> 12 ;
13 [label="reason <= -0.599\ngini = 0.5\nsamples = 2\nvalue = [1, 1]", fillcolor="#ffffff"] ;
12 -> 13 ;
14 [label="gini = 0.0\nsamples = 1\nvalue = [1, 0]", fillcolor="#e58139"] ;
13 -> 14 ;
15 [label="gini = 0.0\nsamples = 1\nvalue = [0, 1]", fillcolor="#399de5"] ;
13 -> 15 ;
16 [label="gini = 0.0\nsamples = 6\nvalue = [10, 0]", fillcolor="#e58139"] ;
12 -> 16 ;
17 [label="Pstatus <= -0.522\ngini = 0.133\nsamples = 11\nvalue = [13, 1]", fillcolor="#e78b48"] ;
9 -> 17 ;
18 [label="health <= 0.533\ngini = 0.444\nsamples = 2\nvalue = [2, 1]", fillcolor="#f2c09c"] ;
17 -> 18 ;
19 [label="gini = 0.0\nsamples = 1\nvalue = [2, 0]", fillcolor="#e58139"] ;
18 -> 19 ;
20 [label="gini = 0.0\nsamples = 1\nvalue = [0, 1]", fillcolor="#399de5"] ;
18 -> 20 ;
21 [label="gini = 0.0\nsamples = 9\nvalue = [11, 0]", fillcolor="#e58139"] ;
17 -> 21 ;
22 [label="gini = 0.0\nsamples = 1\nvalue = [0, 3]", fillcolor="#399de5"] ;
2 -> 22 ;
23 [label="famrel <= -0.151\ngini = 0.485\nsamples = 28\nvalue = [27, 19]", fillcolor="#f7dac4"] ;
1 -> 23 ;
24 [label="goout <= 0.915\ngini = 0.287\nsamples = 13\nvalue = [19, 4]", fillcolor="#ea9c63"] ;
23 -> 24 ;
25 [label="Medu <= 1.129\ngini = 0.1\nsamples = 10\nvalue = [18, 1]", fillcolor="#e68844"] ;
24 -> 25 ;
26 [label="gini = 0.0\nsamples = 9\nvalue = [18, 0]", fillcolor="#e58139"] ;
25 -> 26 ;
27 [label="gini = 0.0\nsamples = 1\nvalue = [0, 1]", fillcolor="#399de5"] ;
25 -> 27 ;
28 [label="activities <= 0.203\ngini = 0.375\nsamples = 3\nvalue = [1, 3]", fillcolor="#7bbeee"] ;
24 -> 28 ;
29 [label="gini = 0.0\nsamples = 1\nvalue = [1, 0]", fillcolor="#e58139"] ;
28 -> 29 ;
30 [label="gini = 0.0\nsamples = 2\nvalue = [0, 3]", fillcolor="#399de5"] ;
28 -> 30 ;
31 [label="absences <= 0.025\ngini = 0.454\nsamples = 15\nvalue = [8, 15]", fillcolor="#a3d1f3"] ;
23 -> 31 ;
32 [label="Study <= 0.017\ngini = 0.463\nsamples = 8\nvalue = [7, 4]", fillcolor="#f4c9aa"] ;
31 -> 32 ;
33 [label="G2 <= 0.776\ngini = 0.32\nsamples = 4\nvalue = [1, 4]", fillcolor="#6ab6ec"] ;
32 -> 33 ;
34 [label="gini = 0.0\nsamples = 3\nvalue = [0, 4]", fillcolor="#399de5"] ;
33 -> 34 ;
35 [label="gini = 0.0\nsamples = 1\nvalue = [1, 0]", fillcolor="#e58139"] ;
33 -> 35 ;
36 [label="gini = 0.0\nsamples = 4\nvalue = [6, 0]", fillcolor="#e58139"] ;
32 -> 36 ;
37 [label="G3 <= -1.233\ngini = 0.153\nsamples = 7\nvalue = [1, 11]", fillcolor="#4ba6e7"] ;
31 -> 37 ;
38 [label="gini = 0.0\nsamples = 1\nvalue = [1, 0]", fillcolor="#e58139"] ;
37 -> 38 ;
39 [label="gini = 0.0\nsamples = 6\nvalue = [0, 11]", fillcolor="#399de5"] ;
37 -> 39 ;
40 [label="reason <= -1.79\ngini = 0.093\nsamples = 319\nvalue = [26, 503]", fillcolor="#43a2e6"] ;
0 -> 40 [labeldistance=2.5, labelangle=-45, headlabel="False"] ;
41 [label="famrel <= 1.299\ngini = 0.423\nsamples = 11\nvalue = [7, 16]", fillcolor="#90c8f0"] ;
40 -> 41 ;
42 [label="sex <= 0.623\ngini = 0.363\nsamples = 10\nvalue = [5, 16]", fillcolor="#77bced"] ;
41 -> 42 ;
43 [label="gini = 0.0\nsamples = 2\nvalue = [3, 0]", fillcolor="#e58139"] ;
42 -> 43 ;
44 [label="reason <= -1.888\ngini = 0.198\nsamples = 8\nvalue = [2, 16]", fillcolor="#52a9e8"] ;
42 -> 44 ;
45 [label="gini = 0.0\nsamples = 7\nvalue = [0, 16]", fillcolor="#399de5"] ;
44 -> 45 ;
46 [label="gini = 0.0\nsamples = 1\nvalue = [2, 0]", fillcolor="#e58139"] ;
44 -> 46 ;
47 [label="gini = 0.0\nsamples = 1\nvalue = [2, 0]", fillcolor="#e58139"] ;
41 -> 47 ;
48 [label="paid <= 2.499\ngini = 0.072\nsamples = 308\nvalue = [19, 487]", fillcolor="#41a1e6"] ;
40 -> 48 ;
49 [label="G1 <= -0.846\ngini = 0.069\nsamples = 307\nvalue = [18, 487]", fillcolor="#40a1e6"] ;
48 -> 49 ;
50 [label="health <= -1.757\ngini = 0.175\nsamples = 56\nvalue = [9, 84]", fillcolor="#4ea8e8"] ;
49 -> 50 ;
51 [label="gini = 0.0\nsamples = 1\nvalue = [2, 0]", fillcolor="#e58139"] ;
50 -> 51 ;
52 [label="famsize <= 1.521\ngini = 0.142\nsamples = 55\nvalue = [7, 84]", fillcolor="#49a5e7"] ;
50 -> 52 ;
53 [label="guardian <= 1.911\ngini = 0.05\nsamples = 49\nvalue = [2, 76]", fillcolor="#3ea0e6"] ;
52 -> 53 ;
54 [label="goout <= 1.877\ngini = 0.026\nsamples = 47\nvalue = [1, 75]", fillcolor="#3c9ee5"] ;
53 -> 54 ;
55 [label="gini = 0.0\nsamples = 45\nvalue = [0, 73]", fillcolor="#399de5"] ;
54 -> 55 ;
56 [label="Medu <= 0.903\ngini = 0.444\nsamples = 2\nvalue = [1, 2]", fillcolor="#9ccef2"] ;
54 -> 56 ;
57 [label="gini = 0.0\nsamples = 1\nvalue = [0, 2]", fillcolor="#399de5"] ;
56 -> 57 ;
58 [label="gini = 0.0\nsamples = 1\nvalue = [1, 0]", fillcolor="#e58139"] ;
56 -> 58 ;
59 [label="guardian <= 2.187\ngini = 0.5\nsamples = 2\nvalue = [1, 1]", fillcolor="#ffffff"] ;
53 -> 59 ;
60 [label="gini = 0.0\nsamples = 1\nvalue = [1, 0]", fillcolor="#e58139"] ;
59 -> 60 ;
61 [label="gini = 0.0\nsamples = 1\nvalue = [0, 1]", fillcolor="#399de5"] ;
59 -> 61 ;
62 [label="Fedu <= 0.356\ngini = 0.473\nsamples = 6\nvalue = [5, 8]", fillcolor="#b5daf5"] ;
52 -> 62 ;
63 [label="gini = 0.0\nsamples = 4\nvalue = [0, 8]", fillcolor="#399de5"] ;
62 -> 63 ;
64 [label="gini = 0.0\nsamples = 2\nvalue = [5, 0]", fillcolor="#e58139"] ;
62 -> 64 ;
65 [label="Fedu <= 2.315\ngini = 0.043\nsamples = 251\nvalue = [9, 403]", fillcolor="#3d9fe6"] ;
49 -> 65 ;
66 [label="nursery <= 0.798\ngini = 0.034\nsamples = 248\nvalue = [7, 400]", fillcolor="#3c9fe5"] ;
65 -> 66 ;
67 [label="failures <= 1.215\ngini = 0.012\nsamples = 194\nvalue = [2, 318]", fillcolor="#3a9ee5"] ;
66 -> 67 ;
68 [label="gini = 0.0\nsamples = 171\nvalue = [0, 279]", fillcolor="#399de5"] ;
67 -> 68 ;
69 [label="school <= 1.823\ngini = 0.093\nsamples = 23\nvalue = [2, 39]", fillcolor="#43a2e6"] ;
67 -> 69 ;
70 [label="gini = 0.0\nsamples = 22\nvalue = [0, 39]", fillcolor="#399de5"] ;
69 -> 70 ;
71 [label="gini = 0.0\nsamples = 1\nvalue = [2, 0]", fillcolor="#e58139"] ;
69 -> 71 ;
72 [label="Mjob <= -1.787\ngini = 0.108\nsamples = 54\nvalue = [5, 82]", fillcolor="#45a3e7"] ;
66 -> 72 ;
73 [label="traveltime <= -0.083\ngini = 0.48\nsamples = 3\nvalue = [2, 3]", fillcolor="#bddef6"] ;
72 -> 73 ;
74 [label="gini = 0.0\nsamples = 1\nvalue = [0, 3]", fillcolor="#399de5"] ;
73 -> 74 ;
75 [label="gini = 0.0\nsamples = 2\nvalue = [2, 0]", fillcolor="#e58139"] ;
73 -> 75 ;
76 [label="Pstatus <= 1.55\ngini = 0.07\nsamples = 51\nvalue = [3, 79]", fillcolor="#41a1e6"] ;
72 -> 76 ;
77 [label="Fedu <= -1.874\ngini = 0.026\nsamples = 48\nvalue = [1, 75]", fillcolor="#3c9ee5"] ;
76 -> 77 ;
78 [label="gini = 0.0\nsamples = 1\nvalue = [1, 0]", fillcolor="#e58139"] ;
77 -> 78 ;
79 [label="gini = 0.0\nsamples = 47\nvalue = [0, 75]", fillcolor="#399de5"] ;
77 -> 79 ;
80 [label="absences <= 0.097\ngini = 0.444\nsamples = 3\nvalue = [2, 4]", fillcolor="#9ccef2"] ;
76 -> 80 ;
81 [label="gini = 0.0\nsamples = 1\nvalue = [2, 0]", fillcolor="#e58139"] ;
80 -> 81 ;
82 [label="gini = 0.0\nsamples = 2\nvalue = [0, 4]", fillcolor="#399de5"] ;
80 -> 82 ;
83 [label="internet <= 0.278\ngini = 0.48\nsamples = 3\nvalue = [2, 3]", fillcolor="#bddef6"] ;
65 -> 83 ;
84 [label="gini = 0.0\nsamples = 2\nvalue = [0, 3]", fillcolor="#399de5"] ;
83 -> 84 ;
85 [label="gini = 0.0\nsamples = 1\nvalue = [2, 0]", fillcolor="#e58139"] ;
83 -> 85 ;
86 [label="gini = 0.0\nsamples = 1\nvalue = [1, 0]", fillcolor="#e58139"] ;
48 -> 86 ;
}