digraph Tree {
node [shape=box, style="filled, rounded", color="black", fontname=helvetica] ;
edge [fontname=helvetica] ;
0 [label="famrel <= 4.5\ngini = 0.7573365843163972\nsamples = 512\nvalue = [302, 180, 163, 117, 73]\nclass = 1", fillcolor="#fae8da"] ;
1 [label="absences <= 2.5\ngini = 0.767675282379723\nsamples = 372\nvalue = [203, 130, 120, 100, 53]\nclass = 1", fillcolor="#fbece1"] ;
0 -> 1 [labeldistance=2.5, labelangle=45, headlabel="True"] ;
2 [label="age <= 15.5\ngini = 0.7365186946891363\nsamples = 196\nvalue = [124, 74, 56, 36, 23]\nclass = 1", fillcolor="#fae5d6"] ;
1 -> 2 ;
3 [label="traveltime <= 2.5\ngini = 0.6403926234384295\nsamples = 48\nvalue = [45, 10, 14, 4, 9]\nclass = 1", fillcolor="#f3c6a5"] ;
2 -> 3 ;
4 [label="studytime <= 1.5\ngini = 0.5972991689750693\nsamples = 45\nvalue = [45, 8, 14, 4, 5]\nclass = 1", fillcolor="#f2c09c"] ;
3 -> 4 ;
5 [label="freetime <= 3.4999999999999996\ngini = 0.546712802768166\nsamples = 10\nvalue = [7, 0, 9, 0, 1]\nclass = 3", fillcolor="#d7faf3"] ;
4 -> 5 ;
6 [label="Fjob_services <= 0.5\ngini = 0.2975206611570248\nsamples = 7\nvalue = [2, 0, 9, 0, 0]\nclass = 3", fillcolor="#65ebd2"] ;
5 -> 6 ;
7 [label="gini = 0.0\nsamples = 1\nvalue = [1, 0, 0, 0, 0]\nclass = 1", fillcolor="#e58139"] ;
6 -> 7 ;
8 [label="nursery <= 0.5\ngini = 0.18000000000000005\nsamples = 6\nvalue = [1, 0, 9, 0, 0]\nclass = 3", fillcolor="#4fe8cb"] ;
6 -> 8 ;
9 [label="Medu <= 2.5\ngini = 0.375\nsamples = 3\nvalue = [1, 0, 3, 0, 0]\nclass = 3", fillcolor="#7beed8"] ;
8 -> 9 ;
10 [label="gini = 0.0\nsamples = 2\nvalue = [0, 0, 3, 0, 0]\nclass = 3", fillcolor="#39e5c5"] ;
9 -> 10 ;
11 [label="gini = 0.0\nsamples = 1\nvalue = [1, 0, 0, 0, 0]\nclass = 1", fillcolor="#e58139"] ;
9 -> 11 ;
12 [label="gini = 0.0\nsamples = 3\nvalue = [0, 0, 6, 0, 0]\nclass = 3", fillcolor="#39e5c5"] ;
8 -> 12 ;
13 [label="G3 <= 12.0\ngini = 0.2777777777777778\nsamples = 3\nvalue = [5, 0, 0, 0, 1]\nclass = 1", fillcolor="#ea9a61"] ;
5 -> 13 ;
14 [label="gini = 0.0\nsamples = 2\nvalue = [5, 0, 0, 0, 0]\nclass = 1", fillcolor="#e58139"] ;
13 -> 14 ;
15 [label="gini = 0.0\nsamples = 1\nvalue = [0, 0, 0, 0, 1]\nclass = 5", fillcolor="#e539c0"] ;
13 -> 15 ;
16 [label="famrel <= 1.5\ngini = 0.5504165469692617\nsamples = 35\nvalue = [38, 8, 5, 4, 4]\nclass = 1", fillcolor="#f0b58b"] ;
4 -> 16 ;
17 [label="gini = 0.0\nsamples = 1\nvalue = [0, 0, 0, 0, 4]\nclass = 5", fillcolor="#e539c0"] ;
16 -> 17 ;
18 [label="romantic <= 0.5\ngini = 0.4879338842975207\nsamples = 34\nvalue = [38, 8, 5, 4, 0]\nclass = 1", fillcolor="#eeaf81"] ;
16 -> 18 ;
19 [label="G3 <= 14.499999999999998\ngini = 0.40277777777777773\nsamples = 30\nvalue = [36, 8, 4, 0, 0]\nclass = 1", fillcolor="#eda774"] ;
18 -> 19 ;
20 [label="Dalc <= 1.5\ngini = 0.49382716049382713\nsamples = 24\nvalue = [24, 8, 4, 0, 0]\nclass = 1", fillcolor="#f0b78e"] ;
19 -> 20 ;
21 [label="G2 <= 13.500000000000002\ngini = 0.3984375\nsamples = 21\nvalue = [24, 6, 2, 0, 0]\nclass = 1", fillcolor="#eda876"] ;
20 -> 21 ;
22 [label="absences <= 1.0\ngini = 0.33777777777777773\nsamples = 19\nvalue = [24, 4, 2, 0, 0]\nclass = 1", fillcolor="#eb9e67"] ;
21 -> 22 ;
23 [label="paid <= 0.5\ngini = 0.59375\nsamples = 6\nvalue = [3, 4, 1, 0, 0]\nclass = 2", fillcolor="#e5fad7"] ;
22 -> 23 ;
24 [label="famrel <= 3.4999999999999996\ngini = 0.375\nsamples = 4\nvalue = [3, 0, 1, 0, 0]\nclass = 1", fillcolor="#eeab7b"] ;
23 -> 24 ;
25 [label="gini = 0.0\nsamples = 3\nvalue = [3, 0, 0, 0, 0]\nclass = 1", fillcolor="#e58139"] ;
24 -> 25 ;
26 [label="gini = 0.0\nsamples = 1\nvalue = [0, 0, 1, 0, 0]\nclass = 3", fillcolor="#39e5c5"] ;
24 -> 26 ;
27 [label="gini = 0.0\nsamples = 2\nvalue = [0, 4, 0, 0, 0]\nclass = 2", fillcolor="#7be539"] ;
23 -> 27 ;
28 [label="famsize <= 0.5\ngini = 0.08677685950413228\nsamples = 13\nvalue = [21, 0, 1, 0, 0]\nclass = 1", fillcolor="#e68742"] ;
22 -> 28 ;
29 [label="G1 <= 9.5\ngini = 0.4444444444444444\nsamples = 2\nvalue = [2, 0, 1, 0, 0]\nclass = 1", fillcolor="#f2c09c"] ;
28 -> 29 ;
30 [label="gini = 0.0\nsamples = 1\nvalue = [0, 0, 1, 0, 0]\nclass = 3", fillcolor="#39e5c5"] ;
29 -> 30 ;
31 [label="gini = 0.0\nsamples = 1\nvalue = [2, 0, 0, 0, 0]\nclass = 1", fillcolor="#e58139"] ;
29 -> 31 ;
32 [label="gini = 0.0\nsamples = 11\nvalue = [19, 0, 0, 0, 0]\nclass = 1", fillcolor="#e58139"] ;
28 -> 32 ;
33 [label="gini = 0.0\nsamples = 2\nvalue = [0, 2, 0, 0, 0]\nclass = 2", fillcolor="#7be539"] ;
21 -> 33 ;
34 [label="G3 <= 11.0\ngini = 0.5\nsamples = 3\nvalue = [0, 2, 2, 0, 0]\nclass = 2", fillcolor="#ffffff"] ;
20 -> 34 ;
35 [label="gini = 0.0\nsamples = 1\nvalue = [0, 0, 2, 0, 0]\nclass = 3", fillcolor="#39e5c5"] ;
34 -> 35 ;
36 [label="gini = 0.0\nsamples = 2\nvalue = [0, 2, 0, 0, 0]\nclass = 2", fillcolor="#7be539"] ;
34 -> 36 ;
37 [label="gini = 0.0\nsamples = 6\nvalue = [12, 0, 0, 0, 0]\nclass = 1", fillcolor="#e58139"] ;
19 -> 37 ;
38 [label="schoolsup <= 0.5\ngini = 0.5714285714285714\nsamples = 4\nvalue = [2, 0, 1, 4, 0]\nclass = 4", fillcolor="#b1b0f5"] ;
18 -> 38 ;
39 [label="traveltime <= 1.5\ngini = 0.4444444444444444\nsamples = 3\nvalue = [2, 0, 1, 0, 0]\nclass = 1", fillcolor="#f2c09c"] ;
38 -> 39 ;
40 [label="gini = 0.0\nsamples = 2\nvalue = [2, 0, 0, 0, 0]\nclass = 1", fillcolor="#e58139"] ;
39 -> 40 ;
41 [label="gini = 0.0\nsamples = 1\nvalue = [0, 0, 1, 0, 0]\nclass = 3", fillcolor="#39e5c5"] ;
39 -> 41 ;
42 [label="gini = 0.0\nsamples = 1\nvalue = [0, 0, 0, 4, 0]\nclass = 4", fillcolor="#3c39e5"] ;
38 -> 42 ;
43 [label="internet <= 0.5\ngini = 0.4444444444444444\nsamples = 3\nvalue = [0, 2, 0, 0, 4]\nclass = 5", fillcolor="#f29ce0"] ;
3 -> 43 ;
44 [label="gini = 0.0\nsamples = 1\nvalue = [0, 2, 0, 0, 0]\nclass = 2", fillcolor="#7be539"] ;
43 -> 44 ;
45 [label="gini = 0.0\nsamples = 2\nvalue = [0, 0, 0, 0, 4]\nclass = 5", fillcolor="#e539c0"] ;
43 -> 45 ;
46 [label="schoolsup <= 0.5\ngini = 0.7503607503607503\nsamples = 148\nvalue = [79, 64, 42, 32, 14]\nclass = 1", fillcolor="#fdf4ed"] ;
2 -> 46 ;
47 [label="Dalc <= 1.5\ngini = 0.7590449245541838\nsamples = 137\nvalue = [65, 64, 42, 31, 14]\nclass = 1", fillcolor="#fffefe"] ;
46 -> 47 ;
48 [label="guardian_other <= 0.5\ngini = 0.6733038024648041\nsamples = 96\nvalue = [64, 52, 24, 8, 3]\nclass = 1", fillcolor="#fcf0e7"] ;
47 -> 48 ;
49 [label="nursery <= 0.5\ngini = 0.6826739693872561\nsamples = 91\nvalue = [56, 52, 24, 8, 3]\nclass = 1", fillcolor="#fef9f6"] ;
48 -> 49 ;
50 [label="age <= 16.5\ngini = 0.7036011080332409\nsamples = 13\nvalue = [5, 3, 8, 3, 0]\nclass = 3", fillcolor="#d5f9f3"] ;
49 -> 50 ;
51 [label="G1 <= 13.500000000000002\ngini = 0.375\nsamples = 3\nvalue = [0, 0, 1, 3, 0]\nclass = 4", fillcolor="#7d7bee"] ;
50 -> 51 ;
52 [label="gini = 0.0\nsamples = 2\nvalue = [0, 0, 0, 3, 0]\nclass = 4", fillcolor="#3c39e5"] ;
51 -> 52 ;
53 [label="gini = 0.0\nsamples = 1\nvalue = [0, 0, 1, 0, 0]\nclass = 3", fillcolor="#39e5c5"] ;
51 -> 53 ;
54 [label="G2 <= 8.0\ngini = 0.6311111111111112\nsamples = 10\nvalue = [5, 3, 7, 0, 0]\nclass = 3", fillcolor="#d7faf3"] ;
50 -> 54 ;
55 [label="gini = 0.0\nsamples = 1\nvalue = [0, 0, 4, 0, 0]\nclass = 3", fillcolor="#39e5c5"] ;
54 -> 55 ;
56 [label="famsize <= 0.5\ngini = 0.6446280991735538\nsamples = 9\nvalue = [5, 3, 3, 0, 0]\nclass = 1", fillcolor="#f8e0ce"] ;
54 -> 56 ;
57 [label="gini = 0.0\nsamples = 1\nvalue = [0, 0, 2, 0, 0]\nclass = 3", fillcolor="#39e5c5"] ;
56 -> 57 ;
58 [label="age <= 17.5\ngini = 0.5679012345679013\nsamples = 8\nvalue = [5, 3, 1, 0, 0]\nclass = 1", fillcolor="#f6d5bd"] ;
56 -> 58 ;
59 [label="studytime <= 2.5\ngini = 0.6111111111111112\nsamples = 6\nvalue = [2, 3, 1, 0, 0]\nclass = 2", fillcolor="#def8ce"] ;
58 -> 59 ;
60 [label="address <= 0.5\ngini = 0.375\nsamples = 4\nvalue = [0, 3, 1, 0, 0]\nclass = 2", fillcolor="#a7ee7b"] ;
59 -> 60 ;
61 [label="gini = 0.0\nsamples = 1\nvalue = [0, 0, 1, 0, 0]\nclass = 3", fillcolor="#39e5c5"] ;
60 -> 61 ;
62 [label="gini = 0.0\nsamples = 3\nvalue = [0, 3, 0, 0, 0]\nclass = 2", fillcolor="#7be539"] ;
60 -> 62 ;
63 [label="gini = 0.0\nsamples = 2\nvalue = [2, 0, 0, 0, 0]\nclass = 1", fillcolor="#e58139"] ;
59 -> 63 ;
64 [label="gini = 0.0\nsamples = 2\nvalue = [3, 0, 0, 0, 0]\nclass = 1", fillcolor="#e58139"] ;
58 -> 64 ;
65 [label="G1 <= 14.499999999999998\ngini = 0.6558272632674298\nsamples = 78\nvalue = [51, 49, 16, 5, 3]\nclass = 1", fillcolor="#fefcfa"] ;
49 -> 65 ;
66 [label="Medu <= 2.5\ngini = 0.6436077951229466\nsamples = 62\nvalue = [44, 36, 16, 2, 1]\nclass = 1", fillcolor="#fcefe6"] ;
65 -> 66 ;
67 [label="reason_reputation <= 0.5\ngini = 0.558858501783591\nsamples = 35\nvalue = [30, 24, 2, 2, 0]\nclass = 1", fillcolor="#fae9dc"] ;
66 -> 67 ;
68 [label="guardian_mother <= 0.5\ngini = 0.5497709287796751\nsamples = 31\nvalue = [28, 17, 2, 2, 0]\nclass = 1", fillcolor="#f6d4bb"] ;
67 -> 68 ;
69 [label="studytime <= 2.5\ngini = 0.5864197530864197\nsamples = 9\nvalue = [7, 9, 2, 0, 0]\nclass = 2", fillcolor="#e7fadb"] ;
68 -> 69 ;
70 [label="Fjob_health <= 0.5\ngini = 0.5511111111111111\nsamples = 8\nvalue = [4, 9, 2, 0, 0]\nclass = 2", fillcolor="#c3f3a5"] ;
69 -> 70 ;
71 [label="G3 <= 11.5\ngini = 0.6419753086419753\nsamples = 6\nvalue = [4, 3, 2, 0, 0]\nclass = 1", fillcolor="#fbeade"] ;
70 -> 71 ;
72 [label="gini = 0.0\nsamples = 2\nvalue = [0, 3, 0, 0, 0]\nclass = 2", fillcolor="#7be539"] ;
71 -> 72 ;
73 [label="Fedu <= 2.5\ngini = 0.4444444444444444\nsamples = 4\nvalue = [4, 0, 2, 0, 0]\nclass = 1", fillcolor="#f2c09c"] ;
71 -> 73 ;
74 [label="address <= 0.5\ngini = 0.5\nsamples = 3\nvalue = [2, 0, 2, 0, 0]\nclass = 1", fillcolor="#ffffff"] ;
73 -> 74 ;
75 [label="famsize <= 0.5\ngini = 0.4444444444444444\nsamples = 2\nvalue = [1, 0, 2, 0, 0]\nclass = 3", fillcolor="#9cf2e2"] ;
74 -> 75 ;
76 [label="gini = 0.0\nsamples = 1\nvalue = [0, 0, 2, 0, 0]\nclass = 3", fillcolor="#39e5c5"] ;
75 -> 76 ;
77 [label="gini = 0.0\nsamples = 1\nvalue = [1, 0, 0, 0, 0]\nclass = 1", fillcolor="#e58139"] ;
75 -> 77 ;
78 [label="gini = 0.0\nsamples = 1\nvalue = [1, 0, 0, 0, 0]\nclass = 1", fillcolor="#e58139"] ;
74 -> 78 ;
79 [label="gini = 0.0\nsamples = 1\nvalue = [2, 0, 0, 0, 0]\nclass = 1", fillcolor="#e58139"] ;
73 -> 79 ;
80 [label="gini = 0.0\nsamples = 2\nvalue = [0, 6, 0, 0, 0]\nclass = 2", fillcolor="#7be539"] ;
70 -> 80 ;
81 [label="gini = 0.0\nsamples = 1\nvalue = [3, 0, 0, 0, 0]\nclass = 1", fillcolor="#e58139"] ;
69 -> 81 ;
82 [label="G1 <= 11.5\ngini = 0.47034339229968775\nsamples = 22\nvalue = [21, 8, 0, 2, 0]\nclass = 1", fillcolor="#f0b88f"] ;
68 -> 82 ;
83 [label="reason_other <= 0.5\ngini = 0.4444444444444444\nsamples = 16\nvalue = [16, 8, 0, 0, 0]\nclass = 1", fillcolor="#f2c09c"] ;
82 -> 83 ;
84 [label="Mjob_at_home <= 0.5\ngini = 0.39669421487603307\nsamples = 14\nvalue = [16, 6, 0, 0, 0]\nclass = 1", fillcolor="#efb083"] ;
83 -> 84 ;
85 [label="romantic <= 0.5\ngini = 0.31999999999999995\nsamples = 5\nvalue = [1, 4, 0, 0, 0]\nclass = 2", fillcolor="#9cec6a"] ;
84 -> 85 ;
86 [label="gini = 0.0\nsamples = 4\nvalue = [0, 4, 0, 0, 0]\nclass = 2", fillcolor="#7be539"] ;
85 -> 86 ;
87 [label="gini = 0.0\nsamples = 1\nvalue = [1, 0, 0, 0, 0]\nclass = 1", fillcolor="#e58139"] ;
85 -> 87 ;
88 [label="age <= 17.5\ngini = 0.2076124567474048\nsamples = 9\nvalue = [15, 2, 0, 0, 0]\nclass = 1", fillcolor="#e89253"] ;
84 -> 88 ;
89 [label="Medu <= 1.0\ngini = 0.5\nsamples = 2\nvalue = [2, 2, 0, 0, 0]\nclass = 1", fillcolor="#ffffff"] ;
88 -> 89 ;
90 [label="gini = 0.0\nsamples = 1\nvalue = [2, 0, 0, 0, 0]\nclass = 1", fillcolor="#e58139"] ;
89 -> 90 ;
91 [label="gini = 0.0\nsamples = 1\nvalue = [0, 2, 0, 0, 0]\nclass = 2", fillcolor="#7be539"] ;
89 -> 91 ;
92 [label="gini = 0.0\nsamples = 7\nvalue = [13, 0, 0, 0, 0]\nclass = 1", fillcolor="#e58139"] ;
88 -> 92 ;
93 [label="gini = 0.0\nsamples = 2\nvalue = [0, 2, 0, 0, 0]\nclass = 2", fillcolor="#7be539"] ;
83 -> 93 ;
94 [label="Medu <= 1.5\ngini = 0.40816326530612246\nsamples = 6\nvalue = [5, 0, 0, 2, 0]\nclass = 1", fillcolor="#efb388"] ;
82 -> 94 ;
95 [label="gini = 0.0\nsamples = 2\nvalue = [0, 0, 0, 2, 0]\nclass = 4", fillcolor="#3c39e5"] ;
94 -> 95 ;
96 [label="gini = 0.0\nsamples = 4\nvalue = [5, 0, 0, 0, 0]\nclass = 1", fillcolor="#e58139"] ;
94 -> 96 ;
97 [label="Fedu <= 3.0\ngini = 0.345679012345679\nsamples = 4\nvalue = [2, 7, 0, 0, 0]\nclass = 2", fillcolor="#a1ec72"] ;
67 -> 97 ;
98 [label="gini = 0.0\nsamples = 3\nvalue = [0, 7, 0, 0, 0]\nclass = 2", fillcolor="#7be539"] ;
97 -> 98 ;
99 [label="gini = 0.0\nsamples = 1\nvalue = [2, 0, 0, 0, 0]\nclass = 1", fillcolor="#e58139"] ;
97 -> 99 ;
100 [label="romantic <= 0.5\ngini = 0.6805472932778108\nsamples = 27\nvalue = [14, 12, 14, 0, 1]\nclass = 1", fillcolor="#ffffff"] ;
66 -> 100 ;
101 [label="goout <= 2.5\ngini = 0.6597633136094674\nsamples = 17\nvalue = [7, 6, 12, 0, 1]\nclass = 3", fillcolor="#cbf8f0"] ;
100 -> 101 ;
102 [label="reason_course <= 0.5\ngini = 0.5925925925925926\nsamples = 6\nvalue = [2, 5, 2, 0, 0]\nclass = 2", fillcolor="#c6f4aa"] ;
101 -> 102 ;
103 [label="health <= 4.0\ngini = 0.2777777777777778\nsamples = 4\nvalue = [1, 5, 0, 0, 0]\nclass = 2", fillcolor="#95ea61"] ;
102 -> 103 ;
104 [label="gini = 0.0\nsamples = 2\nvalue = [0, 3, 0, 0, 0]\nclass = 2", fillcolor="#7be539"] ;
103 -> 104 ;
105 [label="G2 <= 12.0\ngini = 0.4444444444444444\nsamples = 2\nvalue = [1, 2, 0, 0, 0]\nclass = 2", fillcolor="#bdf29c"] ;
103 -> 105 ;
106 [label="gini = 0.0\nsamples = 1\nvalue = [1, 0, 0, 0, 0]\nclass = 1", fillcolor="#e58139"] ;
105 -> 106 ;
107 [label="gini = 0.0\nsamples = 1\nvalue = [0, 2, 0, 0, 0]\nclass = 2", fillcolor="#7be539"] ;
105 -> 107 ;
108 [label="G3 <= 15.5\ngini = 0.4444444444444444\nsamples = 2\nvalue = [1, 0, 2, 0, 0]\nclass = 3", fillcolor="#9cf2e2"] ;
102 -> 108 ;
109 [label="gini = 0.0\nsamples = 1\nvalue = [0, 0, 2, 0, 0]\nclass = 3", fillcolor="#39e5c5"] ;
108 -> 109 ;
110 [label="gini = 0.0\nsamples = 1\nvalue = [1, 0, 0, 0, 0]\nclass = 1", fillcolor="#e58139"] ;
108 -> 110 ;
111 [label="Fjob_other <= 0.5\ngini = 0.560553633217993\nsamples = 11\nvalue = [5, 1, 10, 0, 1]\nclass = 3", fillcolor="#acf4e7"] ;
101 -> 111 ;
112 [label="guardian_mother <= 0.5\ngini = 0.4444444444444444\nsamples = 3\nvalue = [2, 1, 0, 0, 0]\nclass = 1", fillcolor="#f2c09c"] ;
111 -> 112 ;
113 [label="gini = 0.0\nsamples = 1\nvalue = [0, 1, 0, 0, 0]\nclass = 2", fillcolor="#7be539"] ;
112 -> 113 ;
114 [label="gini = 0.0\nsamples = 2\nvalue = [2, 0, 0, 0, 0]\nclass = 1", fillcolor="#e58139"] ;
112 -> 114 ;
115 [label="G2 <= 12.0\ngini = 0.4387755102040817\nsamples = 8\nvalue = [3, 0, 10, 0, 1]\nclass = 3", fillcolor="#81eeda"] ;
111 -> 115 ;
116 [label="gini = 0.0\nsamples = 2\nvalue = [0, 0, 5, 0, 0]\nclass = 3", fillcolor="#39e5c5"] ;
115 -> 116 ;
117 [label="freetime <= 3.4999999999999996\ngini = 0.5679012345679013\nsamples = 6\nvalue = [3, 0, 5, 0, 1]\nclass = 3", fillcolor="#bdf6ec"] ;
115 -> 117 ;
118 [label="absences <= 1.0\ngini = 0.5\nsamples = 2\nvalue = [1, 0, 0, 0, 1]\nclass = 1", fillcolor="#ffffff"] ;
117 -> 118 ;
119 [label="gini = 0.0\nsamples = 1\nvalue = [1, 0, 0, 0, 0]\nclass = 1", fillcolor="#e58139"] ;
118 -> 119 ;
120 [label="gini = 0.0\nsamples = 1\nvalue = [0, 0, 0, 0, 1]\nclass = 5", fillcolor="#e539c0"] ;
118 -> 120 ;
121 [label="Fedu <= 2.5\ngini = 0.40816326530612246\nsamples = 4\nvalue = [2, 0, 5, 0, 0]\nclass = 3", fillcolor="#88efdc"] ;
117 -> 121 ;
122 [label="gini = 0.0\nsamples = 2\nvalue = [0, 0, 3, 0, 0]\nclass = 3", fillcolor="#39e5c5"] ;
121 -> 122 ;
123 [label="famsize <= 0.5\ngini = 0.5\nsamples = 2\nvalue = [2, 0, 2, 0, 0]\nclass = 1", fillcolor="#ffffff"] ;
121 -> 123 ;
124 [label="gini = 0.0\nsamples = 1\nvalue = [2, 0, 0, 0, 0]\nclass = 1", fillcolor="#e58139"] ;
123 -> 124 ;
125 [label="gini = 0.0\nsamples = 1\nvalue = [0, 0, 2, 0, 0]\nclass = 3", fillcolor="#39e5c5"] ;
123 -> 125 ;
126 [label="famsup <= 0.5\ngini = 0.6044444444444445\nsamples = 10\nvalue = [7, 6, 2, 0, 0]\nclass = 1", fillcolor="#fcf1e9"] ;
100 -> 126 ;
127 [label="G1 <= 13.500000000000002\ngini = 0.49382716049382713\nsamples = 5\nvalue = [2, 6, 1, 0, 0]\nclass = 2", fillcolor="#b4f08e"] ;
126 -> 127 ;
128 [label="reason_course <= 0.5\ngini = 0.24489795918367355\nsamples = 4\nvalue = [0, 6, 1, 0, 0]\nclass = 2", fillcolor="#91e95a"] ;
127 -> 128 ;
129 [label="gini = 0.0\nsamples = 3\nvalue = [0, 6, 0, 0, 0]\nclass = 2", fillcolor="#7be539"] ;
128 -> 129 ;
130 [label="gini = 0.0\nsamples = 1\nvalue = [0, 0, 1, 0, 0]\nclass = 3", fillcolor="#39e5c5"] ;
128 -> 130 ;
131 [label="gini = 0.0\nsamples = 1\nvalue = [2, 0, 0, 0, 0]\nclass = 1", fillcolor="#e58139"] ;
127 -> 131 ;
132 [label="Medu <= 3.4999999999999996\ngini = 0.2777777777777778\nsamples = 5\nvalue = [5, 0, 1, 0, 0]\nclass = 1", fillcolor="#ea9a61"] ;
126 -> 132 ;
133 [label="paid <= 0.5\ngini = 0.5\nsamples = 2\nvalue = [1, 0, 1, 0, 0]\nclass = 1", fillcolor="#ffffff"] ;
132 -> 133 ;
134 [label="gini = 0.0\nsamples = 1\nvalue = [1, 0, 0, 0, 0]\nclass = 1", fillcolor="#e58139"] ;
133 -> 134 ;
135 [label="gini = 0.0\nsamples = 1\nvalue = [0, 0, 1, 0, 0]\nclass = 3", fillcolor="#39e5c5"] ;
133 -> 135 ;
136 [label="gini = 0.0\nsamples = 3\nvalue = [4, 0, 0, 0, 0]\nclass = 1", fillcolor="#e58139"] ;
132 -> 136 ;
137 [label="Mjob_health <= 0.5\ngini = 0.6304000000000001\nsamples = 16\nvalue = [7, 13, 0, 3, 2]\nclass = 2", fillcolor="#d3f6bd"] ;
65 -> 137 ;
138 [label="school <= 0.5\ngini = 0.605\nsamples = 13\nvalue = [7, 10, 0, 3, 0]\nclass = 2", fillcolor="#e1f9d1"] ;
137 -> 138 ;
139 [label="G2 <= 15.5\ngini = 0.19753086419753085\nsamples = 4\nvalue = [0, 8, 0, 1, 0]\nclass = 2", fillcolor="#8ce852"] ;
138 -> 139 ;
140 [label="reason_reputation <= 0.5\ngini = 0.4444444444444444\nsamples = 2\nvalue = [0, 2, 0, 1, 0]\nclass = 2", fillcolor="#bdf29c"] ;
139 -> 140 ;
141 [label="gini = 0.0\nsamples = 1\nvalue = [0, 0, 0, 1, 0]\nclass = 4", fillcolor="#3c39e5"] ;
140 -> 141 ;
142 [label="gini = 0.0\nsamples = 1\nvalue = [0, 2, 0, 0, 0]\nclass = 2", fillcolor="#7be539"] ;
140 -> 142 ;
143 [label="gini = 0.0\nsamples = 2\nvalue = [0, 6, 0, 0, 0]\nclass = 2", fillcolor="#7be539"] ;
139 -> 143 ;
144 [label="failures <= 0.5\ngini = 0.5289256198347108\nsamples = 9\nvalue = [7, 2, 0, 2, 0]\nclass = 1", fillcolor="#f1b991"] ;
138 -> 144 ;
145 [label="sex <= 0.5\ngini = 0.4599999999999999\nsamples = 8\nvalue = [7, 1, 0, 2, 0]\nclass = 1", fillcolor="#efb083"] ;
144 -> 145 ;
146 [label="gini = 0.0\nsamples = 4\nvalue = [5, 0, 0, 0, 0]\nclass = 1", fillcolor="#e58139"] ;
145 -> 146 ;
147 [label="Fedu <= 1.5\ngini = 0.64\nsamples = 4\nvalue = [2, 1, 0, 2, 0]\nclass = 1", fillcolor="#ffffff"] ;
145 -> 147 ;
148 [label="G3 <= 16.5\ngini = 0.5\nsamples = 2\nvalue = [1, 1, 0, 0, 0]\nclass = 1", fillcolor="#ffffff"] ;
147 -> 148 ;
149 [label="gini = 0.0\nsamples = 1\nvalue = [0, 1, 0, 0, 0]\nclass = 2", fillcolor="#7be539"] ;
148 -> 149 ;
150 [label="gini = 0.0\nsamples = 1\nvalue = [1, 0, 0, 0, 0]\nclass = 1", fillcolor="#e58139"] ;
148 -> 150 ;
151 [label="freetime <= 3.4999999999999996\ngini = 0.4444444444444444\nsamples = 2\nvalue = [1, 0, 0, 2, 0]\nclass = 4", fillcolor="#9e9cf2"] ;
147 -> 151 ;
152 [label="gini = 0.0\nsamples = 1\nvalue = [0, 0, 0, 2, 0]\nclass = 4", fillcolor="#3c39e5"] ;
151 -> 152 ;
153 [label="gini = 0.0\nsamples = 1\nvalue = [1, 0, 0, 0, 0]\nclass = 1", fillcolor="#e58139"] ;
151 -> 153 ;
154 [label="gini = 0.0\nsamples = 1\nvalue = [0, 1, 0, 0, 0]\nclass = 2", fillcolor="#7be539"] ;
144 -> 154 ;
155 [label="studytime <= 2.5\ngini = 0.48\nsamples = 3\nvalue = [0, 3, 0, 0, 2]\nclass = 2", fillcolor="#d3f6bd"] ;
137 -> 155 ;
156 [label="gini = 0.0\nsamples = 1\nvalue = [0, 0, 0, 0, 2]\nclass = 5", fillcolor="#e539c0"] ;
155 -> 156 ;
157 [label="gini = 0.0\nsamples = 2\nvalue = [0, 3, 0, 0, 0]\nclass = 2", fillcolor="#7be539"] ;
155 -> 157 ;
158 [label="gini = 0.0\nsamples = 5\nvalue = [8, 0, 0, 0, 0]\nclass = 1", fillcolor="#e58139"] ;
48 -> 158 ;
159 [label="Dalc <= 2.5\ngini = 0.7351479289940828\nsamples = 41\nvalue = [1, 12, 18, 23, 11]\nclass = 4", fillcolor="#eaeafc"] ;
47 -> 159 ;
160 [label="Fedu <= 3.4999999999999996\ngini = 0.7447916666666667\nsamples = 31\nvalue = [1, 12, 15, 13, 7]\nclass = 3", fillcolor="#f4fefc"] ;
159 -> 160 ;
161 [label="Medu <= 2.5\ngini = 0.6096938775510203\nsamples = 19\nvalue = [0, 4, 13, 11, 0]\nclass = 3", fillcolor="#e8fcf8"] ;
160 -> 161 ;
162 [label="Fjob_other <= 0.5\ngini = 0.5925925925925926\nsamples = 13\nvalue = [0, 4, 4, 10, 0]\nclass = 4", fillcolor="#abaaf4"] ;
161 -> 162 ;
163 [label="freetime <= 2.0\ngini = 0.31999999999999995\nsamples = 4\nvalue = [0, 1, 4, 0, 0]\nclass = 3", fillcolor="#6aecd4"] ;
162 -> 163 ;
164 [label="gini = 0.0\nsamples = 1\nvalue = [0, 1, 0, 0, 0]\nclass = 2", fillcolor="#7be539"] ;
163 -> 164 ;
165 [label="gini = 0.0\nsamples = 3\nvalue = [0, 0, 4, 0, 0]\nclass = 3", fillcolor="#39e5c5"] ;
163 -> 165 ;
166 [label="absences <= 1.0\ngini = 0.3550295857988166\nsamples = 9\nvalue = [0, 3, 0, 10, 0]\nclass = 4", fillcolor="#7674ed"] ;
162 -> 166 ;
167 [label="gini = 0.0\nsamples = 6\nvalue = [0, 0, 0, 8, 0]\nclass = 4", fillcolor="#3c39e5"] ;
166 -> 167 ;
168 [label="nursery <= 0.5\ngini = 0.48\nsamples = 3\nvalue = [0, 3, 0, 2, 0]\nclass = 2", fillcolor="#d3f6bd"] ;
166 -> 168 ;
169 [label="gini = 0.0\nsamples = 1\nvalue = [0, 3, 0, 0, 0]\nclass = 2", fillcolor="#7be539"] ;
168 -> 169 ;
170 [label="gini = 0.0\nsamples = 2\nvalue = [0, 0, 0, 2, 0]\nclass = 4", fillcolor="#3c39e5"] ;
168 -> 170 ;
171 [label="goout <= 4.5\ngini = 0.18000000000000005\nsamples = 6\nvalue = [0, 0, 9, 1, 0]\nclass = 3", fillcolor="#4fe8cb"] ;
161 -> 171 ;
172 [label="gini = 0.0\nsamples = 4\nvalue = [0, 0, 6, 0, 0]\nclass = 3", fillcolor="#39e5c5"] ;
171 -> 172 ;
173 [label="absences <= 1.0\ngini = 0.375\nsamples = 2\nvalue = [0, 0, 3, 1, 0]\nclass = 3", fillcolor="#7beed8"] ;
171 -> 173 ;
174 [label="gini = 0.0\nsamples = 1\nvalue = [0, 0, 0, 1, 0]\nclass = 4", fillcolor="#3c39e5"] ;
173 -> 174 ;
175 [label="gini = 0.0\nsamples = 1\nvalue = [0, 0, 3, 0, 0]\nclass = 3", fillcolor="#39e5c5"] ;
173 -> 175 ;
176 [label="nursery <= 0.5\ngini = 0.6950000000000001\nsamples = 12\nvalue = [1, 8, 2, 2, 7]\nclass = 2", fillcolor="#f5fdf0"] ;
160 -> 176 ;
177 [label="gini = 0.0\nsamples = 2\nvalue = [0, 0, 0, 0, 5]\nclass = 5", fillcolor="#e539c0"] ;
176 -> 177 ;
178 [label="famrel <= 3.4999999999999996\ngini = 0.6577777777777778\nsamples = 10\nvalue = [1, 8, 2, 2, 2]\nclass = 2", fillcolor="#c2f3a4"] ;
176 -> 178 ;
179 [label="goout <= 3.0\ngini = 0.4444444444444444\nsamples = 3\nvalue = [1, 0, 2, 0, 0]\nclass = 3", fillcolor="#9cf2e2"] ;
178 -> 179 ;
180 [label="gini = 0.0\nsamples = 1\nvalue = [1, 0, 0, 0, 0]\nclass = 1", fillcolor="#e58139"] ;
179 -> 180 ;
181 [label="gini = 0.0\nsamples = 2\nvalue = [0, 0, 2, 0, 0]\nclass = 3", fillcolor="#39e5c5"] ;
179 -> 181 ;
182 [label="age <= 17.0\ngini = 0.5\nsamples = 7\nvalue = [0, 8, 0, 2, 2]\nclass = 2", fillcolor="#b0ef88"] ;
178 -> 182 ;
183 [label="studytime <= 1.5\ngini = 0.5\nsamples = 3\nvalue = [0, 0, 0, 2, 2]\nclass = 4", fillcolor="#ffffff"] ;
182 -> 183 ;
184 [label="gini = 0.0\nsamples = 1\nvalue = [0, 0, 0, 0, 2]\nclass = 5", fillcolor="#e539c0"] ;
183 -> 184 ;
185 [label="gini = 0.0\nsamples = 2\nvalue = [0, 0, 0, 2, 0]\nclass = 4", fillcolor="#3c39e5"] ;
183 -> 185 ;
186 [label="gini = 0.0\nsamples = 4\nvalue = [0, 8, 0, 0, 0]\nclass = 2", fillcolor="#7be539"] ;
182 -> 186 ;
187 [label="health <= 3.0\ngini = 0.5674740484429066\nsamples = 10\nvalue = [0, 0, 3, 10, 4]\nclass = 4", fillcolor="#a5a4f3"] ;
159 -> 187 ;
188 [label="gini = 0.0\nsamples = 2\nvalue = [0, 0, 3, 0, 0]\nclass = 3", fillcolor="#39e5c5"] ;
187 -> 188 ;
189 [label="reason_home <= 0.5\ngini = 0.40816326530612246\nsamples = 8\nvalue = [0, 0, 0, 10, 4]\nclass = 4", fillcolor="#8a88ef"] ;
187 -> 189 ;
190 [label="Dalc <= 3.4999999999999996\ngini = 0.2975206611570248\nsamples = 6\nvalue = [0, 0, 0, 9, 2]\nclass = 4", fillcolor="#6765eb"] ;
189 -> 190 ;
191 [label="freetime <= 3.4999999999999996\ngini = 0.19753086419753085\nsamples = 4\nvalue = [0, 0, 0, 8, 1]\nclass = 4", fillcolor="#5452e8"] ;
190 -> 191 ;
192 [label="gini = 0.0\nsamples = 2\nvalue = [0, 0, 0, 5, 0]\nclass = 4", fillcolor="#3c39e5"] ;
191 -> 192 ;
193 [label="G2 <= 10.0\ngini = 0.375\nsamples = 2\nvalue = [0, 0, 0, 3, 1]\nclass = 4", fillcolor="#7d7bee"] ;
191 -> 193 ;
194 [label="gini = 0.0\nsamples = 1\nvalue = [0, 0, 0, 0, 1]\nclass = 5", fillcolor="#e539c0"] ;
193 -> 194 ;
195 [label="gini = 0.0\nsamples = 1\nvalue = [0, 0, 0, 3, 0]\nclass = 4", fillcolor="#3c39e5"] ;
193 -> 195 ;
196 [label="studytime <= 1.5\ngini = 0.5\nsamples = 2\nvalue = [0, 0, 0, 1, 1]\nclass = 4", fillcolor="#ffffff"] ;
190 -> 196 ;
197 [label="gini = 0.0\nsamples = 1\nvalue = [0, 0, 0, 0, 1]\nclass = 5", fillcolor="#e539c0"] ;
196 -> 197 ;
198 [label="gini = 0.0\nsamples = 1\nvalue = [0, 0, 0, 1, 0]\nclass = 4", fillcolor="#3c39e5"] ;
196 -> 198 ;
199 [label="failures <= 0.5\ngini = 0.4444444444444444\nsamples = 2\nvalue = [0, 0, 0, 1, 2]\nclass = 5", fillcolor="#f29ce0"] ;
189 -> 199 ;
200 [label="gini = 0.0\nsamples = 1\nvalue = [0, 0, 0, 0, 2]\nclass = 5", fillcolor="#e539c0"] ;
199 -> 200 ;
201 [label="gini = 0.0\nsamples = 1\nvalue = [0, 0, 0, 1, 0]\nclass = 4", fillcolor="#3c39e5"] ;
199 -> 201 ;
202 [label="activities <= 0.5\ngini = 0.12444444444444447\nsamples = 11\nvalue = [14, 0, 0, 1, 0]\nclass = 1", fillcolor="#e78a47"] ;
46 -> 202 ;
203 [label="gini = 0.0\nsamples = 7\nvalue = [10, 0, 0, 0, 0]\nclass = 1", fillcolor="#e58139"] ;
202 -> 203 ;
204 [label="Dalc <= 1.5\ngini = 0.31999999999999995\nsamples = 4\nvalue = [4, 0, 0, 1, 0]\nclass = 1", fillcolor="#eca06a"] ;
202 -> 204 ;
205 [label="gini = 0.0\nsamples = 3\nvalue = [4, 0, 0, 0, 0]\nclass = 1", fillcolor="#e58139"] ;
204 -> 205 ;
206 [label="gini = 0.0\nsamples = 1\nvalue = [0, 0, 0, 1, 0]\nclass = 4", fillcolor="#3c39e5"] ;
204 -> 206 ;
207 [label="reason_course <= 0.5\ngini = 0.7848664515602978\nsamples = 176\nvalue = [79, 56, 64, 64, 30]\nclass = 1", fillcolor="#fdf7f2"] ;
1 -> 207 ;
208 [label="Fjob_services <= 0.5\ngini = 0.7678939353220461\nsamples = 116\nvalue = [45, 23, 57, 41, 17]\nclass = 3", fillcolor="#eefdfa"] ;
207 -> 208 ;
209 [label="sex <= 0.5\ngini = 0.7666911640002262\nsamples = 85\nvalue = [42, 21, 35, 24, 11]\nclass = 1", fillcolor="#fdf6f1"] ;
208 -> 209 ;
210 [label="Dalc <= 1.5\ngini = 0.6655124653739612\nsamples = 52\nvalue = [37, 17, 15, 7, 0]\nclass = 1", fillcolor="#f6d4bc"] ;
209 -> 210 ;
211 [label="age <= 16.5\ngini = 0.5538888888888889\nsamples = 41\nvalue = [37, 14, 5, 4, 0]\nclass = 1", fillcolor="#f2c09c"] ;
210 -> 211 ;
212 [label="age <= 15.5\ngini = 0.5743801652892562\nsamples = 17\nvalue = [11, 9, 2, 0, 0]\nclass = 1", fillcolor="#fbece1"] ;
211 -> 212 ;
213 [label="health <= 1.5\ngini = 0.31999999999999995\nsamples = 8\nvalue = [8, 0, 2, 0, 0]\nclass = 1", fillcolor="#eca06a"] ;
212 -> 213 ;
214 [label="address <= 0.5\ngini = 0.4444444444444444\nsamples = 3\nvalue = [1, 0, 2, 0, 0]\nclass = 3", fillcolor="#9cf2e2"] ;
213 -> 214 ;
215 [label="gini = 0.0\nsamples = 2\nvalue = [0, 0, 2, 0, 0]\nclass = 3", fillcolor="#39e5c5"] ;
214 -> 215 ;
216 [label="gini = 0.0\nsamples = 1\nvalue = [1, 0, 0, 0, 0]\nclass = 1", fillcolor="#e58139"] ;
214 -> 216 ;
217 [label="gini = 0.0\nsamples = 5\nvalue = [7, 0, 0, 0, 0]\nclass = 1", fillcolor="#e58139"] ;
213 -> 217 ;
218 [label="famrel <= 2.0\ngini = 0.375\nsamples = 9\nvalue = [3, 9, 0, 0, 0]\nclass = 2", fillcolor="#a7ee7b"] ;
212 -> 218 ;
219 [label="reason_other <= 0.5\ngini = 0.5\nsamples = 3\nvalue = [2, 2, 0, 0, 0]\nclass = 1", fillcolor="#ffffff"] ;
218 -> 219 ;
220 [label="gini = 0.0\nsamples = 1\nvalue = [0, 2, 0, 0, 0]\nclass = 2", fillcolor="#7be539"] ;
219 -> 220 ;
221 [label="gini = 0.0\nsamples = 2\nvalue = [2, 0, 0, 0, 0]\nclass = 1", fillcolor="#e58139"] ;
219 -> 221 ;
222 [label="studytime <= 1.5\ngini = 0.21874999999999997\nsamples = 6\nvalue = [1, 7, 0, 0, 0]\nclass = 2", fillcolor="#8ee955"] ;
218 -> 222 ;
223 [label="G1 <= 11.5\ngini = 0.2777777777777778\nsamples = 4\nvalue = [1, 5, 0, 0, 0]\nclass = 2", fillcolor="#95ea61"] ;
222 -> 223 ;
224 [label="higher <= 0.5\ngini = 0.5\nsamples = 2\nvalue = [1, 1, 0, 0, 0]\nclass = 1", fillcolor="#ffffff"] ;
223 -> 224 ;
225 [label="gini = 0.0\nsamples = 1\nvalue = [0, 1, 0, 0, 0]\nclass = 2", fillcolor="#7be539"] ;
224 -> 225 ;
226 [label="gini = 0.0\nsamples = 1\nvalue = [1, 0, 0, 0, 0]\nclass = 1", fillcolor="#e58139"] ;
224 -> 226 ;
227 [label="gini = 0.0\nsamples = 2\nvalue = [0, 4, 0, 0, 0]\nclass = 2", fillcolor="#7be539"] ;
223 -> 227 ;
228 [label="gini = 0.0\nsamples = 2\nvalue = [0, 2, 0, 0, 0]\nclass = 2", fillcolor="#7be539"] ;
222 -> 228 ;
229 [label="guardian_father <= 0.5\ngini = 0.4972299168975069\nsamples = 24\nvalue = [26, 5, 3, 4, 0]\nclass = 1", fillcolor="#eeaf81"] ;
211 -> 229 ;
230 [label="reason_reputation <= 0.5\ngini = 0.4022038567493113\nsamples = 20\nvalue = [25, 4, 3, 1, 0]\nclass = 1", fillcolor="#eca470"] ;
229 -> 230 ;
231 [label="G3 <= 8.5\ngini = 0.09070294784580502\nsamples = 12\nvalue = [20, 1, 0, 0, 0]\nclass = 1", fillcolor="#e68743"] ;
230 -> 231 ;
232 [label="G1 <= 8.5\ngini = 0.31999999999999995\nsamples = 3\nvalue = [4, 1, 0, 0, 0]\nclass = 1", fillcolor="#eca06a"] ;
231 -> 232 ;
233 [label="gini = 0.0\nsamples = 2\nvalue = [4, 0, 0, 0, 0]\nclass = 1", fillcolor="#e58139"] ;
232 -> 233 ;
234 [label="gini = 0.0\nsamples = 1\nvalue = [0, 1, 0, 0, 0]\nclass = 2", fillcolor="#7be539"] ;
232 -> 234 ;
235 [label="gini = 0.0\nsamples = 9\nvalue = [16, 0, 0, 0, 0]\nclass = 1", fillcolor="#e58139"] ;
231 -> 235 ;
236 [label="Medu <= 2.5\ngini = 0.6944444444444444\nsamples = 8\nvalue = [5, 3, 3, 1, 0]\nclass = 1", fillcolor="#f9e3d3"] ;
230 -> 236 ;
237 [label="G3 <= 10.5\ngini = 0.617283950617284\nsamples = 6\nvalue = [5, 2, 1, 1, 0]\nclass = 1", fillcolor="#f4c9aa"] ;
236 -> 237 ;
238 [label="G2 <= 8.5\ngini = 0.4444444444444444\nsamples = 2\nvalue = [0, 2, 0, 1, 0]\nclass = 2", fillcolor="#bdf29c"] ;
237 -> 238 ;
239 [label="gini = 0.0\nsamples = 1\nvalue = [0, 0, 0, 1, 0]\nclass = 4", fillcolor="#3c39e5"] ;
238 -> 239 ;
240 [label="gini = 0.0\nsamples = 1\nvalue = [0, 2, 0, 0, 0]\nclass = 2", fillcolor="#7be539"] ;
238 -> 240 ;
241 [label="paid <= 0.5\ngini = 0.2777777777777778\nsamples = 4\nvalue = [5, 0, 1, 0, 0]\nclass = 1", fillcolor="#ea9a61"] ;
237 -> 241 ;
242 [label="G1 <= 12.0\ngini = 0.375\nsamples = 3\nvalue = [3, 0, 1, 0, 0]\nclass = 1", fillcolor="#eeab7b"] ;
241 -> 242 ;
243 [label="gini = 0.0\nsamples = 1\nvalue = [0, 0, 1, 0, 0]\nclass = 3", fillcolor="#39e5c5"] ;
242 -> 243 ;
244 [label="gini = 0.0\nsamples = 2\nvalue = [3, 0, 0, 0, 0]\nclass = 1", fillcolor="#e58139"] ;
242 -> 244 ;
245 [label="gini = 0.0\nsamples = 1\nvalue = [2, 0, 0, 0, 0]\nclass = 1", fillcolor="#e58139"] ;
241 -> 245 ;
246 [label="nursery <= 0.5\ngini = 0.4444444444444444\nsamples = 2\nvalue = [0, 1, 2, 0, 0]\nclass = 3", fillcolor="#9cf2e2"] ;
236 -> 246 ;
247 [label="gini = 0.0\nsamples = 1\nvalue = [0, 0, 2, 0, 0]\nclass = 3", fillcolor="#39e5c5"] ;
246 -> 247 ;
248 [label="gini = 0.0\nsamples = 1\nvalue = [0, 1, 0, 0, 0]\nclass = 2", fillcolor="#7be539"] ;
246 -> 248 ;
249 [label="studytime <= 1.5\ngini = 0.56\nsamples = 4\nvalue = [1, 1, 0, 3, 0]\nclass = 4", fillcolor="#9e9cf2"] ;
229 -> 249 ;
250 [label="gini = 0.0\nsamples = 2\nvalue = [0, 0, 0, 3, 0]\nclass = 4", fillcolor="#3c39e5"] ;
249 -> 250 ;
251 [label="schoolsup <= 0.5\ngini = 0.5\nsamples = 2\nvalue = [1, 1, 0, 0, 0]\nclass = 1", fillcolor="#ffffff"] ;
249 -> 251 ;
252 [label="gini = 0.0\nsamples = 1\nvalue = [0, 1, 0, 0, 0]\nclass = 2", fillcolor="#7be539"] ;
251 -> 252 ;
253 [label="gini = 0.0\nsamples = 1\nvalue = [1, 0, 0, 0, 0]\nclass = 1", fillcolor="#e58139"] ;
251 -> 253 ;
254 [label="age <= 17.5\ngini = 0.5390625\nsamples = 11\nvalue = [0, 3, 10, 3, 0]\nclass = 3", fillcolor="#94f1e0"] ;
210 -> 254 ;
255 [label="absences <= 5.0\ngini = 0.3550295857988166\nsamples = 9\nvalue = [0, 0, 10, 3, 0]\nclass = 3", fillcolor="#74edd6"] ;
254 -> 255 ;
256 [label="schoolsup <= 0.5\ngini = 0.4444444444444444\nsamples = 2\nvalue = [0, 0, 1, 2, 0]\nclass = 4", fillcolor="#9e9cf2"] ;
255 -> 256 ;
257 [label="gini = 0.0\nsamples = 1\nvalue = [0, 0, 0, 2, 0]\nclass = 4", fillcolor="#3c39e5"] ;
256 -> 257 ;
258 [label="gini = 0.0\nsamples = 1\nvalue = [0, 0, 1, 0, 0]\nclass = 3", fillcolor="#39e5c5"] ;
256 -> 258 ;
259 [label="romantic <= 0.5\ngini = 0.18000000000000005\nsamples = 7\nvalue = [0, 0, 9, 1, 0]\nclass = 3", fillcolor="#4fe8cb"] ;
255 -> 259 ;
260 [label="gini = 0.0\nsamples = 6\nvalue = [0, 0, 9, 0, 0]\nclass = 3", fillcolor="#39e5c5"] ;
259 -> 260 ;
261 [label="gini = 0.0\nsamples = 1\nvalue = [0, 0, 0, 1, 0]\nclass = 4", fillcolor="#3c39e5"] ;
259 -> 261 ;
262 [label="gini = 0.0\nsamples = 2\nvalue = [0, 3, 0, 0, 0]\nclass = 2", fillcolor="#7be539"] ;
254 -> 262 ;
263 [label="Fjob_health <= 0.5\ngini = 0.7380732533087104\nsamples = 33\nvalue = [5, 4, 20, 17, 11]\nclass = 3", fillcolor="#f0fdfb"] ;
209 -> 263 ;
264 [label="Pstatus <= 0.5\ngini = 0.7170665459483929\nsamples = 28\nvalue = [3, 4, 20, 10, 10]\nclass = 3", fillcolor="#c9f8ef"] ;
263 -> 264 ;
265 [label="Mjob_at_home <= 0.5\ngini = 0.6678004535147393\nsamples = 25\nvalue = [1, 2, 20, 9, 10]\nclass = 3", fillcolor="#c1f7ed"] ;
264 -> 265 ;
266 [label="G2 <= 7.5\ngini = 0.65625\nsamples = 23\nvalue = [1, 2, 20, 9, 8]\nclass = 3", fillcolor="#b9f6ea"] ;
265 -> 266 ;
267 [label="gini = 0.0\nsamples = 1\nvalue = [0, 0, 0, 2, 0]\nclass = 4", fillcolor="#3c39e5"] ;
266 -> 267 ;
268 [label="famsize <= 0.5\ngini = 0.6412742382271468\nsamples = 22\nvalue = [1, 2, 20, 7, 8]\nclass = 3", fillcolor="#b0f5e8"] ;
266 -> 268 ;
269 [label="nursery <= 0.5\ngini = 0.2777777777777778\nsamples = 6\nvalue = [0, 0, 10, 0, 2]\nclass = 3", fillcolor="#61ead1"] ;
268 -> 269 ;
270 [label="gini = 0.0\nsamples = 1\nvalue = [0, 0, 0, 0, 2]\nclass = 5", fillcolor="#e539c0"] ;
269 -> 270 ;
271 [label="gini = 0.0\nsamples = 5\nvalue = [0, 0, 10, 0, 0]\nclass = 3", fillcolor="#39e5c5"] ;
269 -> 271 ;
272 [label="Fedu <= 3.4999999999999996\ngini = 0.7189349112426036\nsamples = 16\nvalue = [1, 2, 10, 7, 6]\nclass = 3", fillcolor="#e0fbf6"] ;
268 -> 272 ;
273 [label="failures <= 0.5\ngini = 0.640625\nsamples = 11\nvalue = [1, 1, 8, 5, 1]\nclass = 3", fillcolor="#c9f8ef"] ;
272 -> 273 ;
274 [label="G3 <= 11.5\ngini = 0.617283950617284\nsamples = 7\nvalue = [1, 1, 2, 5, 0]\nclass = 4", fillcolor="#abaaf4"] ;
273 -> 274 ;
275 [label="Fjob_other <= 0.5\ngini = 0.53125\nsamples = 6\nvalue = [1, 0, 2, 5, 0]\nclass = 4", fillcolor="#9e9cf2"] ;
274 -> 275 ;
276 [label="gini = 0.0\nsamples = 1\nvalue = [1, 0, 0, 0, 0]\nclass = 1", fillcolor="#e58139"] ;
275 -> 276 ;
277 [label="nursery <= 0.5\ngini = 0.40816326530612246\nsamples = 5\nvalue = [0, 0, 2, 5, 0]\nclass = 4", fillcolor="#8a88ef"] ;
275 -> 277 ;
278 [label="gini = 0.0\nsamples = 2\nvalue = [0, 0, 0, 2, 0]\nclass = 4", fillcolor="#3c39e5"] ;
277 -> 278 ;
279 [label="G2 <= 11.5\ngini = 0.48\nsamples = 3\nvalue = [0, 0, 2, 3, 0]\nclass = 4", fillcolor="#bebdf6"] ;
277 -> 279 ;
280 [label="gini = 0.0\nsamples = 2\nvalue = [0, 0, 0, 3, 0]\nclass = 4", fillcolor="#3c39e5"] ;
279 -> 280 ;
281 [label="gini = 0.0\nsamples = 1\nvalue = [0, 0, 2, 0, 0]\nclass = 3", fillcolor="#39e5c5"] ;
279 -> 281 ;
282 [label="gini = 0.0\nsamples = 1\nvalue = [0, 1, 0, 0, 0]\nclass = 2", fillcolor="#7be539"] ;
274 -> 282 ;
283 [label="school <= 0.5\ngini = 0.24489795918367355\nsamples = 4\nvalue = [0, 0, 6, 0, 1]\nclass = 3", fillcolor="#5ae9cf"] ;
273 -> 283 ;
284 [label="gini = 0.0\nsamples = 3\nvalue = [0, 0, 6, 0, 0]\nclass = 3", fillcolor="#39e5c5"] ;
283 -> 284 ;
285 [label="gini = 0.0\nsamples = 1\nvalue = [0, 0, 0, 0, 1]\nclass = 5", fillcolor="#e539c0"] ;
283 -> 285 ;
286 [label="Dalc <= 2.0\ngini = 0.6599999999999999\nsamples = 5\nvalue = [0, 1, 2, 2, 5]\nclass = 5", fillcolor="#f5b5e7"] ;
272 -> 286 ;
287 [label="reason_reputation <= 0.5\ngini = 0.64\nsamples = 3\nvalue = [0, 1, 2, 2, 0]\nclass = 3", fillcolor="#ffffff"] ;
286 -> 287 ;
288 [label="gini = 0.0\nsamples = 1\nvalue = [0, 0, 0, 2, 0]\nclass = 4", fillcolor="#3c39e5"] ;
287 -> 288 ;
289 [label="Fjob_teacher <= 0.5\ngini = 0.4444444444444444\nsamples = 2\nvalue = [0, 1, 2, 0, 0]\nclass = 3", fillcolor="#9cf2e2"] ;
287 -> 289 ;
290 [label="gini = 0.0\nsamples = 1\nvalue = [0, 1, 0, 0, 0]\nclass = 2", fillcolor="#7be539"] ;
289 -> 290 ;
291 [label="gini = 0.0\nsamples = 1\nvalue = [0, 0, 2, 0, 0]\nclass = 3", fillcolor="#39e5c5"] ;
289 -> 291 ;
292 [label="gini = 0.0\nsamples = 2\nvalue = [0, 0, 0, 0, 5]\nclass = 5", fillcolor="#e539c0"] ;
286 -> 292 ;
293 [label="gini = 0.0\nsamples = 2\nvalue = [0, 0, 0, 0, 2]\nclass = 5", fillcolor="#e539c0"] ;
265 -> 293 ;
294 [label="Fjob_other <= 0.5\ngini = 0.64\nsamples = 3\nvalue = [2, 2, 0, 1, 0]\nclass = 1", fillcolor="#ffffff"] ;
264 -> 294 ;
295 [label="gini = 0.0\nsamples = 1\nvalue = [2, 0, 0, 0, 0]\nclass = 1", fillcolor="#e58139"] ;
294 -> 295 ;
296 [label="paid <= 0.5\ngini = 0.4444444444444444\nsamples = 2\nvalue = [0, 2, 0, 1, 0]\nclass = 2", fillcolor="#bdf29c"] ;
294 -> 296 ;
297 [label="gini = 0.0\nsamples = 1\nvalue = [0, 2, 0, 0, 0]\nclass = 2", fillcolor="#7be539"] ;
296 -> 297 ;
298 [label="gini = 0.0\nsamples = 1\nvalue = [0, 0, 0, 1, 0]\nclass = 4", fillcolor="#3c39e5"] ;
296 -> 298 ;
299 [label="reason_reputation <= 0.5\ngini = 0.4599999999999999\nsamples = 5\nvalue = [2, 0, 0, 7, 1]\nclass = 4", fillcolor="#8583ef"] ;
263 -> 299 ;
300 [label="gini = 0.0\nsamples = 2\nvalue = [0, 0, 0, 7, 0]\nclass = 4", fillcolor="#3c39e5"] ;
299 -> 300 ;
301 [label="activities <= 0.5\ngini = 0.4444444444444444\nsamples = 3\nvalue = [2, 0, 0, 0, 1]\nclass = 1", fillcolor="#f2c09c"] ;
299 -> 301 ;
302 [label="gini = 0.0\nsamples = 1\nvalue = [0, 0, 0, 0, 1]\nclass = 5", fillcolor="#e539c0"] ;
301 -> 302 ;
303 [label="gini = 0.0\nsamples = 2\nvalue = [2, 0, 0, 0, 0]\nclass = 1", fillcolor="#e58139"] ;
301 -> 303 ;
304 [label="Mjob_teacher <= 0.5\ngini = 0.6712\nsamples = 31\nvalue = [3, 2, 22, 17, 6]\nclass = 3", fillcolor="#e1fbf6"] ;
208 -> 304 ;
305 [label="guardian_mother <= 0.5\ngini = 0.62819750148721\nsamples = 26\nvalue = [1, 2, 22, 10, 6]\nclass = 3", fillcolor="#b2f5e9"] ;
304 -> 305 ;
306 [label="goout <= 3.4999999999999996\ngini = 0.33777777777777773\nsamples = 10\nvalue = [0, 2, 12, 1, 0]\nclass = 3", fillcolor="#67ebd2"] ;
305 -> 306 ;
307 [label="G2 <= 12.5\ngini = 0.6111111111111112\nsamples = 6\nvalue = [0, 2, 3, 1, 0]\nclass = 3", fillcolor="#cef8f0"] ;
306 -> 307 ;
308 [label="Dalc <= 1.5\ngini = 0.48\nsamples = 5\nvalue = [0, 2, 3, 0, 0]\nclass = 3", fillcolor="#bdf6ec"] ;
307 -> 308 ;
309 [label="gini = 0.0\nsamples = 1\nvalue = [0, 1, 0, 0, 0]\nclass = 2", fillcolor="#7be539"] ;
308 -> 309 ;
310 [label="G3 <= 9.5\ngini = 0.375\nsamples = 4\nvalue = [0, 1, 3, 0, 0]\nclass = 3", fillcolor="#7beed8"] ;
308 -> 310 ;
311 [label="gini = 0.0\nsamples = 1\nvalue = [0, 1, 0, 0, 0]\nclass = 2", fillcolor="#7be539"] ;
310 -> 311 ;
312 [label="gini = 0.0\nsamples = 3\nvalue = [0, 0, 3, 0, 0]\nclass = 3", fillcolor="#39e5c5"] ;
310 -> 312 ;
313 [label="gini = 0.0\nsamples = 1\nvalue = [0, 0, 0, 1, 0]\nclass = 4", fillcolor="#3c39e5"] ;
307 -> 313 ;
314 [label="gini = 0.0\nsamples = 4\nvalue = [0, 0, 9, 0, 0]\nclass = 3", fillcolor="#39e5c5"] ;
306 -> 314 ;
315 [label="Mjob_other <= 0.5\ngini = 0.6775147928994083\nsamples = 16\nvalue = [1, 0, 10, 9, 6]\nclass = 3", fillcolor="#f3fdfc"] ;
305 -> 315 ;
316 [label="Mjob_services <= 0.5\ngini = 0.635\nsamples = 13\nvalue = [1, 0, 10, 3, 6]\nclass = 3", fillcolor="#c6f8ee"] ;
315 -> 316 ;
317 [label="G1 <= 10.5\ngini = 0.64\nsamples = 4\nvalue = [1, 0, 0, 2, 2]\nclass = 4", fillcolor="#ffffff"] ;
316 -> 317 ;
318 [label="gini = 0.0\nsamples = 1\nvalue = [0, 0, 0, 0, 2]\nclass = 5", fillcolor="#e539c0"] ;
317 -> 318 ;
319 [label="romantic <= 0.5\ngini = 0.4444444444444444\nsamples = 3\nvalue = [1, 0, 0, 2, 0]\nclass = 4", fillcolor="#9e9cf2"] ;
317 -> 319 ;
320 [label="gini = 0.0\nsamples = 1\nvalue = [0, 0, 0, 1, 0]\nclass = 4", fillcolor="#3c39e5"] ;
319 -> 320 ;
321 [label="paid <= 0.5\ngini = 0.5\nsamples = 2\nvalue = [1, 0, 0, 1, 0]\nclass = 1", fillcolor="#ffffff"] ;
319 -> 321 ;
322 [label="gini = 0.0\nsamples = 1\nvalue = [0, 0, 0, 1, 0]\nclass = 4", fillcolor="#3c39e5"] ;
321 -> 322 ;
323 [label="gini = 0.0\nsamples = 1\nvalue = [1, 0, 0, 0, 0]\nclass = 1", fillcolor="#e58139"] ;
321 -> 323 ;
324 [label="romantic <= 0.5\ngini = 0.48\nsamples = 9\nvalue = [0, 0, 10, 1, 4]\nclass = 3", fillcolor="#93f1df"] ;
316 -> 324 ;
325 [label="schoolsup <= 0.5\ngini = 0.59375\nsamples = 6\nvalue = [0, 0, 3, 1, 4]\nclass = 5", fillcolor="#fad7f2"] ;
324 -> 325 ;
326 [label="G3 <= 11.0\ngini = 0.6111111111111112\nsamples = 5\nvalue = [0, 0, 3, 1, 2]\nclass = 3", fillcolor="#cef8f0"] ;
325 -> 326 ;
327 [label="higher <= 0.5\ngini = 0.4444444444444444\nsamples = 3\nvalue = [0, 0, 0, 1, 2]\nclass = 5", fillcolor="#f29ce0"] ;
326 -> 327 ;
328 [label="gini = 0.0\nsamples = 1\nvalue = [0, 0, 0, 0, 1]\nclass = 5", fillcolor="#e539c0"] ;
327 -> 328 ;
329 [label="G3 <= 9.5\ngini = 0.5\nsamples = 2\nvalue = [0, 0, 0, 1, 1]\nclass = 4", fillcolor="#ffffff"] ;
327 -> 329 ;
330 [label="gini = 0.0\nsamples = 1\nvalue = [0, 0, 0, 0, 1]\nclass = 5", fillcolor="#e539c0"] ;
329 -> 330 ;
331 [label="gini = 0.0\nsamples = 1\nvalue = [0, 0, 0, 1, 0]\nclass = 4", fillcolor="#3c39e5"] ;
329 -> 331 ;
332 [label="gini = 0.0\nsamples = 2\nvalue = [0, 0, 3, 0, 0]\nclass = 3", fillcolor="#39e5c5"] ;
326 -> 332 ;
333 [label="gini = 0.0\nsamples = 1\nvalue = [0, 0, 0, 0, 2]\nclass = 5", fillcolor="#e539c0"] ;
325 -> 333 ;
334 [label="gini = 0.0\nsamples = 3\nvalue = [0, 0, 7, 0, 0]\nclass = 3", fillcolor="#39e5c5"] ;
324 -> 334 ;
335 [label="gini = 0.0\nsamples = 3\nvalue = [0, 0, 0, 6, 0]\nclass = 4", fillcolor="#3c39e5"] ;
315 -> 335 ;
336 [label="guardian_mother <= 0.5\ngini = 0.345679012345679\nsamples = 5\nvalue = [2, 0, 0, 7, 0]\nclass = 4", fillcolor="#7472ec"] ;
304 -> 336 ;
337 [label="gini = 0.0\nsamples = 1\nvalue = [2, 0, 0, 0, 0]\nclass = 1", fillcolor="#e58139"] ;
336 -> 337 ;
338 [label="gini = 0.0\nsamples = 4\nvalue = [0, 0, 0, 7, 0]\nclass = 4", fillcolor="#3c39e5"] ;
336 -> 338 ;
339 [label="Medu <= 0.5\ngini = 0.7527272727272727\nsamples = 60\nvalue = [34, 33, 7, 23, 13]\nclass = 1", fillcolor="#fffdfc"] ;
207 -> 339 ;
340 [label="gini = 0.0\nsamples = 1\nvalue = [0, 0, 0, 0, 4]\nclass = 5", fillcolor="#e539c0"] ;
339 -> 340 ;
341 [label="paid <= 0.5\ngini = 0.7415450338198647\nsamples = 59\nvalue = [34, 33, 7, 23, 9]\nclass = 1", fillcolor="#fffdfc"] ;
339 -> 341 ;
342 [label="internet <= 0.5\ngini = 0.7274740484429065\nsamples = 50\nvalue = [33, 22, 6, 18, 6]\nclass = 1", fillcolor="#fae9dc"] ;
341 -> 342 ;
343 [label="failures <= 0.5\ngini = 0.4671201814058957\nsamples = 11\nvalue = [15, 2, 2, 1, 1]\nclass = 1", fillcolor="#eda978"] ;
342 -> 343 ;
344 [label="address <= 0.5\ngini = 0.3571428571428571\nsamples = 7\nvalue = [11, 0, 2, 1, 0]\nclass = 1", fillcolor="#eca06b"] ;
343 -> 344 ;
345 [label="Medu <= 1.5\ngini = 0.2603550295857988\nsamples = 6\nvalue = [11, 0, 2, 0, 0]\nclass = 1", fillcolor="#ea985d"] ;
344 -> 345 ;
346 [label="G3 <= 10.0\ngini = 0.5\nsamples = 2\nvalue = [2, 0, 2, 0, 0]\nclass = 1", fillcolor="#ffffff"] ;
345 -> 346 ;
347 [label="gini = 0.0\nsamples = 1\nvalue = [2, 0, 0, 0, 0]\nclass = 1", fillcolor="#e58139"] ;
346 -> 347 ;
348 [label="gini = 0.0\nsamples = 1\nvalue = [0, 0, 2, 0, 0]\nclass = 3", fillcolor="#39e5c5"] ;
346 -> 348 ;
349 [label="gini = 0.0\nsamples = 4\nvalue = [9, 0, 0, 0, 0]\nclass = 1", fillcolor="#e58139"] ;
345 -> 349 ;
350 [label="gini = 0.0\nsamples = 1\nvalue = [0, 0, 0, 1, 0]\nclass = 4", fillcolor="#3c39e5"] ;
344 -> 350 ;
351 [label="Mjob_other <= 0.5\ngini = 0.5714285714285714\nsamples = 4\nvalue = [4, 2, 0, 0, 1]\nclass = 1", fillcolor="#f5cdb0"] ;
343 -> 351 ;
352 [label="famsup <= 0.5\ngini = 0.31999999999999995\nsamples = 3\nvalue = [4, 0, 0, 0, 1]\nclass = 1", fillcolor="#eca06a"] ;
351 -> 352 ;
353 [label="gini = 0.0\nsamples = 1\nvalue = [0, 0, 0, 0, 1]\nclass = 5", fillcolor="#e539c0"] ;
352 -> 353 ;
354 [label="gini = 0.0\nsamples = 2\nvalue = [4, 0, 0, 0, 0]\nclass = 1", fillcolor="#e58139"] ;
352 -> 354 ;
355 [label="gini = 0.0\nsamples = 1\nvalue = [0, 2, 0, 0, 0]\nclass = 2", fillcolor="#7be539"] ;
351 -> 355 ;
356 [label="Dalc <= 1.5\ngini = 0.74267578125\nsamples = 39\nvalue = [18, 20, 4, 17, 5]\nclass = 2", fillcolor="#f9fef6"] ;
342 -> 356 ;
357 [label="guardian_mother <= 0.5\ngini = 0.6515704894083272\nsamples = 21\nvalue = [16, 14, 3, 4, 0]\nclass = 1", fillcolor="#fdf4ee"] ;
356 -> 357 ;
358 [label="gini = 0.0\nsamples = 3\nvalue = [7, 0, 0, 0, 0]\nclass = 1", fillcolor="#e58139"] ;
357 -> 358 ;
359 [label="G3 <= 12.5\ngini = 0.6644444444444444\nsamples = 18\nvalue = [9, 14, 3, 4, 0]\nclass = 2", fillcolor="#e0f9d0"] ;
357 -> 359 ;
360 [label="higher <= 0.5\ngini = 0.38062283737024216\nsamples = 10\nvalue = [0, 13, 3, 1, 0]\nclass = 2", fillcolor="#a1ec72"] ;
359 -> 360 ;
361 [label="gini = 0.0\nsamples = 1\nvalue = [0, 0, 2, 0, 0]\nclass = 3", fillcolor="#39e5c5"] ;
360 -> 361 ;
362 [label="address <= 0.5\ngini = 0.24\nsamples = 9\nvalue = [0, 13, 1, 1, 0]\nclass = 2", fillcolor="#8ee955"] ;
360 -> 362 ;
363 [label="Mjob_health <= 0.5\ngini = 0.13265306122448983\nsamples = 8\nvalue = [0, 13, 0, 1, 0]\nclass = 2", fillcolor="#85e748"] ;
362 -> 363 ;
364 [label="gini = 0.0\nsamples = 7\nvalue = [0, 13, 0, 0, 0]\nclass = 2", fillcolor="#7be539"] ;
363 -> 364 ;
365 [label="gini = 0.0\nsamples = 1\nvalue = [0, 0, 0, 1, 0]\nclass = 4", fillcolor="#3c39e5"] ;
363 -> 365 ;
366 [label="gini = 0.0\nsamples = 1\nvalue = [0, 0, 1, 0, 0]\nclass = 3", fillcolor="#39e5c5"] ;
362 -> 366 ;
367 [label="studytime <= 1.5\ngini = 0.46153846153846156\nsamples = 8\nvalue = [9, 1, 0, 3, 0]\nclass = 1", fillcolor="#efb388"] ;
359 -> 367 ;
368 [label="G3 <= 15.5\ngini = 0.6111111111111112\nsamples = 4\nvalue = [3, 1, 0, 2, 0]\nclass = 1", fillcolor="#f8e0ce"] ;
367 -> 368 ;
369 [label="G2 <= 11.5\ngini = 0.4444444444444444\nsamples = 3\nvalue = [0, 1, 0, 2, 0]\nclass = 4", fillcolor="#9e9cf2"] ;
368 -> 369 ;
370 [label="gini = 0.0\nsamples = 1\nvalue = [0, 0, 0, 1, 0]\nclass = 4", fillcolor="#3c39e5"] ;
369 -> 370 ;
371 [label="absences <= 5.0\ngini = 0.5\nsamples = 2\nvalue = [0, 1, 0, 1, 0]\nclass = 2", fillcolor="#ffffff"] ;
369 -> 371 ;
372 [label="gini = 0.0\nsamples = 1\nvalue = [0, 0, 0, 1, 0]\nclass = 4", fillcolor="#3c39e5"] ;
371 -> 372 ;
373 [label="gini = 0.0\nsamples = 1\nvalue = [0, 1, 0, 0, 0]\nclass = 2", fillcolor="#7be539"] ;
371 -> 373 ;
374 [label="gini = 0.0\nsamples = 1\nvalue = [3, 0, 0, 0, 0]\nclass = 1", fillcolor="#e58139"] ;
368 -> 374 ;
375 [label="G1 <= 13.999999999999998\ngini = 0.24489795918367355\nsamples = 4\nvalue = [6, 0, 0, 1, 0]\nclass = 1", fillcolor="#e9965a"] ;
367 -> 375 ;
376 [label="gini = 0.0\nsamples = 3\nvalue = [6, 0, 0, 0, 0]\nclass = 1", fillcolor="#e58139"] ;
375 -> 376 ;
377 [label="gini = 0.0\nsamples = 1\nvalue = [0, 0, 0, 1, 0]\nclass = 4", fillcolor="#3c39e5"] ;
375 -> 377 ;
378 [label="goout <= 4.5\ngini = 0.6776406035665294\nsamples = 18\nvalue = [2, 6, 1, 13, 5]\nclass = 4", fillcolor="#bebdf6"] ;
356 -> 378 ;
379 [label="sex <= 0.5\ngini = 0.6632653061224489\nsamples = 10\nvalue = [2, 6, 1, 5, 0]\nclass = 2", fillcolor="#f0fce9"] ;
378 -> 379 ;
380 [label="Dalc <= 3.0\ngini = 0.5\nsamples = 4\nvalue = [2, 2, 0, 0, 0]\nclass = 1", fillcolor="#ffffff"] ;
379 -> 380 ;
381 [label="gini = 0.0\nsamples = 2\nvalue = [0, 2, 0, 0, 0]\nclass = 2", fillcolor="#7be539"] ;
380 -> 381 ;
382 [label="gini = 0.0\nsamples = 2\nvalue = [2, 0, 0, 0, 0]\nclass = 1", fillcolor="#e58139"] ;
380 -> 382 ;
383 [label="Mjob_services <= 0.5\ngini = 0.5800000000000001\nsamples = 6\nvalue = [0, 4, 1, 5, 0]\nclass = 4", fillcolor="#dedefb"] ;
379 -> 383 ;
384 [label="higher <= 0.5\ngini = 0.5714285714285714\nsamples = 4\nvalue = [0, 4, 1, 2, 0]\nclass = 2", fillcolor="#caf5b0"] ;
383 -> 384 ;
385 [label="guardian_other <= 0.5\ngini = 0.4444444444444444\nsamples = 2\nvalue = [0, 0, 1, 2, 0]\nclass = 4", fillcolor="#9e9cf2"] ;
384 -> 385 ;
386 [label="gini = 0.0\nsamples = 1\nvalue = [0, 0, 1, 0, 0]\nclass = 3", fillcolor="#39e5c5"] ;
385 -> 386 ;
387 [label="gini = 0.0\nsamples = 1\nvalue = [0, 0, 0, 2, 0]\nclass = 4", fillcolor="#3c39e5"] ;
385 -> 387 ;
388 [label="gini = 0.0\nsamples = 2\nvalue = [0, 4, 0, 0, 0]\nclass = 2", fillcolor="#7be539"] ;
384 -> 388 ;
389 [label="gini = 0.0\nsamples = 2\nvalue = [0, 0, 0, 3, 0]\nclass = 4", fillcolor="#3c39e5"] ;
383 -> 389 ;
390 [label="G2 <= 11.5\ngini = 0.47337278106508873\nsamples = 8\nvalue = [0, 0, 0, 8, 5]\nclass = 4", fillcolor="#b6b5f5"] ;
378 -> 390 ;
391 [label="Dalc <= 4.0\ngini = 0.375\nsamples = 5\nvalue = [0, 0, 0, 6, 2]\nclass = 4", fillcolor="#7d7bee"] ;
390 -> 391 ;
392 [label="gini = 0.0\nsamples = 4\nvalue = [0, 0, 0, 6, 0]\nclass = 4", fillcolor="#3c39e5"] ;
391 -> 392 ;
393 [label="gini = 0.0\nsamples = 1\nvalue = [0, 0, 0, 0, 2]\nclass = 5", fillcolor="#e539c0"] ;
391 -> 393 ;
394 [label="G3 <= 15.5\ngini = 0.48\nsamples = 3\nvalue = [0, 0, 0, 2, 3]\nclass = 5", fillcolor="#f6bdea"] ;
390 -> 394 ;
395 [label="gini = 0.0\nsamples = 2\nvalue = [0, 0, 0, 0, 3]\nclass = 5", fillcolor="#e539c0"] ;
394 -> 395 ;
396 [label="gini = 0.0\nsamples = 1\nvalue = [0, 0, 0, 2, 0]\nclass = 4", fillcolor="#3c39e5"] ;
394 -> 396 ;
397 [label="address <= 0.5\ngini = 0.6439909297052154\nsamples = 9\nvalue = [1, 11, 1, 5, 3]\nclass = 2", fillcolor="#cef5b5"] ;
341 -> 397 ;
398 [label="goout <= 3.4999999999999996\ngini = 0.71875\nsamples = 7\nvalue = [1, 6, 1, 5, 3]\nclass = 2", fillcolor="#f3fded"] ;
397 -> 398 ;
399 [label="Fjob_services <= 0.5\ngini = 0.54\nsamples = 4\nvalue = [1, 6, 0, 0, 3]\nclass = 2", fillcolor="#c6f4aa"] ;
398 -> 399 ;
400 [label="Mjob_at_home <= 0.5\ngini = 0.6122448979591837\nsamples = 3\nvalue = [1, 3, 0, 0, 3]\nclass = 2", fillcolor="#ffffff"] ;
399 -> 400 ;
401 [label="gini = 0.0\nsamples = 1\nvalue = [0, 3, 0, 0, 0]\nclass = 2", fillcolor="#7be539"] ;
400 -> 401 ;
402 [label="famsize <= 0.5\ngini = 0.375\nsamples = 2\nvalue = [1, 0, 0, 0, 3]\nclass = 5", fillcolor="#ee7bd5"] ;
400 -> 402 ;
403 [label="gini = 0.0\nsamples = 1\nvalue = [0, 0, 0, 0, 3]\nclass = 5", fillcolor="#e539c0"] ;
402 -> 403 ;
404 [label="gini = 0.0\nsamples = 1\nvalue = [1, 0, 0, 0, 0]\nclass = 1", fillcolor="#e58139"] ;
402 -> 404 ;
405 [label="gini = 0.0\nsamples = 1\nvalue = [0, 3, 0, 0, 0]\nclass = 2", fillcolor="#7be539"] ;
399 -> 405 ;
406 [label="sex <= 0.5\ngini = 0.2777777777777778\nsamples = 3\nvalue = [0, 0, 1, 5, 0]\nclass = 4", fillcolor="#6361ea"] ;
398 -> 406 ;
407 [label="gini = 0.0\nsamples = 1\nvalue = [0, 0, 1, 0, 0]\nclass = 3", fillcolor="#39e5c5"] ;
406 -> 407 ;
408 [label="gini = 0.0\nsamples = 2\nvalue = [0, 0, 0, 5, 0]\nclass = 4", fillcolor="#3c39e5"] ;
406 -> 408 ;
409 [label="gini = 0.0\nsamples = 2\nvalue = [0, 5, 0, 0, 0]\nclass = 2", fillcolor="#7be539"] ;
397 -> 409 ;
410 [label="G3 <= 17.5\ngini = 0.7170343814953948\nsamples = 140\nvalue = [99, 50, 43, 17, 20]\nclass = 1", fillcolor="#f8ddc9"] ;
0 -> 410 [labeldistance=2.5, labelangle=-45, headlabel="False"] ;
411 [label="higher <= 0.5\ngini = 0.7319101508916324\nsamples = 133\nvalue = [87, 49, 43, 17, 20]\nclass = 1", fillcolor="#f9e2d2"] ;
410 -> 411 ;
412 [label="Mjob_other <= 0.5\ngini = 0.7202216066481995\nsamples = 10\nvalue = [0, 5, 6, 2, 6]\nclass = 3", fillcolor="#ffffff"] ;
411 -> 412 ;
413 [label="age <= 17.0\ngini = 0.375\nsamples = 4\nvalue = [0, 0, 6, 2, 0]\nclass = 3", fillcolor="#7beed8"] ;
412 -> 413 ;
414 [label="famsize <= 0.5\ngini = 0.5\nsamples = 2\nvalue = [0, 0, 2, 2, 0]\nclass = 3", fillcolor="#ffffff"] ;
413 -> 414 ;
415 [label="gini = 0.0\nsamples = 1\nvalue = [0, 0, 2, 0, 0]\nclass = 3", fillcolor="#39e5c5"] ;
414 -> 415 ;
416 [label="gini = 0.0\nsamples = 1\nvalue = [0, 0, 0, 2, 0]\nclass = 4", fillcolor="#3c39e5"] ;
414 -> 416 ;
417 [label="gini = 0.0\nsamples = 2\nvalue = [0, 0, 4, 0, 0]\nclass = 3", fillcolor="#39e5c5"] ;
413 -> 417 ;
418 [label="sex <= 0.5\ngini = 0.49586776859504134\nsamples = 6\nvalue = [0, 5, 0, 0, 6]\nclass = 5", fillcolor="#fbdef4"] ;
412 -> 418 ;
419 [label="gini = 0.0\nsamples = 2\nvalue = [0, 5, 0, 0, 0]\nclass = 2", fillcolor="#7be539"] ;
418 -> 419 ;
420 [label="gini = 0.0\nsamples = 4\nvalue = [0, 0, 0, 0, 6]\nclass = 5", fillcolor="#e539c0"] ;
418 -> 420 ;
421 [label="Fedu <= 1.5\ngini = 0.7089592620268494\nsamples = 123\nvalue = [87, 44, 37, 15, 14]\nclass = 1", fillcolor="#f8dcc7"] ;
411 -> 421 ;
422 [label="studytime <= 1.5\ngini = 0.7012417823228634\nsamples = 28\nvalue = [13, 14, 2, 2, 6]\nclass = 2", fillcolor="#fafef7"] ;
421 -> 422 ;
423 [label="G3 <= 9.5\ngini = 0.7345679012345678\nsamples = 11\nvalue = [3, 6, 2, 1, 6]\nclass = 2", fillcolor="#ffffff"] ;
422 -> 423 ;
424 [label="absences <= 1.0\ngini = 0.62\nsamples = 6\nvalue = [3, 5, 2, 0, 0]\nclass = 2", fillcolor="#d9f8c6"] ;
423 -> 424 ;
425 [label="gini = 0.0\nsamples = 3\nvalue = [0, 5, 0, 0, 0]\nclass = 2", fillcolor="#7be539"] ;
424 -> 425 ;
426 [label="famsize <= 0.5\ngini = 0.48\nsamples = 3\nvalue = [3, 0, 2, 0, 0]\nclass = 1", fillcolor="#f6d5bd"] ;
424 -> 426 ;
427 [label="gini = 0.0\nsamples = 1\nvalue = [1, 0, 0, 0, 0]\nclass = 1", fillcolor="#e58139"] ;
426 -> 427 ;
428 [label="sex <= 0.5\ngini = 0.5\nsamples = 2\nvalue = [2, 0, 2, 0, 0]\nclass = 1", fillcolor="#ffffff"] ;
426 -> 428 ;
429 [label="gini = 0.0\nsamples = 1\nvalue = [2, 0, 0, 0, 0]\nclass = 1", fillcolor="#e58139"] ;
428 -> 429 ;
430 [label="gini = 0.0\nsamples = 1\nvalue = [0, 0, 2, 0, 0]\nclass = 3", fillcolor="#39e5c5"] ;
428 -> 430 ;
431 [label="guardian_mother <= 0.5\ngini = 0.40625\nsamples = 5\nvalue = [0, 1, 0, 1, 6]\nclass = 5", fillcolor="#ec72d2"] ;
423 -> 431 ;
432 [label="gini = 0.0\nsamples = 1\nvalue = [0, 0, 0, 0, 3]\nclass = 5", fillcolor="#e539c0"] ;
431 -> 432 ;
433 [label="internet <= 0.5\ngini = 0.56\nsamples = 4\nvalue = [0, 1, 0, 1, 3]\nclass = 5", fillcolor="#f29ce0"] ;
431 -> 433 ;
434 [label="absences <= 3.0\ngini = 0.375\nsamples = 3\nvalue = [0, 1, 0, 0, 3]\nclass = 5", fillcolor="#ee7bd5"] ;
433 -> 434 ;
435 [label="gini = 0.0\nsamples = 1\nvalue = [0, 1, 0, 0, 0]\nclass = 2", fillcolor="#7be539"] ;
434 -> 435 ;
436 [label="gini = 0.0\nsamples = 2\nvalue = [0, 0, 0, 0, 3]\nclass = 5", fillcolor="#e539c0"] ;
434 -> 436 ;
437 [label="gini = 0.0\nsamples = 1\nvalue = [0, 0, 0, 1, 0]\nclass = 4", fillcolor="#3c39e5"] ;
433 -> 437 ;
438 [label="reason_home <= 0.5\ngini = 0.5429362880886426\nsamples = 17\nvalue = [10, 8, 0, 1, 0]\nclass = 1", fillcolor="#fae8db"] ;
422 -> 438 ;
439 [label="goout <= 4.5\ngini = 0.48\nsamples = 14\nvalue = [10, 4, 0, 1, 0]\nclass = 1", fillcolor="#f1ba93"] ;
438 -> 439 ;
440 [label="Medu <= 3.4999999999999996\ngini = 0.40816326530612246\nsamples = 13\nvalue = [10, 4, 0, 0, 0]\nclass = 1", fillcolor="#efb388"] ;
439 -> 440 ;
441 [label="internet <= 0.5\ngini = 0.3550295857988166\nsamples = 12\nvalue = [10, 3, 0, 0, 0]\nclass = 1", fillcolor="#eda774"] ;
440 -> 441 ;
442 [label="gini = 0.0\nsamples = 1\nvalue = [0, 1, 0, 0, 0]\nclass = 2", fillcolor="#7be539"] ;
441 -> 442 ;
443 [label="Mjob_health <= 0.5\ngini = 0.2777777777777778\nsamples = 11\nvalue = [10, 2, 0, 0, 0]\nclass = 1", fillcolor="#ea9a61"] ;
441 -> 443 ;
444 [label="address <= 0.5\ngini = 0.345679012345679\nsamples = 9\nvalue = [7, 2, 0, 0, 0]\nclass = 1", fillcolor="#eca572"] ;
443 -> 444 ;
445 [label="gini = 0.0\nsamples = 6\nvalue = [6, 0, 0, 0, 0]\nclass = 1", fillcolor="#e58139"] ;
444 -> 445 ;
446 [label="nursery <= 0.5\ngini = 0.4444444444444444\nsamples = 3\nvalue = [1, 2, 0, 0, 0]\nclass = 2", fillcolor="#bdf29c"] ;
444 -> 446 ;
447 [label="gini = 0.0\nsamples = 1\nvalue = [1, 0, 0, 0, 0]\nclass = 1", fillcolor="#e58139"] ;
446 -> 447 ;
448 [label="gini = 0.0\nsamples = 2\nvalue = [0, 2, 0, 0, 0]\nclass = 2", fillcolor="#7be539"] ;
446 -> 448 ;
449 [label="gini = 0.0\nsamples = 2\nvalue = [3, 0, 0, 0, 0]\nclass = 1", fillcolor="#e58139"] ;
443 -> 449 ;
450 [label="gini = 0.0\nsamples = 1\nvalue = [0, 1, 0, 0, 0]\nclass = 2", fillcolor="#7be539"] ;
440 -> 450 ;
451 [label="gini = 0.0\nsamples = 1\nvalue = [0, 0, 0, 1, 0]\nclass = 4", fillcolor="#3c39e5"] ;
439 -> 451 ;
452 [label="gini = 0.0\nsamples = 3\nvalue = [0, 4, 0, 0, 0]\nclass = 2", fillcolor="#7be539"] ;
438 -> 452 ;
453 [label="health <= 4.5\ngini = 0.693984375\nsamples = 95\nvalue = [74, 30, 35, 13, 8]\nclass = 1", fillcolor="#f7d8c1"] ;
421 -> 453 ;
454 [label="Dalc <= 2.5\ngini = 0.6587082950719314\nsamples = 55\nvalue = [50, 14, 24, 3, 8]\nclass = 1", fillcolor="#f6d3ba"] ;
453 -> 454 ;
455 [label="Dalc <= 1.5\ngini = 0.5739199365834324\nsamples = 48\nvalue = [50, 14, 23, 0, 0]\nclass = 1", fillcolor="#f4caab"] ;
454 -> 455 ;
456 [label="age <= 17.5\ngini = 0.5438195397043133\nsamples = 45\nvalue = [50, 13, 18, 0, 0]\nclass = 1", fillcolor="#f2bf9a"] ;
455 -> 456 ;
457 [label="romantic <= 0.5\ngini = 0.5879289940828403\nsamples = 35\nvalue = [36, 11, 18, 0, 0]\nclass = 1", fillcolor="#f5cfb3"] ;
456 -> 457 ;
458 [label="G1 <= 8.5\ngini = 0.6234710743801652\nsamples = 30\nvalue = [27, 11, 17, 0, 0]\nclass = 1", fillcolor="#f8decb"] ;
457 -> 458 ;
459 [label="absences <= 13.0\ngini = 0.24\nsamples = 7\nvalue = [13, 1, 1, 0, 0]\nclass = 1", fillcolor="#e99355"] ;
458 -> 459 ;
460 [label="nursery <= 0.5\ngini = 0.13265306122448983\nsamples = 6\nvalue = [13, 0, 1, 0, 0]\nclass = 1", fillcolor="#e78b48"] ;
459 -> 460 ;
461 [label="famsup <= 0.5\ngini = 0.5\nsamples = 2\nvalue = [1, 0, 1, 0, 0]\nclass = 1", fillcolor="#ffffff"] ;
460 -> 461 ;
462 [label="gini = 0.0\nsamples = 1\nvalue = [1, 0, 0, 0, 0]\nclass = 1", fillcolor="#e58139"] ;
461 -> 462 ;
463 [label="gini = 0.0\nsamples = 1\nvalue = [0, 0, 1, 0, 0]\nclass = 3", fillcolor="#39e5c5"] ;
461 -> 463 ;
464 [label="gini = 0.0\nsamples = 4\nvalue = [12, 0, 0, 0, 0]\nclass = 1", fillcolor="#e58139"] ;
460 -> 464 ;
465 [label="gini = 0.0\nsamples = 1\nvalue = [0, 1, 0, 0, 0]\nclass = 2", fillcolor="#7be539"] ;
459 -> 465 ;
466 [label="failures <= 0.5\ngini = 0.655\nsamples = 23\nvalue = [14, 10, 16, 0, 0]\nclass = 3", fillcolor="#f0fdfb"] ;
458 -> 466 ;
467 [label="guardian_mother <= 0.5\ngini = 0.6592797783933517\nsamples = 22\nvalue = [14, 10, 14, 0, 0]\nclass = 1", fillcolor="#ffffff"] ;
466 -> 467 ;
468 [label="Mjob_other <= 0.5\ngini = 0.4444444444444444\nsamples = 3\nvalue = [4, 0, 2, 0, 0]\nclass = 1", fillcolor="#f2c09c"] ;
467 -> 468 ;
469 [label="gini = 0.0\nsamples = 2\nvalue = [0, 0, 2, 0, 0]\nclass = 3", fillcolor="#39e5c5"] ;
468 -> 469 ;
470 [label="gini = 0.0\nsamples = 1\nvalue = [4, 0, 0, 0, 0]\nclass = 1", fillcolor="#e58139"] ;
468 -> 470 ;
471 [label="Pstatus <= 0.5\ngini = 0.6640625\nsamples = 19\nvalue = [10, 10, 12, 0, 0]\nclass = 3", fillcolor="#edfdfa"] ;
467 -> 471 ;
472 [label="freetime <= 2.0\ngini = 0.6516052318668253\nsamples = 17\nvalue = [7, 10, 12, 0, 0]\nclass = 3", fillcolor="#eafcf9"] ;
471 -> 472 ;
473 [label="gini = 0.0\nsamples = 2\nvalue = [3, 0, 0, 0, 0]\nclass = 1", fillcolor="#e58139"] ;
472 -> 473 ;
474 [label="famsup <= 0.5\ngini = 0.6153846153846154\nsamples = 15\nvalue = [4, 10, 12, 0, 0]\nclass = 3", fillcolor="#e6fcf8"] ;
472 -> 474 ;
475 [label="G3 <= 14.499999999999998\ngini = 0.37037037037037035\nsamples = 5\nvalue = [1, 1, 7, 0, 0]\nclass = 3", fillcolor="#6aecd4"] ;
474 -> 475 ;
476 [label="gini = 0.0\nsamples = 1\nvalue = [0, 1, 0, 0, 0]\nclass = 2", fillcolor="#7be539"] ;
475 -> 476 ;
477 [label="age <= 16.5\ngini = 0.21874999999999997\nsamples = 4\nvalue = [1, 0, 7, 0, 0]\nclass = 3", fillcolor="#55e9cd"] ;
475 -> 477 ;
478 [label="reason_course <= 0.5\ngini = 0.4444444444444444\nsamples = 2\nvalue = [1, 0, 2, 0, 0]\nclass = 3", fillcolor="#9cf2e2"] ;
477 -> 478 ;
479 [label="gini = 0.0\nsamples = 1\nvalue = [0, 0, 2, 0, 0]\nclass = 3", fillcolor="#39e5c5"] ;
478 -> 479 ;
480 [label="gini = 0.0\nsamples = 1\nvalue = [1, 0, 0, 0, 0]\nclass = 1", fillcolor="#e58139"] ;
478 -> 480 ;
481 [label="gini = 0.0\nsamples = 2\nvalue = [0, 0, 5, 0, 0]\nclass = 3", fillcolor="#39e5c5"] ;
477 -> 481 ;
482 [label="goout <= 3.4999999999999996\ngini = 0.6020761245674741\nsamples = 10\nvalue = [3, 9, 5, 0, 0]\nclass = 2", fillcolor="#d3f6bd"] ;
474 -> 482 ;
483 [label="freetime <= 3.4999999999999996\ngini = 0.46153846153846156\nsamples = 8\nvalue = [3, 9, 1, 0, 0]\nclass = 2", fillcolor="#b0ef88"] ;
482 -> 483 ;
484 [label="activities <= 0.5\ngini = 0.6111111111111112\nsamples = 5\nvalue = [3, 2, 1, 0, 0]\nclass = 1", fillcolor="#f8e0ce"] ;
483 -> 484 ;
485 [label="gini = 0.0\nsamples = 1\nvalue = [0, 2, 0, 0, 0]\nclass = 2", fillcolor="#7be539"] ;
484 -> 485 ;
486 [label="Medu <= 3.0\ngini = 0.375\nsamples = 4\nvalue = [3, 0, 1, 0, 0]\nclass = 1", fillcolor="#eeab7b"] ;
484 -> 486 ;
487 [label="gini = 0.0\nsamples = 2\nvalue = [2, 0, 0, 0, 0]\nclass = 1", fillcolor="#e58139"] ;
486 -> 487 ;
488 [label="reason_home <= 0.5\ngini = 0.5\nsamples = 2\nvalue = [1, 0, 1, 0, 0]\nclass = 1", fillcolor="#ffffff"] ;
486 -> 488 ;
489 [label="gini = 0.0\nsamples = 1\nvalue = [0, 0, 1, 0, 0]\nclass = 3", fillcolor="#39e5c5"] ;
488 -> 489 ;
490 [label="gini = 0.0\nsamples = 1\nvalue = [1, 0, 0, 0, 0]\nclass = 1", fillcolor="#e58139"] ;
488 -> 490 ;
491 [label="gini = 0.0\nsamples = 3\nvalue = [0, 7, 0, 0, 0]\nclass = 2", fillcolor="#7be539"] ;
483 -> 491 ;
492 [label="gini = 0.0\nsamples = 2\nvalue = [0, 0, 4, 0, 0]\nclass = 3", fillcolor="#39e5c5"] ;
482 -> 492 ;
493 [label="gini = 0.0\nsamples = 2\nvalue = [3, 0, 0, 0, 0]\nclass = 1", fillcolor="#e58139"] ;
471 -> 493 ;
494 [label="gini = 0.0\nsamples = 1\nvalue = [0, 0, 2, 0, 0]\nclass = 3", fillcolor="#39e5c5"] ;
466 -> 494 ;
495 [label="G3 <= 10.5\ngini = 0.18000000000000005\nsamples = 5\nvalue = [9, 0, 1, 0, 0]\nclass = 1", fillcolor="#e88f4f"] ;
457 -> 495 ;
496 [label="gini = 0.0\nsamples = 1\nvalue = [0, 0, 1, 0, 0]\nclass = 3", fillcolor="#39e5c5"] ;
495 -> 496 ;
497 [label="gini = 0.0\nsamples = 4\nvalue = [9, 0, 0, 0, 0]\nclass = 1", fillcolor="#e58139"] ;
495 -> 497 ;
498 [label="Fjob_services <= 0.5\ngini = 0.21874999999999997\nsamples = 10\nvalue = [14, 2, 0, 0, 0]\nclass = 1", fillcolor="#e99355"] ;
456 -> 498 ;
499 [label="gini = 0.0\nsamples = 5\nvalue = [8, 0, 0, 0, 0]\nclass = 1", fillcolor="#e58139"] ;
498 -> 499 ;
500 [label="reason_course <= 0.5\ngini = 0.375\nsamples = 5\nvalue = [6, 2, 0, 0, 0]\nclass = 1", fillcolor="#eeab7b"] ;
498 -> 500 ;
501 [label="gini = 0.0\nsamples = 3\nvalue = [6, 0, 0, 0, 0]\nclass = 1", fillcolor="#e58139"] ;
500 -> 501 ;
502 [label="gini = 0.0\nsamples = 2\nvalue = [0, 2, 0, 0, 0]\nclass = 2", fillcolor="#7be539"] ;
500 -> 502 ;
503 [label="health <= 2.0\ngini = 0.2777777777777778\nsamples = 3\nvalue = [0, 1, 5, 0, 0]\nclass = 3", fillcolor="#61ead1"] ;
455 -> 503 ;
504 [label="gini = 0.0\nsamples = 2\nvalue = [0, 0, 5, 0, 0]\nclass = 3", fillcolor="#39e5c5"] ;
503 -> 504 ;
505 [label="gini = 0.0\nsamples = 1\nvalue = [0, 1, 0, 0, 0]\nclass = 2", fillcolor="#7be539"] ;
503 -> 505 ;
506 [label="reason_other <= 0.5\ngini = 0.4861111111111111\nsamples = 7\nvalue = [0, 0, 1, 3, 8]\nclass = 5", fillcolor="#f191dc"] ;
454 -> 506 ;
507 [label="G2 <= 10.0\ngini = 0.33999999999999997\nsamples = 5\nvalue = [0, 0, 1, 1, 8]\nclass = 5", fillcolor="#eb65ce"] ;
506 -> 507 ;
508 [label="health <= 2.5\ngini = 0.5\nsamples = 2\nvalue = [0, 0, 1, 1, 0]\nclass = 3", fillcolor="#ffffff"] ;
507 -> 508 ;
509 [label="gini = 0.0\nsamples = 1\nvalue = [0, 0, 0, 1, 0]\nclass = 4", fillcolor="#3c39e5"] ;
508 -> 509 ;
510 [label="gini = 0.0\nsamples = 1\nvalue = [0, 0, 1, 0, 0]\nclass = 3", fillcolor="#39e5c5"] ;
508 -> 510 ;
511 [label="gini = 0.0\nsamples = 3\nvalue = [0, 0, 0, 0, 8]\nclass = 5", fillcolor="#e539c0"] ;
507 -> 511 ;
512 [label="gini = 0.0\nsamples = 2\nvalue = [0, 0, 0, 2, 0]\nclass = 4", fillcolor="#3c39e5"] ;
506 -> 512 ;
513 [label="school <= 0.5\ngini = 0.7170115560333243\nsamples = 40\nvalue = [24, 16, 11, 10, 0]\nclass = 1", fillcolor="#fae9dc"] ;
453 -> 513 ;
514 [label="reason_other <= 0.5\ngini = 0.6020408163265306\nsamples = 9\nvalue = [3, 2, 8, 1, 0]\nclass = 3", fillcolor="#a5f3e5"] ;
513 -> 514 ;
515 [label="Fedu <= 3.4999999999999996\ngini = 0.5\nsamples = 7\nvalue = [2, 2, 8, 0, 0]\nclass = 3", fillcolor="#88efdc"] ;
514 -> 515 ;
516 [label="age <= 18.0\ngini = 0.31999999999999995\nsamples = 5\nvalue = [0, 2, 8, 0, 0]\nclass = 3", fillcolor="#6aecd4"] ;
515 -> 516 ;
517 [label="gini = 0.0\nsamples = 4\nvalue = [0, 0, 8, 0, 0]\nclass = 3", fillcolor="#39e5c5"] ;
516 -> 517 ;
518 [label="gini = 0.0\nsamples = 1\nvalue = [0, 2, 0, 0, 0]\nclass = 2", fillcolor="#7be539"] ;
516 -> 518 ;
519 [label="gini = 0.0\nsamples = 2\nvalue = [2, 0, 0, 0, 0]\nclass = 1", fillcolor="#e58139"] ;
515 -> 519 ;
520 [label="address <= 0.5\ngini = 0.5\nsamples = 2\nvalue = [1, 0, 0, 1, 0]\nclass = 1", fillcolor="#ffffff"] ;
514 -> 520 ;
521 [label="gini = 0.0\nsamples = 1\nvalue = [0, 0, 0, 1, 0]\nclass = 4", fillcolor="#3c39e5"] ;
520 -> 521 ;
522 [label="gini = 0.0\nsamples = 1\nvalue = [1, 0, 0, 0, 0]\nclass = 1", fillcolor="#e58139"] ;
520 -> 522 ;
523 [label="G1 <= 15.5\ngini = 0.6708918062471707\nsamples = 31\nvalue = [21, 14, 3, 9, 0]\nclass = 1", fillcolor="#f9e4d5"] ;
513 -> 523 ;
524 [label="sex <= 0.5\ngini = 0.6460440214158238\nsamples = 28\nvalue = [21, 8, 3, 9, 0]\nclass = 1", fillcolor="#f5d0b5"] ;
523 -> 524 ;
525 [label="G2 <= 12.0\ngini = 0.31404958677685946\nsamples = 8\nvalue = [9, 1, 0, 1, 0]\nclass = 1", fillcolor="#ea9a61"] ;
524 -> 525 ;
526 [label="G3 <= 11.5\ngini = 0.18000000000000005\nsamples = 7\nvalue = [9, 0, 0, 1, 0]\nclass = 1", fillcolor="#e88f4f"] ;
525 -> 526 ;
527 [label="gini = 0.0\nsamples = 6\nvalue = [9, 0, 0, 0, 0]\nclass = 1", fillcolor="#e58139"] ;
526 -> 527 ;
528 [label="gini = 0.0\nsamples = 1\nvalue = [0, 0, 0, 1, 0]\nclass = 4", fillcolor="#3c39e5"] ;
526 -> 528 ;
529 [label="gini = 0.0\nsamples = 1\nvalue = [0, 1, 0, 0, 0]\nclass = 2", fillcolor="#7be539"] ;
525 -> 529 ;
530 [label="absences <= 10.0\ngini = 0.7044444444444444\nsamples = 20\nvalue = [12, 7, 3, 8, 0]\nclass = 1", fillcolor="#fae8db"] ;
524 -> 530 ;
531 [label="G2 <= 10.5\ngini = 0.6964285714285714\nsamples = 18\nvalue = [12, 7, 3, 6, 0]\nclass = 1", fillcolor="#f9e1d0"] ;
530 -> 531 ;
532 [label="Fjob_services <= 0.5\ngini = 0.46875\nsamples = 6\nvalue = [0, 5, 0, 3, 0]\nclass = 2", fillcolor="#caf5b0"] ;
531 -> 532 ;
533 [label="schoolsup <= 0.5\ngini = 0.375\nsamples = 4\nvalue = [0, 1, 0, 3, 0]\nclass = 4", fillcolor="#7d7bee"] ;
532 -> 533 ;
534 [label="gini = 0.0\nsamples = 3\nvalue = [0, 0, 0, 3, 0]\nclass = 4", fillcolor="#3c39e5"] ;
533 -> 534 ;
535 [label="gini = 0.0\nsamples = 1\nvalue = [0, 1, 0, 0, 0]\nclass = 2", fillcolor="#7be539"] ;
533 -> 535 ;
536 [label="gini = 0.0\nsamples = 2\nvalue = [0, 4, 0, 0, 0]\nclass = 2", fillcolor="#7be539"] ;
532 -> 536 ;
537 [label="G2 <= 12.5\ngini = 0.585\nsamples = 12\nvalue = [12, 2, 3, 3, 0]\nclass = 1", fillcolor="#f1bc96"] ;
531 -> 537 ;
538 [label="Fjob_services <= 0.5\ngini = 0.33999999999999997\nsamples = 6\nvalue = [8, 1, 0, 1, 0]\nclass = 1", fillcolor="#eb9d65"] ;
537 -> 538 ;
539 [label="activities <= 0.5\ngini = 0.19753086419753085\nsamples = 5\nvalue = [8, 1, 0, 0, 0]\nclass = 1", fillcolor="#e89152"] ;
538 -> 539 ;
540 [label="gini = 0.0\nsamples = 3\nvalue = [7, 0, 0, 0, 0]\nclass = 1", fillcolor="#e58139"] ;
539 -> 540 ;
541 [label="Pstatus <= 0.5\ngini = 0.5\nsamples = 2\nvalue = [1, 1, 0, 0, 0]\nclass = 1", fillcolor="#ffffff"] ;
539 -> 541 ;
542 [label="gini = 0.0\nsamples = 1\nvalue = [0, 1, 0, 0, 0]\nclass = 2", fillcolor="#7be539"] ;
541 -> 542 ;
543 [label="gini = 0.0\nsamples = 1\nvalue = [1, 0, 0, 0, 0]\nclass = 1", fillcolor="#e58139"] ;
541 -> 543 ;
544 [label="gini = 0.0\nsamples = 1\nvalue = [0, 0, 0, 1, 0]\nclass = 4", fillcolor="#3c39e5"] ;
538 -> 544 ;
545 [label="Mjob_services <= 0.5\ngini = 0.7\nsamples = 6\nvalue = [4, 1, 3, 2, 0]\nclass = 1", fillcolor="#fbede3"] ;
537 -> 545 ;
546 [label="G3 <= 13.500000000000002\ngini = 0.5\nsamples = 3\nvalue = [2, 0, 0, 2, 0]\nclass = 1", fillcolor="#ffffff"] ;
545 -> 546 ;
547 [label="gini = 0.0\nsamples = 1\nvalue = [0, 0, 0, 2, 0]\nclass = 4", fillcolor="#3c39e5"] ;
546 -> 547 ;
548 [label="gini = 0.0\nsamples = 2\nvalue = [2, 0, 0, 0, 0]\nclass = 1", fillcolor="#e58139"] ;
546 -> 548 ;
549 [label="guardian_father <= 0.5\ngini = 0.6111111111111112\nsamples = 3\nvalue = [2, 1, 3, 0, 0]\nclass = 3", fillcolor="#cef8f0"] ;
545 -> 549 ;
550 [label="gini = 0.0\nsamples = 1\nvalue = [0, 0, 3, 0, 0]\nclass = 3", fillcolor="#39e5c5"] ;
549 -> 550 ;
551 [label="Fedu <= 3.4999999999999996\ngini = 0.4444444444444444\nsamples = 2\nvalue = [2, 1, 0, 0, 0]\nclass = 1", fillcolor="#f2c09c"] ;
549 -> 551 ;
552 [label="gini = 0.0\nsamples = 1\nvalue = [2, 0, 0, 0, 0]\nclass = 1", fillcolor="#e58139"] ;
551 -> 552 ;
553 [label="gini = 0.0\nsamples = 1\nvalue = [0, 1, 0, 0, 0]\nclass = 2", fillcolor="#7be539"] ;
551 -> 553 ;
554 [label="gini = 0.0\nsamples = 2\nvalue = [0, 0, 0, 2, 0]\nclass = 4", fillcolor="#3c39e5"] ;
530 -> 554 ;
555 [label="gini = 0.0\nsamples = 3\nvalue = [0, 6, 0, 0, 0]\nclass = 2", fillcolor="#7be539"] ;
523 -> 555 ;
556 [label="famsize <= 0.5\ngini = 0.14201183431952658\nsamples = 7\nvalue = [12, 1, 0, 0, 0]\nclass = 1", fillcolor="#e78c49"] ;
410 -> 556 ;
557 [label="gini = 0.0\nsamples = 3\nvalue = [8, 0, 0, 0, 0]\nclass = 1", fillcolor="#e58139"] ;
556 -> 557 ;
558 [label="Mjob_health <= 0.5\ngini = 0.31999999999999995\nsamples = 4\nvalue = [4, 1, 0, 0, 0]\nclass = 1", fillcolor="#eca06a"] ;
556 -> 558 ;
559 [label="gini = 0.0\nsamples = 3\nvalue = [4, 0, 0, 0, 0]\nclass = 1", fillcolor="#e58139"] ;
558 -> 559 ;
560 [label="gini = 0.0\nsamples = 1\nvalue = [0, 1, 0, 0, 0]\nclass = 2", fillcolor="#7be539"] ;
558 -> 560 ;
}