digraph Tree {
node [shape=box, style="filled, rounded", color="black", fontname=helvetica] ;
edge [fontname=helvetica] ;
0 [label="schoolsup <= 0.5\ngini = 0.7198680483344688\nsamples = 524\nvalue = [354, 195, 143, 97, 46]\nclass = 1", fillcolor="#f9e0ce"] ;
1 [label="studytime <= 1.5\ngini = 0.734248944065903\nsamples = 461\nvalue = [286, 185, 127, 89, 44]\nclass = 1", fillcolor="#fae8da"] ;
0 -> 1 [labeldistance=2.5, labelangle=45, headlabel="True"] ;
2 [label="G1 <= 13.500000000000002\ngini = 0.7826767953637717\nsamples = 145\nvalue = [58, 60, 38, 46, 24]\nclass = 2", fillcolor="#fdfffd"] ;
1 -> 2 ;
3 [label="paid <= 0.5\ngini = 0.7784368151935719\nsamples = 122\nvalue = [47, 50, 25, 43, 20]\nclass = 2", fillcolor="#fcfefb"] ;
2 -> 3 ;
4 [label="freetime <= 4.5\ngini = 0.783375850340136\nsamples = 111\nvalue = [44, 39, 24, 41, 20]\nclass = 1", fillcolor="#fefcfa"] ;
3 -> 4 ;
5 [label="Pstatus <= 0.5\ngini = 0.7767873897541754\nsamples = 98\nvalue = [34, 39, 21, 38, 14]\nclass = 2", fillcolor="#fefffd"] ;
4 -> 5 ;
6 [label="failures <= 0.5\ngini = 0.7814495628991259\nsamples = 87\nvalue = [24, 34, 21, 34, 14]\nclass = 2", fillcolor="#ffffff"] ;
5 -> 6 ;
7 [label="famrel <= 3.4999999999999996\ngini = 0.7521777553339225\nsamples = 62\nvalue = [19, 24, 13, 29, 4]\nclass = 4", fillcolor="#f0f0fd"] ;
6 -> 7 ;
8 [label="romantic <= 0.5\ngini = 0.7210884353741497\nsamples = 14\nvalue = [4, 1, 4, 9, 3]\nclass = 4", fillcolor="#c6c5f7"] ;
7 -> 8 ;
9 [label="traveltime <= 1.5\ngini = 0.5777777777777777\nsamples = 10\nvalue = [1, 0, 3, 9, 2]\nclass = 4", fillcolor="#9e9cf2"] ;
8 -> 9 ;
10 [label="age <= 17.0\ngini = 0.65625\nsamples = 5\nvalue = [0, 0, 3, 3, 2]\nclass = 3", fillcolor="#ffffff"] ;
9 -> 10 ;
11 [label="health <= 2.0\ngini = 0.5\nsamples = 4\nvalue = [0, 0, 3, 3, 0]\nclass = 3", fillcolor="#ffffff"] ;
10 -> 11 ;
12 [label="gini = 0.0\nsamples = 1\nvalue = [0, 0, 2, 0, 0]\nclass = 3", fillcolor="#39e5c5"] ;
11 -> 12 ;
13 [label="G3 <= 9.5\ngini = 0.375\nsamples = 3\nvalue = [0, 0, 1, 3, 0]\nclass = 4", fillcolor="#7d7bee"] ;
11 -> 13 ;
14 [label="gini = 0.0\nsamples = 1\nvalue = [0, 0, 0, 2, 0]\nclass = 4", fillcolor="#3c39e5"] ;
13 -> 14 ;
15 [label="G2 <= 12.5\ngini = 0.5\nsamples = 2\nvalue = [0, 0, 1, 1, 0]\nclass = 3", fillcolor="#ffffff"] ;
13 -> 15 ;
16 [label="gini = 0.0\nsamples = 1\nvalue = [0, 0, 1, 0, 0]\nclass = 3", fillcolor="#39e5c5"] ;
15 -> 16 ;
17 [label="gini = 0.0\nsamples = 1\nvalue = [0, 0, 0, 1, 0]\nclass = 4", fillcolor="#3c39e5"] ;
15 -> 17 ;
18 [label="gini = 0.0\nsamples = 1\nvalue = [0, 0, 0, 0, 2]\nclass = 5", fillcolor="#e539c0"] ;
10 -> 18 ;
19 [label="famsize <= 0.5\ngini = 0.24489795918367355\nsamples = 5\nvalue = [1, 0, 0, 6, 0]\nclass = 4", fillcolor="#5d5ae9"] ;
9 -> 19 ;
20 [label="G2 <= 10.0\ngini = 0.4444444444444444\nsamples = 2\nvalue = [1, 0, 0, 2, 0]\nclass = 4", fillcolor="#9e9cf2"] ;
19 -> 20 ;
21 [label="gini = 0.0\nsamples = 1\nvalue = [1, 0, 0, 0, 0]\nclass = 1", fillcolor="#e58139"] ;
20 -> 21 ;
22 [label="gini = 0.0\nsamples = 1\nvalue = [0, 0, 0, 2, 0]\nclass = 4", fillcolor="#3c39e5"] ;
20 -> 22 ;
23 [label="gini = 0.0\nsamples = 3\nvalue = [0, 0, 0, 4, 0]\nclass = 4", fillcolor="#3c39e5"] ;
19 -> 23 ;
24 [label="G3 <= 5.0\ngini = 0.6666666666666667\nsamples = 4\nvalue = [3, 1, 1, 0, 1]\nclass = 1", fillcolor="#f5cdb0"] ;
8 -> 24 ;
25 [label="gini = 0.0\nsamples = 1\nvalue = [3, 0, 0, 0, 0]\nclass = 1", fillcolor="#e58139"] ;
24 -> 25 ;
26 [label="traveltime <= 1.5\ngini = 0.6666666666666667\nsamples = 3\nvalue = [0, 1, 1, 0, 1]\nclass = 2", fillcolor="#ffffff"] ;
24 -> 26 ;
27 [label="gini = 0.0\nsamples = 1\nvalue = [0, 0, 1, 0, 0]\nclass = 3", fillcolor="#39e5c5"] ;
26 -> 27 ;
28 [label="school <= 0.5\ngini = 0.5\nsamples = 2\nvalue = [0, 1, 0, 0, 1]\nclass = 2", fillcolor="#ffffff"] ;
26 -> 28 ;
29 [label="gini = 0.0\nsamples = 1\nvalue = [0, 1, 0, 0, 0]\nclass = 2", fillcolor="#7be539"] ;
28 -> 29 ;
30 [label="gini = 0.0\nsamples = 1\nvalue = [0, 0, 0, 0, 1]\nclass = 5", fillcolor="#e539c0"] ;
28 -> 30 ;
31 [label="sex <= 0.5\ngini = 0.7326989619377162\nsamples = 48\nvalue = [15, 23, 9, 20, 1]\nclass = 2", fillcolor="#f7fdf3"] ;
7 -> 31 ;
32 [label="Fedu <= 0.5\ngini = 0.64\nsamples = 14\nvalue = [8, 12, 4, 1, 0]\nclass = 2", fillcolor="#e0f9d0"] ;
31 -> 32 ;
33 [label="gini = 0.0\nsamples = 1\nvalue = [3, 0, 0, 0, 0]\nclass = 1", fillcolor="#e58139"] ;
32 -> 33 ;
34 [label="Fedu <= 2.5\ngini = 0.615702479338843\nsamples = 13\nvalue = [5, 12, 4, 1, 0]\nclass = 2", fillcolor="#c9f4ad"] ;
32 -> 34 ;
35 [label="goout <= 2.5\ngini = 0.41666666666666663\nsamples = 8\nvalue = [1, 9, 1, 1, 0]\nclass = 2", fillcolor="#9fec6f"] ;
34 -> 35 ;
36 [label="age <= 16.5\ngini = 0.6122448979591837\nsamples = 5\nvalue = [1, 4, 1, 1, 0]\nclass = 2", fillcolor="#bdf29c"] ;
35 -> 36 ;
37 [label="famsup <= 0.5\ngini = 0.6666666666666667\nsamples = 3\nvalue = [1, 0, 1, 1, 0]\nclass = 1", fillcolor="#ffffff"] ;
36 -> 37 ;
38 [label="freetime <= 1.5\ngini = 0.5\nsamples = 2\nvalue = [1, 0, 1, 0, 0]\nclass = 1", fillcolor="#ffffff"] ;
37 -> 38 ;
39 [label="gini = 0.0\nsamples = 1\nvalue = [1, 0, 0, 0, 0]\nclass = 1", fillcolor="#e58139"] ;
38 -> 39 ;
40 [label="gini = 0.0\nsamples = 1\nvalue = [0, 0, 1, 0, 0]\nclass = 3", fillcolor="#39e5c5"] ;
38 -> 40 ;
41 [label="gini = 0.0\nsamples = 1\nvalue = [0, 0, 0, 1, 0]\nclass = 4", fillcolor="#3c39e5"] ;
37 -> 41 ;
42 [label="gini = 0.0\nsamples = 2\nvalue = [0, 4, 0, 0, 0]\nclass = 2", fillcolor="#7be539"] ;
36 -> 42 ;
43 [label="gini = 0.0\nsamples = 3\nvalue = [0, 5, 0, 0, 0]\nclass = 2", fillcolor="#7be539"] ;
35 -> 43 ;
44 [label="freetime <= 3.4999999999999996\ngini = 0.6599999999999999\nsamples = 5\nvalue = [4, 3, 3, 0, 0]\nclass = 1", fillcolor="#fbede3"] ;
34 -> 44 ;
45 [label="gini = 0.0\nsamples = 2\nvalue = [0, 3, 0, 0, 0]\nclass = 2", fillcolor="#7be539"] ;
44 -> 45 ;
46 [label="school <= 0.5\ngini = 0.4897959183673469\nsamples = 3\nvalue = [4, 0, 3, 0, 0]\nclass = 1", fillcolor="#f8e0ce"] ;
44 -> 46 ;
47 [label="famrel <= 4.5\ngini = 0.375\nsamples = 2\nvalue = [1, 0, 3, 0, 0]\nclass = 3", fillcolor="#7beed8"] ;
46 -> 47 ;
48 [label="gini = 0.0\nsamples = 1\nvalue = [1, 0, 0, 0, 0]\nclass = 1", fillcolor="#e58139"] ;
47 -> 48 ;
49 [label="gini = 0.0\nsamples = 1\nvalue = [0, 0, 3, 0, 0]\nclass = 3", fillcolor="#39e5c5"] ;
47 -> 49 ;
50 [label="gini = 0.0\nsamples = 1\nvalue = [3, 0, 0, 0, 0]\nclass = 1", fillcolor="#e58139"] ;
46 -> 50 ;
51 [label="absences <= 6.999999999999999\ngini = 0.6987560843699296\nsamples = 34\nvalue = [7, 11, 5, 19, 1]\nclass = 4", fillcolor="#cecef8"] ;
31 -> 51 ;
52 [label="Medu <= 2.5\ngini = 0.736455463728191\nsamples = 27\nvalue = [7, 10, 4, 11, 1]\nclass = 4", fillcolor="#f7f6fe"] ;
51 -> 52 ;
53 [label="romantic <= 0.5\ngini = 0.6666666666666667\nsamples = 15\nvalue = [4, 1, 3, 9, 1]\nclass = 4", fillcolor="#b9b8f6"] ;
52 -> 53 ;
54 [label="famrel <= 4.5\ngini = 0.5816326530612245\nsamples = 11\nvalue = [4, 1, 0, 8, 1]\nclass = 4", fillcolor="#b1b0f5"] ;
53 -> 54 ;
55 [label="Fedu <= 2.5\ngini = 0.40625\nsamples = 6\nvalue = [0, 1, 0, 6, 1]\nclass = 4", fillcolor="#7472ec"] ;
54 -> 55 ;
56 [label="Medu <= 1.5\ngini = 0.24489795918367355\nsamples = 5\nvalue = [0, 1, 0, 6, 0]\nclass = 4", fillcolor="#5d5ae9"] ;
55 -> 56 ;
57 [label="gini = 0.0\nsamples = 3\nvalue = [0, 0, 0, 4, 0]\nclass = 4", fillcolor="#3c39e5"] ;
56 -> 57 ;
58 [label="Fedu <= 1.5\ngini = 0.4444444444444444\nsamples = 2\nvalue = [0, 1, 0, 2, 0]\nclass = 4", fillcolor="#9e9cf2"] ;
56 -> 58 ;
59 [label="gini = 0.0\nsamples = 1\nvalue = [0, 0, 0, 2, 0]\nclass = 4", fillcolor="#3c39e5"] ;
58 -> 59 ;
60 [label="gini = 0.0\nsamples = 1\nvalue = [0, 1, 0, 0, 0]\nclass = 2", fillcolor="#7be539"] ;
58 -> 60 ;
61 [label="gini = 0.0\nsamples = 1\nvalue = [0, 0, 0, 0, 1]\nclass = 5", fillcolor="#e539c0"] ;
55 -> 61 ;
62 [label="goout <= 2.5\ngini = 0.4444444444444444\nsamples = 5\nvalue = [4, 0, 0, 2, 0]\nclass = 1", fillcolor="#f2c09c"] ;
54 -> 62 ;
63 [label="gini = 0.0\nsamples = 3\nvalue = [3, 0, 0, 0, 0]\nclass = 1", fillcolor="#e58139"] ;
62 -> 63 ;
64 [label="higher <= 0.5\ngini = 0.4444444444444444\nsamples = 2\nvalue = [1, 0, 0, 2, 0]\nclass = 4", fillcolor="#9e9cf2"] ;
62 -> 64 ;
65 [label="gini = 0.0\nsamples = 1\nvalue = [0, 0, 0, 2, 0]\nclass = 4", fillcolor="#3c39e5"] ;
64 -> 65 ;
66 [label="gini = 0.0\nsamples = 1\nvalue = [1, 0, 0, 0, 0]\nclass = 1", fillcolor="#e58139"] ;
64 -> 66 ;
67 [label="G2 <= 9.0\ngini = 0.375\nsamples = 4\nvalue = [0, 0, 3, 1, 0]\nclass = 3", fillcolor="#7beed8"] ;
53 -> 67 ;
68 [label="famrel <= 4.5\ngini = 0.5\nsamples = 2\nvalue = [0, 0, 1, 1, 0]\nclass = 3", fillcolor="#ffffff"] ;
67 -> 68 ;
69 [label="gini = 0.0\nsamples = 1\nvalue = [0, 0, 1, 0, 0]\nclass = 3", fillcolor="#39e5c5"] ;
68 -> 69 ;
70 [label="gini = 0.0\nsamples = 1\nvalue = [0, 0, 0, 1, 0]\nclass = 4", fillcolor="#3c39e5"] ;
68 -> 70 ;
71 [label="gini = 0.0\nsamples = 2\nvalue = [0, 0, 2, 0, 0]\nclass = 3", fillcolor="#39e5c5"] ;
67 -> 71 ;
72 [label="age <= 16.5\ngini = 0.5777777777777777\nsamples = 12\nvalue = [3, 9, 1, 2, 0]\nclass = 2", fillcolor="#bdf29c"] ;
52 -> 72 ;
73 [label="G1 <= 11.0\ngini = 0.6111111111111112\nsamples = 5\nvalue = [3, 2, 1, 0, 0]\nclass = 1", fillcolor="#f8e0ce"] ;
72 -> 73 ;
74 [label="gini = 0.0\nsamples = 2\nvalue = [2, 0, 0, 0, 0]\nclass = 1", fillcolor="#e58139"] ;
73 -> 74 ;
75 [label="traveltime <= 1.5\ngini = 0.625\nsamples = 3\nvalue = [1, 2, 1, 0, 0]\nclass = 2", fillcolor="#d3f6bd"] ;
73 -> 75 ;
76 [label="famrel <= 4.5\ngini = 0.4444444444444444\nsamples = 2\nvalue = [0, 2, 1, 0, 0]\nclass = 2", fillcolor="#bdf29c"] ;
75 -> 76 ;
77 [label="gini = 0.0\nsamples = 1\nvalue = [0, 0, 1, 0, 0]\nclass = 3", fillcolor="#39e5c5"] ;
76 -> 77 ;
78 [label="gini = 0.0\nsamples = 1\nvalue = [0, 2, 0, 0, 0]\nclass = 2", fillcolor="#7be539"] ;
76 -> 78 ;
79 [label="gini = 0.0\nsamples = 1\nvalue = [1, 0, 0, 0, 0]\nclass = 1", fillcolor="#e58139"] ;
75 -> 79 ;
80 [label="goout <= 4.5\ngini = 0.345679012345679\nsamples = 7\nvalue = [0, 7, 0, 2, 0]\nclass = 2", fillcolor="#a1ec72"] ;
72 -> 80 ;
81 [label="goout <= 2.0\ngini = 0.21874999999999997\nsamples = 6\nvalue = [0, 7, 0, 1, 0]\nclass = 2", fillcolor="#8ee955"] ;
80 -> 81 ;
82 [label="freetime <= 3.0\ngini = 0.31999999999999995\nsamples = 3\nvalue = [0, 4, 0, 1, 0]\nclass = 2", fillcolor="#9cec6a"] ;
81 -> 82 ;
83 [label="gini = 0.0\nsamples = 2\nvalue = [0, 4, 0, 0, 0]\nclass = 2", fillcolor="#7be539"] ;
82 -> 83 ;
84 [label="gini = 0.0\nsamples = 1\nvalue = [0, 0, 0, 1, 0]\nclass = 4", fillcolor="#3c39e5"] ;
82 -> 84 ;
85 [label="gini = 0.0\nsamples = 3\nvalue = [0, 3, 0, 0, 0]\nclass = 2", fillcolor="#7be539"] ;
81 -> 85 ;
86 [label="gini = 0.0\nsamples = 1\nvalue = [0, 0, 0, 1, 0]\nclass = 4", fillcolor="#3c39e5"] ;
80 -> 86 ;
87 [label="G3 <= 6.5\ngini = 0.33999999999999997\nsamples = 7\nvalue = [0, 1, 1, 8, 0]\nclass = 4", fillcolor="#6765eb"] ;
51 -> 87 ;
88 [label="gini = 0.0\nsamples = 1\nvalue = [0, 1, 0, 0, 0]\nclass = 2", fillcolor="#7be539"] ;
87 -> 88 ;
89 [label="age <= 16.5\ngini = 0.19753086419753085\nsamples = 6\nvalue = [0, 0, 1, 8, 0]\nclass = 4", fillcolor="#5452e8"] ;
87 -> 89 ;
90 [label="gini = 0.0\nsamples = 4\nvalue = [0, 0, 0, 7, 0]\nclass = 4", fillcolor="#3c39e5"] ;
89 -> 90 ;
91 [label="G1 <= 7.5\ngini = 0.5\nsamples = 2\nvalue = [0, 0, 1, 1, 0]\nclass = 3", fillcolor="#ffffff"] ;
89 -> 91 ;
92 [label="gini = 0.0\nsamples = 1\nvalue = [0, 0, 0, 1, 0]\nclass = 4", fillcolor="#3c39e5"] ;
91 -> 92 ;
93 [label="gini = 0.0\nsamples = 1\nvalue = [0, 0, 1, 0, 0]\nclass = 3", fillcolor="#39e5c5"] ;
91 -> 93 ;
94 [label="goout <= 3.4999999999999996\ngini = 0.7825484764542935\nsamples = 25\nvalue = [5, 10, 8, 5, 10]\nclass = 2", fillcolor="#ffffff"] ;
6 -> 94 ;
95 [label="G2 <= 10.0\ngini = 0.64\nsamples = 8\nvalue = [3, 6, 6, 0, 0]\nclass = 2", fillcolor="#ffffff"] ;
94 -> 95 ;
96 [label="sex <= 0.5\ngini = 0.5\nsamples = 6\nvalue = [0, 6, 6, 0, 0]\nclass = 2", fillcolor="#ffffff"] ;
95 -> 96 ;
97 [label="gini = 0.0\nsamples = 1\nvalue = [0, 3, 0, 0, 0]\nclass = 2", fillcolor="#7be539"] ;
96 -> 97 ;
98 [label="freetime <= 3.4999999999999996\ngini = 0.4444444444444444\nsamples = 5\nvalue = [0, 3, 6, 0, 0]\nclass = 3", fillcolor="#9cf2e2"] ;
96 -> 98 ;
99 [label="famrel <= 1.5\ngini = 0.5\nsamples = 4\nvalue = [0, 3, 3, 0, 0]\nclass = 2", fillcolor="#ffffff"] ;
98 -> 99 ;
100 [label="gini = 0.0\nsamples = 1\nvalue = [0, 0, 2, 0, 0]\nclass = 3", fillcolor="#39e5c5"] ;
99 -> 100 ;
101 [label="Medu <= 1.5\ngini = 0.375\nsamples = 3\nvalue = [0, 3, 1, 0, 0]\nclass = 2", fillcolor="#a7ee7b"] ;
99 -> 101 ;
102 [label="gini = 0.0\nsamples = 1\nvalue = [0, 0, 1, 0, 0]\nclass = 3", fillcolor="#39e5c5"] ;
101 -> 102 ;
103 [label="gini = 0.0\nsamples = 2\nvalue = [0, 3, 0, 0, 0]\nclass = 2", fillcolor="#7be539"] ;
101 -> 103 ;
104 [label="gini = 0.0\nsamples = 1\nvalue = [0, 0, 3, 0, 0]\nclass = 3", fillcolor="#39e5c5"] ;
98 -> 104 ;
105 [label="gini = 0.0\nsamples = 2\nvalue = [3, 0, 0, 0, 0]\nclass = 1", fillcolor="#e58139"] ;
95 -> 105 ;
106 [label="school <= 0.5\ngini = 0.718336483931947\nsamples = 17\nvalue = [2, 4, 2, 5, 10]\nclass = 5", fillcolor="#f8c8ee"] ;
94 -> 106 ;
107 [label="Fedu <= 1.5\ngini = 0.64\nsamples = 4\nvalue = [2, 1, 2, 0, 0]\nclass = 1", fillcolor="#ffffff"] ;
106 -> 107 ;
108 [label="gini = 0.0\nsamples = 2\nvalue = [0, 0, 2, 0, 0]\nclass = 3", fillcolor="#39e5c5"] ;
107 -> 108 ;
109 [label="G3 <= 9.5\ngini = 0.4444444444444444\nsamples = 2\nvalue = [2, 1, 0, 0, 0]\nclass = 1", fillcolor="#f2c09c"] ;
107 -> 109 ;
110 [label="gini = 0.0\nsamples = 1\nvalue = [0, 1, 0, 0, 0]\nclass = 2", fillcolor="#7be539"] ;
109 -> 110 ;
111 [label="gini = 0.0\nsamples = 1\nvalue = [2, 0, 0, 0, 0]\nclass = 1", fillcolor="#e58139"] ;
109 -> 111 ;
112 [label="absences <= 3.0\ngini = 0.5864197530864197\nsamples = 13\nvalue = [0, 3, 0, 5, 10]\nclass = 5", fillcolor="#f5b3e7"] ;
106 -> 112 ;
113 [label="age <= 17.5\ngini = 0.48\nsamples = 4\nvalue = [0, 3, 0, 2, 0]\nclass = 2", fillcolor="#d3f6bd"] ;
112 -> 113 ;
114 [label="gini = 0.0\nsamples = 3\nvalue = [0, 3, 0, 0, 0]\nclass = 2", fillcolor="#7be539"] ;
113 -> 114 ;
115 [label="gini = 0.0\nsamples = 1\nvalue = [0, 0, 0, 2, 0]\nclass = 4", fillcolor="#3c39e5"] ;
113 -> 115 ;
116 [label="Medu <= 3.4999999999999996\ngini = 0.3550295857988166\nsamples = 9\nvalue = [0, 0, 0, 3, 10]\nclass = 5", fillcolor="#ed74d3"] ;
112 -> 116 ;
117 [label="absences <= 5.0\ngini = 0.1652892561983471\nsamples = 8\nvalue = [0, 0, 0, 1, 10]\nclass = 5", fillcolor="#e84dc6"] ;
116 -> 117 ;
118 [label="G3 <= 9.0\ngini = 0.375\nsamples = 3\nvalue = [0, 0, 0, 1, 3]\nclass = 5", fillcolor="#ee7bd5"] ;
117 -> 118 ;
119 [label="gini = 0.0\nsamples = 2\nvalue = [0, 0, 0, 0, 3]\nclass = 5", fillcolor="#e539c0"] ;
118 -> 119 ;
120 [label="gini = 0.0\nsamples = 1\nvalue = [0, 0, 0, 1, 0]\nclass = 4", fillcolor="#3c39e5"] ;
118 -> 120 ;
121 [label="gini = 0.0\nsamples = 5\nvalue = [0, 0, 0, 0, 7]\nclass = 5", fillcolor="#e539c0"] ;
117 -> 121 ;
122 [label="gini = 0.0\nsamples = 1\nvalue = [0, 0, 0, 2, 0]\nclass = 4", fillcolor="#3c39e5"] ;
116 -> 122 ;
123 [label="romantic <= 0.5\ngini = 0.6094182825484764\nsamples = 11\nvalue = [10, 5, 0, 4, 0]\nclass = 1", fillcolor="#f6d2b8"] ;
5 -> 123 ;
124 [label="goout <= 3.4999999999999996\ngini = 0.6627218934911243\nsamples = 8\nvalue = [4, 5, 0, 4, 0]\nclass = 2", fillcolor="#f0fce9"] ;
123 -> 124 ;
125 [label="famrel <= 3.4999999999999996\ngini = 0.46875\nsamples = 3\nvalue = [3, 5, 0, 0, 0]\nclass = 2", fillcolor="#caf5b0"] ;
124 -> 125 ;
126 [label="traveltime <= 2.0\ngini = 0.4897959183673469\nsamples = 2\nvalue = [3, 4, 0, 0, 0]\nclass = 2", fillcolor="#def8ce"] ;
125 -> 126 ;
127 [label="gini = 0.0\nsamples = 1\nvalue = [3, 0, 0, 0, 0]\nclass = 1", fillcolor="#e58139"] ;
126 -> 127 ;
128 [label="gini = 0.0\nsamples = 1\nvalue = [0, 4, 0, 0, 0]\nclass = 2", fillcolor="#7be539"] ;
126 -> 128 ;
129 [label="gini = 0.0\nsamples = 1\nvalue = [0, 1, 0, 0, 0]\nclass = 2", fillcolor="#7be539"] ;
125 -> 129 ;
130 [label="health <= 4.0\ngini = 0.31999999999999995\nsamples = 5\nvalue = [1, 0, 0, 4, 0]\nclass = 4", fillcolor="#6d6aec"] ;
124 -> 130 ;
131 [label="gini = 0.0\nsamples = 4\nvalue = [0, 0, 0, 4, 0]\nclass = 4", fillcolor="#3c39e5"] ;
130 -> 131 ;
132 [label="gini = 0.0\nsamples = 1\nvalue = [1, 0, 0, 0, 0]\nclass = 1", fillcolor="#e58139"] ;
130 -> 132 ;
133 [label="gini = 0.0\nsamples = 3\nvalue = [6, 0, 0, 0, 0]\nclass = 1", fillcolor="#e58139"] ;
123 -> 133 ;
134 [label="Medu <= 1.5\ngini = 0.6818181818181819\nsamples = 13\nvalue = [10, 0, 3, 3, 6]\nclass = 1", fillcolor="#f8e0ce"] ;
4 -> 134 ;
135 [label="G3 <= 8.0\ngini = 0.6111111111111112\nsamples = 4\nvalue = [2, 0, 3, 1, 0]\nclass = 3", fillcolor="#cef8f0"] ;
134 -> 135 ;
136 [label="gini = 0.0\nsamples = 2\nvalue = [0, 0, 3, 0, 0]\nclass = 3", fillcolor="#39e5c5"] ;
135 -> 136 ;
137 [label="address <= 0.5\ngini = 0.4444444444444444\nsamples = 2\nvalue = [2, 0, 0, 1, 0]\nclass = 1", fillcolor="#f2c09c"] ;
135 -> 137 ;
138 [label="gini = 0.0\nsamples = 1\nvalue = [2, 0, 0, 0, 0]\nclass = 1", fillcolor="#e58139"] ;
137 -> 138 ;
139 [label="gini = 0.0\nsamples = 1\nvalue = [0, 0, 0, 1, 0]\nclass = 4", fillcolor="#3c39e5"] ;
137 -> 139 ;
140 [label="absences <= 1.0\ngini = 0.59375\nsamples = 9\nvalue = [8, 0, 0, 2, 6]\nclass = 1", fillcolor="#fae6d7"] ;
134 -> 140 ;
141 [label="gini = 0.0\nsamples = 2\nvalue = [0, 0, 0, 0, 3]\nclass = 5", fillcolor="#e539c0"] ;
140 -> 141 ;
142 [label="goout <= 3.4999999999999996\ngini = 0.5443786982248521\nsamples = 7\nvalue = [8, 0, 0, 2, 3]\nclass = 1", fillcolor="#f2c09c"] ;
140 -> 142 ;
143 [label="gini = 0.0\nsamples = 4\nvalue = [8, 0, 0, 0, 0]\nclass = 1", fillcolor="#e58139"] ;
142 -> 143 ;
144 [label="Pstatus <= 0.5\ngini = 0.48\nsamples = 3\nvalue = [0, 0, 0, 2, 3]\nclass = 5", fillcolor="#f6bdea"] ;
142 -> 144 ;
145 [label="gini = 0.0\nsamples = 1\nvalue = [0, 0, 0, 0, 3]\nclass = 5", fillcolor="#e539c0"] ;
144 -> 145 ;
146 [label="gini = 0.0\nsamples = 2\nvalue = [0, 0, 0, 2, 0]\nclass = 4", fillcolor="#3c39e5"] ;
144 -> 146 ;
147 [label="G1 <= 10.5\ngini = 0.532871972318339\nsamples = 11\nvalue = [3, 11, 1, 2, 0]\nclass = 2", fillcolor="#b4f08e"] ;
3 -> 147 ;
148 [label="age <= 16.5\ngini = 0.4297520661157025\nsamples = 7\nvalue = [0, 8, 1, 2, 0]\nclass = 2", fillcolor="#a7ee7b"] ;
147 -> 148 ;
149 [label="goout <= 3.0\ngini = 0.5\nsamples = 2\nvalue = [0, 0, 1, 1, 0]\nclass = 3", fillcolor="#ffffff"] ;
148 -> 149 ;
150 [label="gini = 0.0\nsamples = 1\nvalue = [0, 0, 1, 0, 0]\nclass = 3", fillcolor="#39e5c5"] ;
149 -> 150 ;
151 [label="gini = 0.0\nsamples = 1\nvalue = [0, 0, 0, 1, 0]\nclass = 4", fillcolor="#3c39e5"] ;
149 -> 151 ;
152 [label="failures <= 2.0\ngini = 0.19753086419753085\nsamples = 5\nvalue = [0, 8, 0, 1, 0]\nclass = 2", fillcolor="#8ce852"] ;
148 -> 152 ;
153 [label="gini = 0.0\nsamples = 4\nvalue = [0, 8, 0, 0, 0]\nclass = 2", fillcolor="#7be539"] ;
152 -> 153 ;
154 [label="gini = 0.0\nsamples = 1\nvalue = [0, 0, 0, 1, 0]\nclass = 4", fillcolor="#3c39e5"] ;
152 -> 154 ;
155 [label="age <= 15.5\ngini = 0.5\nsamples = 4\nvalue = [3, 3, 0, 0, 0]\nclass = 1", fillcolor="#ffffff"] ;
147 -> 155 ;
156 [label="gini = 0.0\nsamples = 2\nvalue = [3, 0, 0, 0, 0]\nclass = 1", fillcolor="#e58139"] ;
155 -> 156 ;
157 [label="gini = 0.0\nsamples = 2\nvalue = [0, 3, 0, 0, 0]\nclass = 2", fillcolor="#7be539"] ;
155 -> 157 ;
158 [label="internet <= 0.5\ngini = 0.7531231409875074\nsamples = 23\nvalue = [11, 10, 13, 3, 4]\nclass = 3", fillcolor="#f2fdfb"] ;
2 -> 158 ;
159 [label="activities <= 0.5\ngini = 0.375\nsamples = 3\nvalue = [3, 1, 0, 0, 0]\nclass = 1", fillcolor="#eeab7b"] ;
158 -> 159 ;
160 [label="gini = 0.0\nsamples = 1\nvalue = [0, 1, 0, 0, 0]\nclass = 2", fillcolor="#7be539"] ;
159 -> 160 ;
161 [label="gini = 0.0\nsamples = 2\nvalue = [3, 0, 0, 0, 0]\nclass = 1", fillcolor="#e58139"] ;
159 -> 161 ;
162 [label="G3 <= 14.499999999999998\ngini = 0.7523739956172388\nsamples = 20\nvalue = [8, 9, 13, 3, 4]\nclass = 3", fillcolor="#e3fbf7"] ;
158 -> 162 ;
163 [label="freetime <= 4.5\ngini = 0.5925925925925926\nsamples = 9\nvalue = [0, 7, 9, 1, 1]\nclass = 3", fillcolor="#dbfaf4"] ;
162 -> 163 ;
164 [label="freetime <= 3.4999999999999996\ngini = 0.6122448979591837\nsamples = 8\nvalue = [0, 7, 5, 1, 1]\nclass = 2", fillcolor="#e2f9d3"] ;
163 -> 164 ;
165 [label="goout <= 4.0\ngini = 0.375\nsamples = 3\nvalue = [0, 0, 3, 0, 1]\nclass = 3", fillcolor="#7beed8"] ;
164 -> 165 ;
166 [label="gini = 0.0\nsamples = 2\nvalue = [0, 0, 3, 0, 0]\nclass = 3", fillcolor="#39e5c5"] ;
165 -> 166 ;
167 [label="gini = 0.0\nsamples = 1\nvalue = [0, 0, 0, 0, 1]\nclass = 5", fillcolor="#e539c0"] ;
165 -> 167 ;
168 [label="romantic <= 0.5\ngini = 0.4599999999999999\nsamples = 5\nvalue = [0, 7, 2, 1, 0]\nclass = 2", fillcolor="#acef83"] ;
164 -> 168 ;
169 [label="sex <= 0.5\ngini = 0.5714285714285714\nsamples = 4\nvalue = [0, 4, 2, 1, 0]\nclass = 2", fillcolor="#caf5b0"] ;
168 -> 169 ;
170 [label="gini = 0.0\nsamples = 1\nvalue = [0, 0, 2, 0, 0]\nclass = 3", fillcolor="#39e5c5"] ;
169 -> 170 ;
171 [label="absences <= 12.0\ngini = 0.31999999999999995\nsamples = 3\nvalue = [0, 4, 0, 1, 0]\nclass = 2", fillcolor="#9cec6a"] ;
169 -> 171 ;
172 [label="gini = 0.0\nsamples = 2\nvalue = [0, 4, 0, 0, 0]\nclass = 2", fillcolor="#7be539"] ;
171 -> 172 ;
173 [label="gini = 0.0\nsamples = 1\nvalue = [0, 0, 0, 1, 0]\nclass = 4", fillcolor="#3c39e5"] ;
171 -> 173 ;
174 [label="gini = 0.0\nsamples = 1\nvalue = [0, 3, 0, 0, 0]\nclass = 2", fillcolor="#7be539"] ;
168 -> 174 ;
175 [label="gini = 0.0\nsamples = 1\nvalue = [0, 0, 4, 0, 0]\nclass = 3", fillcolor="#39e5c5"] ;
163 -> 175 ;
176 [label="famsup <= 0.5\ngini = 0.7313019390581718\nsamples = 11\nvalue = [8, 2, 4, 2, 3]\nclass = 1", fillcolor="#f8ddca"] ;
162 -> 176 ;
177 [label="famrel <= 3.0\ngini = 0.6020408163265306\nsamples = 8\nvalue = [8, 1, 0, 2, 3]\nclass = 1", fillcolor="#f3c6a5"] ;
176 -> 177 ;
178 [label="gini = 0.0\nsamples = 1\nvalue = [0, 0, 0, 2, 0]\nclass = 4", fillcolor="#3c39e5"] ;
177 -> 178 ;
179 [label="G2 <= 15.5\ngini = 0.4861111111111111\nsamples = 7\nvalue = [8, 1, 0, 0, 3]\nclass = 1", fillcolor="#f1b991"] ;
177 -> 179 ;
180 [label="goout <= 3.0\ngini = 0.64\nsamples = 3\nvalue = [2, 1, 0, 0, 2]\nclass = 1", fillcolor="#ffffff"] ;
179 -> 180 ;
181 [label="gini = 0.0\nsamples = 1\nvalue = [2, 0, 0, 0, 0]\nclass = 1", fillcolor="#e58139"] ;
180 -> 181 ;
182 [label="absences <= 2.5\ngini = 0.4444444444444444\nsamples = 2\nvalue = [0, 1, 0, 0, 2]\nclass = 5", fillcolor="#f29ce0"] ;
180 -> 182 ;
183 [label="gini = 0.0\nsamples = 1\nvalue = [0, 1, 0, 0, 0]\nclass = 2", fillcolor="#7be539"] ;
182 -> 183 ;
184 [label="gini = 0.0\nsamples = 1\nvalue = [0, 0, 0, 0, 2]\nclass = 5", fillcolor="#e539c0"] ;
182 -> 184 ;
185 [label="nursery <= 0.5\ngini = 0.24489795918367355\nsamples = 4\nvalue = [6, 0, 0, 0, 1]\nclass = 1", fillcolor="#e9965a"] ;
179 -> 185 ;
186 [label="gini = 0.0\nsamples = 1\nvalue = [0, 0, 0, 0, 1]\nclass = 5", fillcolor="#e539c0"] ;
185 -> 186 ;
187 [label="gini = 0.0\nsamples = 3\nvalue = [6, 0, 0, 0, 0]\nclass = 1", fillcolor="#e58139"] ;
185 -> 187 ;
188 [label="romantic <= 0.5\ngini = 0.31999999999999995\nsamples = 3\nvalue = [0, 1, 4, 0, 0]\nclass = 3", fillcolor="#6aecd4"] ;
176 -> 188 ;
189 [label="gini = 0.0\nsamples = 2\nvalue = [0, 0, 4, 0, 0]\nclass = 3", fillcolor="#39e5c5"] ;
188 -> 189 ;
190 [label="gini = 0.0\nsamples = 1\nvalue = [0, 1, 0, 0, 0]\nclass = 2", fillcolor="#7be539"] ;
188 -> 190 ;
191 [label="Medu <= 0.5\ngini = 0.6950142142927165\nsamples = 316\nvalue = [228, 125, 89, 43, 20]\nclass = 1", fillcolor="#f8ddc9"] ;
1 -> 191 ;
192 [label="gini = 0.0\nsamples = 2\nvalue = [0, 0, 5, 0, 0]\nclass = 3", fillcolor="#39e5c5"] ;
191 -> 192 ;
193 [label="freetime <= 2.5\ngini = 0.6923440000000001\nsamples = 314\nvalue = [228, 125, 84, 43, 20]\nclass = 1", fillcolor="#f8dcc9"] ;
191 -> 193 ;
194 [label="paid <= 0.5\ngini = 0.5979488703923901\nsamples = 68\nvalue = [56, 47, 6, 5, 2]\nclass = 1", fillcolor="#fcefe5"] ;
193 -> 194 ;
195 [label="famrel <= 1.5\ngini = 0.5612927660648908\nsamples = 53\nvalue = [51, 29, 2, 5, 2]\nclass = 1", fillcolor="#f5d1b6"] ;
194 -> 195 ;
196 [label="gini = 0.0\nsamples = 2\nvalue = [0, 3, 0, 0, 0]\nclass = 2", fillcolor="#7be539"] ;
195 -> 196 ;
197 [label="sex <= 0.5\ngini = 0.5524607896160086\nsamples = 51\nvalue = [51, 26, 2, 5, 2]\nclass = 1", fillcolor="#f4caac"] ;
195 -> 197 ;
198 [label="freetime <= 1.5\ngini = 0.4143461795500112\nsamples = 39\nvalue = [48, 18, 1, 0, 0]\nclass = 1", fillcolor="#efb286"] ;
197 -> 198 ;
199 [label="gini = 0.0\nsamples = 8\nvalue = [16, 0, 0, 0, 0]\nclass = 1", fillcolor="#e58139"] ;
198 -> 199 ;
200 [label="Medu <= 3.4999999999999996\ngini = 0.48135332564398303\nsamples = 31\nvalue = [32, 18, 1, 0, 0]\nclass = 1", fillcolor="#f4caab"] ;
198 -> 200 ;
201 [label="goout <= 1.5\ngini = 0.527681660899654\nsamples = 22\nvalue = [16, 17, 1, 0, 0]\nclass = 2", fillcolor="#f8fef4"] ;
200 -> 201 ;
202 [label="gini = 0.0\nsamples = 3\nvalue = [4, 0, 0, 0, 0]\nclass = 1", fillcolor="#e58139"] ;
201 -> 202 ;
203 [label="address <= 0.5\ngini = 0.5177777777777778\nsamples = 19\nvalue = [12, 17, 1, 0, 0]\nclass = 2", fillcolor="#daf8c8"] ;
201 -> 203 ;
204 [label="Pstatus <= 0.5\ngini = 0.4897959183673469\nsamples = 13\nvalue = [12, 9, 0, 0, 0]\nclass = 1", fillcolor="#f8e0ce"] ;
203 -> 204 ;
205 [label="romantic <= 0.5\ngini = 0.46537396121883656\nsamples = 11\nvalue = [12, 7, 0, 0, 0]\nclass = 1", fillcolor="#f4caac"] ;
204 -> 205 ;
206 [label="G2 <= 13.0\ngini = 0.49586776859504134\nsamples = 7\nvalue = [5, 6, 0, 0, 0]\nclass = 2", fillcolor="#e9fbde"] ;
205 -> 206 ;
207 [label="studytime <= 2.5\ngini = 0.40816326530612246\nsamples = 4\nvalue = [5, 2, 0, 0, 0]\nclass = 1", fillcolor="#efb388"] ;
206 -> 207 ;
208 [label="gini = 0.0\nsamples = 1\nvalue = [0, 2, 0, 0, 0]\nclass = 2", fillcolor="#7be539"] ;
207 -> 208 ;
209 [label="gini = 0.0\nsamples = 3\nvalue = [5, 0, 0, 0, 0]\nclass = 1", fillcolor="#e58139"] ;
207 -> 209 ;
210 [label="gini = 0.0\nsamples = 3\nvalue = [0, 4, 0, 0, 0]\nclass = 2", fillcolor="#7be539"] ;
206 -> 210 ;
211 [label="G2 <= 13.500000000000002\ngini = 0.21874999999999997\nsamples = 4\nvalue = [7, 1, 0, 0, 0]\nclass = 1", fillcolor="#e99355"] ;
205 -> 211 ;
212 [label="Fedu <= 3.0\ngini = 0.4444444444444444\nsamples = 2\nvalue = [2, 1, 0, 0, 0]\nclass = 1", fillcolor="#f2c09c"] ;
211 -> 212 ;
213 [label="gini = 0.0\nsamples = 1\nvalue = [2, 0, 0, 0, 0]\nclass = 1", fillcolor="#e58139"] ;
212 -> 213 ;
214 [label="gini = 0.0\nsamples = 1\nvalue = [0, 1, 0, 0, 0]\nclass = 2", fillcolor="#7be539"] ;
212 -> 214 ;
215 [label="gini = 0.0\nsamples = 2\nvalue = [5, 0, 0, 0, 0]\nclass = 1", fillcolor="#e58139"] ;
211 -> 215 ;
216 [label="gini = 0.0\nsamples = 2\nvalue = [0, 2, 0, 0, 0]\nclass = 2", fillcolor="#7be539"] ;
204 -> 216 ;
217 [label="school <= 0.5\ngini = 0.19753086419753085\nsamples = 6\nvalue = [0, 8, 1, 0, 0]\nclass = 2", fillcolor="#8ce852"] ;
203 -> 217 ;
218 [label="gini = 0.0\nsamples = 1\nvalue = [0, 2, 0, 0, 0]\nclass = 2", fillcolor="#7be539"] ;
217 -> 218 ;
219 [label="absences <= 5.0\ngini = 0.24489795918367355\nsamples = 5\nvalue = [0, 6, 1, 0, 0]\nclass = 2", fillcolor="#91e95a"] ;
217 -> 219 ;
220 [label="gini = 0.0\nsamples = 4\nvalue = [0, 6, 0, 0, 0]\nclass = 2", fillcolor="#7be539"] ;
219 -> 220 ;
221 [label="gini = 0.0\nsamples = 1\nvalue = [0, 0, 1, 0, 0]\nclass = 3", fillcolor="#39e5c5"] ;
219 -> 221 ;
222 [label="G1 <= 16.5\ngini = 0.11072664359861595\nsamples = 9\nvalue = [16, 1, 0, 0, 0]\nclass = 1", fillcolor="#e78945"] ;
200 -> 222 ;
223 [label="gini = 0.0\nsamples = 6\nvalue = [13, 0, 0, 0, 0]\nclass = 1", fillcolor="#e58139"] ;
222 -> 223 ;
224 [label="G1 <= 17.5\ngini = 0.375\nsamples = 3\nvalue = [3, 1, 0, 0, 0]\nclass = 1", fillcolor="#eeab7b"] ;
222 -> 224 ;
225 [label="Fedu <= 2.5\ngini = 0.5\nsamples = 2\nvalue = [1, 1, 0, 0, 0]\nclass = 1", fillcolor="#ffffff"] ;
224 -> 225 ;
226 [label="gini = 0.0\nsamples = 1\nvalue = [1, 0, 0, 0, 0]\nclass = 1", fillcolor="#e58139"] ;
225 -> 226 ;
227 [label="gini = 0.0\nsamples = 1\nvalue = [0, 1, 0, 0, 0]\nclass = 2", fillcolor="#7be539"] ;
225 -> 227 ;
228 [label="gini = 0.0\nsamples = 1\nvalue = [2, 0, 0, 0, 0]\nclass = 1", fillcolor="#e58139"] ;
224 -> 228 ;
229 [label="traveltime <= 1.5\ngini = 0.7146814404432134\nsamples = 12\nvalue = [3, 8, 1, 5, 2]\nclass = 2", fillcolor="#e3f9d5"] ;
197 -> 229 ;
230 [label="health <= 2.5\ngini = 0.65625\nsamples = 5\nvalue = [3, 3, 0, 0, 2]\nclass = 1", fillcolor="#ffffff"] ;
229 -> 230 ;
231 [label="gini = 0.0\nsamples = 2\nvalue = [3, 0, 0, 0, 0]\nclass = 1", fillcolor="#e58139"] ;
230 -> 231 ;
232 [label="G2 <= 10.5\ngini = 0.48\nsamples = 3\nvalue = [0, 3, 0, 0, 2]\nclass = 2", fillcolor="#d3f6bd"] ;
230 -> 232 ;
233 [label="gini = 0.0\nsamples = 1\nvalue = [0, 0, 0, 0, 2]\nclass = 5", fillcolor="#e539c0"] ;
232 -> 233 ;
234 [label="gini = 0.0\nsamples = 2\nvalue = [0, 3, 0, 0, 0]\nclass = 2", fillcolor="#7be539"] ;
232 -> 234 ;
235 [label="goout <= 3.4999999999999996\ngini = 0.578512396694215\nsamples = 7\nvalue = [0, 5, 1, 5, 0]\nclass = 2", fillcolor="#ffffff"] ;
229 -> 235 ;
236 [label="famrel <= 4.5\ngini = 0.2777777777777778\nsamples = 4\nvalue = [0, 5, 1, 0, 0]\nclass = 2", fillcolor="#95ea61"] ;
235 -> 236 ;
237 [label="gini = 0.0\nsamples = 2\nvalue = [0, 3, 0, 0, 0]\nclass = 2", fillcolor="#7be539"] ;
236 -> 237 ;
238 [label="traveltime <= 3.4999999999999996\ngini = 0.4444444444444444\nsamples = 2\nvalue = [0, 2, 1, 0, 0]\nclass = 2", fillcolor="#bdf29c"] ;
236 -> 238 ;
239 [label="gini = 0.0\nsamples = 1\nvalue = [0, 0, 1, 0, 0]\nclass = 3", fillcolor="#39e5c5"] ;
238 -> 239 ;
240 [label="gini = 0.0\nsamples = 1\nvalue = [0, 2, 0, 0, 0]\nclass = 2", fillcolor="#7be539"] ;
238 -> 240 ;
241 [label="gini = 0.0\nsamples = 3\nvalue = [0, 0, 0, 5, 0]\nclass = 4", fillcolor="#3c39e5"] ;
235 -> 241 ;
242 [label="G2 <= 17.5\ngini = 0.4993141289437586\nsamples = 15\nvalue = [5, 18, 4, 0, 0]\nclass = 2", fillcolor="#b1f08a"] ;
194 -> 242 ;
243 [label="age <= 15.5\ngini = 0.43520000000000003\nsamples = 14\nvalue = [5, 18, 2, 0, 0]\nclass = 2", fillcolor="#a9ee7e"] ;
242 -> 243 ;
244 [label="Fedu <= 2.5\ngini = 0.375\nsamples = 3\nvalue = [3, 0, 1, 0, 0]\nclass = 1", fillcolor="#eeab7b"] ;
243 -> 244 ;
245 [label="gini = 0.0\nsamples = 1\nvalue = [2, 0, 0, 0, 0]\nclass = 1", fillcolor="#e58139"] ;
244 -> 245 ;
246 [label="goout <= 1.5\ngini = 0.5\nsamples = 2\nvalue = [1, 0, 1, 0, 0]\nclass = 1", fillcolor="#ffffff"] ;
244 -> 246 ;
247 [label="gini = 0.0\nsamples = 1\nvalue = [0, 0, 1, 0, 0]\nclass = 3", fillcolor="#39e5c5"] ;
246 -> 247 ;
248 [label="gini = 0.0\nsamples = 1\nvalue = [1, 0, 0, 0, 0]\nclass = 1", fillcolor="#e58139"] ;
246 -> 248 ;
249 [label="goout <= 3.4999999999999996\ngini = 0.25396825396825395\nsamples = 11\nvalue = [2, 18, 1, 0, 0]\nclass = 2", fillcolor="#90e958"] ;
243 -> 249 ;
250 [label="Medu <= 3.4999999999999996\ngini = 0.18000000000000005\nsamples = 10\nvalue = [2, 18, 0, 0, 0]\nclass = 2", fillcolor="#8ae84f"] ;
249 -> 250 ;
251 [label="gini = 0.0\nsamples = 6\nvalue = [0, 13, 0, 0, 0]\nclass = 2", fillcolor="#7be539"] ;
250 -> 251 ;
252 [label="absences <= 3.0\ngini = 0.40816326530612246\nsamples = 4\nvalue = [2, 5, 0, 0, 0]\nclass = 2", fillcolor="#b0ef88"] ;
250 -> 252 ;
253 [label="gini = 0.0\nsamples = 1\nvalue = [2, 0, 0, 0, 0]\nclass = 1", fillcolor="#e58139"] ;
252 -> 253 ;
254 [label="gini = 0.0\nsamples = 3\nvalue = [0, 5, 0, 0, 0]\nclass = 2", fillcolor="#7be539"] ;
252 -> 254 ;
255 [label="gini = 0.0\nsamples = 1\nvalue = [0, 0, 1, 0, 0]\nclass = 3", fillcolor="#39e5c5"] ;
249 -> 255 ;
256 [label="gini = 0.0\nsamples = 1\nvalue = [0, 0, 2, 0, 0]\nclass = 3", fillcolor="#39e5c5"] ;
242 -> 256 ;
257 [label="famrel <= 1.5\ngini = 0.7048611111111112\nsamples = 246\nvalue = [172, 78, 78, 38, 18]\nclass = 1", fillcolor="#f7d8c2"] ;
193 -> 257 ;
258 [label="address <= 0.5\ngini = 0.6745562130177515\nsamples = 8\nvalue = [3, 3, 1, 0, 6]\nclass = 5", fillcolor="#f7c4ec"] ;
257 -> 258 ;
259 [label="Medu <= 1.5\ngini = 0.7160493827160495\nsamples = 6\nvalue = [3, 3, 1, 0, 2]\nclass = 1", fillcolor="#ffffff"] ;
258 -> 259 ;
260 [label="goout <= 3.4999999999999996\ngini = 0.375\nsamples = 2\nvalue = [0, 3, 1, 0, 0]\nclass = 2", fillcolor="#a7ee7b"] ;
259 -> 260 ;
261 [label="gini = 0.0\nsamples = 1\nvalue = [0, 3, 0, 0, 0]\nclass = 2", fillcolor="#7be539"] ;
260 -> 261 ;
262 [label="gini = 0.0\nsamples = 1\nvalue = [0, 0, 1, 0, 0]\nclass = 3", fillcolor="#39e5c5"] ;
260 -> 262 ;
263 [label="age <= 15.5\ngini = 0.48\nsamples = 4\nvalue = [3, 0, 0, 0, 2]\nclass = 1", fillcolor="#f6d5bd"] ;
259 -> 263 ;
264 [label="gini = 0.0\nsamples = 2\nvalue = [0, 0, 0, 0, 2]\nclass = 5", fillcolor="#e539c0"] ;
263 -> 264 ;
265 [label="gini = 0.0\nsamples = 2\nvalue = [3, 0, 0, 0, 0]\nclass = 1", fillcolor="#e58139"] ;
263 -> 265 ;
266 [label="gini = 0.0\nsamples = 2\nvalue = [0, 0, 0, 0, 4]\nclass = 5", fillcolor="#e539c0"] ;
258 -> 266 ;
267 [label="age <= 16.5\ngini = 0.6970161507109074\nsamples = 238\nvalue = [169, 75, 77, 38, 12]\nclass = 1", fillcolor="#f7d8c1"] ;
257 -> 267 ;
268 [label="romantic <= 0.5\ngini = 0.6158088235294117\nsamples = 83\nvalue = [76, 31, 17, 8, 4]\nclass = 1", fillcolor="#f4c9aa"] ;
267 -> 268 ;
269 [label="goout <= 4.5\ngini = 0.6655815972222222\nsamples = 59\nvalue = [46, 27, 14, 5, 4]\nclass = 1", fillcolor="#f8dcc8"] ;
268 -> 269 ;
270 [label="Medu <= 3.4999999999999996\ngini = 0.6462476411670779\nsamples = 53\nvalue = [40, 25, 14, 4, 0]\nclass = 1", fillcolor="#f8decc"] ;
269 -> 270 ;
271 [label="traveltime <= 1.5\ngini = 0.5986394557823129\nsamples = 27\nvalue = [24, 10, 4, 4, 0]\nclass = 1", fillcolor="#f4c8a8"] ;
270 -> 271 ;
272 [label="studytime <= 3.4999999999999996\ngini = 0.4131944444444445\nsamples = 15\nvalue = [17, 7, 0, 0, 0]\nclass = 1", fillcolor="#f0b58b"] ;
271 -> 272 ;
273 [label="absences <= 12.0\ngini = 0.255\nsamples = 14\nvalue = [17, 3, 0, 0, 0]\nclass = 1", fillcolor="#ea975c"] ;
272 -> 273 ;
274 [label="goout <= 2.5\ngini = 0.18836565096952906\nsamples = 13\nvalue = [17, 2, 0, 0, 0]\nclass = 1", fillcolor="#e89050"] ;
273 -> 274 ;
275 [label="age <= 15.5\ngini = 0.345679012345679\nsamples = 6\nvalue = [7, 2, 0, 0, 0]\nclass = 1", fillcolor="#eca572"] ;
274 -> 275 ;
276 [label="gini = 0.0\nsamples = 5\nvalue = [7, 0, 0, 0, 0]\nclass = 1", fillcolor="#e58139"] ;
275 -> 276 ;
277 [label="gini = 0.0\nsamples = 1\nvalue = [0, 2, 0, 0, 0]\nclass = 2", fillcolor="#7be539"] ;
275 -> 277 ;
278 [label="gini = 0.0\nsamples = 7\nvalue = [10, 0, 0, 0, 0]\nclass = 1", fillcolor="#e58139"] ;
274 -> 278 ;
279 [label="gini = 0.0\nsamples = 1\nvalue = [0, 1, 0, 0, 0]\nclass = 2", fillcolor="#7be539"] ;
273 -> 279 ;
280 [label="gini = 0.0\nsamples = 1\nvalue = [0, 4, 0, 0, 0]\nclass = 2", fillcolor="#7be539"] ;
272 -> 280 ;
281 [label="health <= 2.5\ngini = 0.7222222222222222\nsamples = 12\nvalue = [7, 3, 4, 4, 0]\nclass = 1", fillcolor="#f9e4d5"] ;
271 -> 281 ;
282 [label="gini = 0.0\nsamples = 2\nvalue = [3, 0, 0, 0, 0]\nclass = 1", fillcolor="#e58139"] ;
281 -> 282 ;
283 [label="health <= 4.5\ngini = 0.7466666666666666\nsamples = 10\nvalue = [4, 3, 4, 4, 0]\nclass = 1", fillcolor="#ffffff"] ;
281 -> 283 ;
284 [label="famsize <= 0.5\ngini = 0.375\nsamples = 4\nvalue = [1, 0, 3, 0, 0]\nclass = 3", fillcolor="#7beed8"] ;
283 -> 284 ;
285 [label="gini = 0.0\nsamples = 3\nvalue = [0, 0, 3, 0, 0]\nclass = 3", fillcolor="#39e5c5"] ;
284 -> 285 ;
286 [label="gini = 0.0\nsamples = 1\nvalue = [1, 0, 0, 0, 0]\nclass = 1", fillcolor="#e58139"] ;
284 -> 286 ;
287 [label="internet <= 0.5\ngini = 0.7107438016528926\nsamples = 6\nvalue = [3, 3, 1, 4, 0]\nclass = 4", fillcolor="#e7e6fc"] ;
283 -> 287 ;
288 [label="gini = 0.0\nsamples = 1\nvalue = [0, 3, 0, 0, 0]\nclass = 2", fillcolor="#7be539"] ;
287 -> 288 ;
289 [label="nursery <= 0.5\ngini = 0.59375\nsamples = 5\nvalue = [3, 0, 1, 4, 0]\nclass = 4", fillcolor="#d8d7fa"] ;
287 -> 289 ;
290 [label="gini = 0.0\nsamples = 1\nvalue = [0, 0, 0, 2, 0]\nclass = 4", fillcolor="#3c39e5"] ;
289 -> 290 ;
291 [label="address <= 0.5\ngini = 0.6111111111111112\nsamples = 4\nvalue = [3, 0, 1, 2, 0]\nclass = 1", fillcolor="#f8e0ce"] ;
289 -> 291 ;
292 [label="G2 <= 11.0\ngini = 0.64\nsamples = 3\nvalue = [2, 0, 1, 2, 0]\nclass = 1", fillcolor="#ffffff"] ;
291 -> 292 ;
293 [label="G2 <= 8.5\ngini = 0.4444444444444444\nsamples = 2\nvalue = [2, 0, 1, 0, 0]\nclass = 1", fillcolor="#f2c09c"] ;
292 -> 293 ;
294 [label="gini = 0.0\nsamples = 1\nvalue = [0, 0, 1, 0, 0]\nclass = 3", fillcolor="#39e5c5"] ;
293 -> 294 ;
295 [label="gini = 0.0\nsamples = 1\nvalue = [2, 0, 0, 0, 0]\nclass = 1", fillcolor="#e58139"] ;
293 -> 295 ;
296 [label="gini = 0.0\nsamples = 1\nvalue = [0, 0, 0, 2, 0]\nclass = 4", fillcolor="#3c39e5"] ;
292 -> 296 ;
297 [label="gini = 0.0\nsamples = 1\nvalue = [1, 0, 0, 0, 0]\nclass = 1", fillcolor="#e58139"] ;
291 -> 297 ;
298 [label="absences <= 3.0\ngini = 0.6543723973825104\nsamples = 26\nvalue = [16, 15, 10, 0, 0]\nclass = 1", fillcolor="#fefaf7"] ;
270 -> 298 ;
299 [label="G3 <= 12.0\ngini = 0.5816186556927297\nsamples = 17\nvalue = [15, 8, 4, 0, 0]\nclass = 1", fillcolor="#f5d1b6"] ;
298 -> 299 ;
300 [label="G1 <= 10.5\ngini = 0.31999999999999995\nsamples = 4\nvalue = [1, 4, 0, 0, 0]\nclass = 2", fillcolor="#9cec6a"] ;
299 -> 300 ;
301 [label="gini = 0.0\nsamples = 2\nvalue = [0, 2, 0, 0, 0]\nclass = 2", fillcolor="#7be539"] ;
300 -> 301 ;
302 [label="famsize <= 0.5\ngini = 0.4444444444444444\nsamples = 2\nvalue = [1, 2, 0, 0, 0]\nclass = 2", fillcolor="#bdf29c"] ;
300 -> 302 ;
303 [label="gini = 0.0\nsamples = 1\nvalue = [0, 2, 0, 0, 0]\nclass = 2", fillcolor="#7be539"] ;
302 -> 303 ;
304 [label="gini = 0.0\nsamples = 1\nvalue = [1, 0, 0, 0, 0]\nclass = 1", fillcolor="#e58139"] ;
302 -> 304 ;
305 [label="Pstatus <= 0.5\ngini = 0.5289256198347108\nsamples = 13\nvalue = [14, 4, 4, 0, 0]\nclass = 1", fillcolor="#f1b991"] ;
299 -> 305 ;
306 [label="goout <= 3.4999999999999996\ngini = 0.625\nsamples = 11\nvalue = [8, 4, 4, 0, 0]\nclass = 1", fillcolor="#f6d5bd"] ;
305 -> 306 ;
307 [label="age <= 15.5\ngini = 0.4297520661157025\nsamples = 8\nvalue = [8, 1, 2, 0, 0]\nclass = 1", fillcolor="#eeab7b"] ;
306 -> 307 ;
308 [label="gini = 0.0\nsamples = 4\nvalue = [6, 0, 0, 0, 0]\nclass = 1", fillcolor="#e58139"] ;
307 -> 308 ;
309 [label="sex <= 0.5\ngini = 0.64\nsamples = 4\nvalue = [2, 1, 2, 0, 0]\nclass = 1", fillcolor="#ffffff"] ;
307 -> 309 ;
310 [label="G2 <= 14.499999999999998\ngini = 0.4444444444444444\nsamples = 2\nvalue = [2, 1, 0, 0, 0]\nclass = 1", fillcolor="#f2c09c"] ;
309 -> 310 ;
311 [label="gini = 0.0\nsamples = 1\nvalue = [2, 0, 0, 0, 0]\nclass = 1", fillcolor="#e58139"] ;
310 -> 311 ;
312 [label="gini = 0.0\nsamples = 1\nvalue = [0, 1, 0, 0, 0]\nclass = 2", fillcolor="#7be539"] ;
310 -> 312 ;
313 [label="gini = 0.0\nsamples = 2\nvalue = [0, 0, 2, 0, 0]\nclass = 3", fillcolor="#39e5c5"] ;
309 -> 313 ;
314 [label="internet <= 0.5\ngini = 0.48\nsamples = 3\nvalue = [0, 3, 2, 0, 0]\nclass = 2", fillcolor="#d3f6bd"] ;
306 -> 314 ;
315 [label="gini = 0.0\nsamples = 1\nvalue = [0, 0, 2, 0, 0]\nclass = 3", fillcolor="#39e5c5"] ;
314 -> 315 ;
316 [label="gini = 0.0\nsamples = 2\nvalue = [0, 3, 0, 0, 0]\nclass = 2", fillcolor="#7be539"] ;
314 -> 316 ;
317 [label="gini = 0.0\nsamples = 2\nvalue = [6, 0, 0, 0, 0]\nclass = 1", fillcolor="#e58139"] ;
305 -> 317 ;
318 [label="absences <= 6.5\ngini = 0.5612244897959184\nsamples = 9\nvalue = [1, 7, 6, 0, 0]\nclass = 2", fillcolor="#eefce6"] ;
298 -> 318 ;
319 [label="health <= 4.0\ngini = 0.4444444444444444\nsamples = 6\nvalue = [0, 3, 6, 0, 0]\nclass = 3", fillcolor="#9cf2e2"] ;
318 -> 319 ;
320 [label="gini = 0.0\nsamples = 4\nvalue = [0, 0, 5, 0, 0]\nclass = 3", fillcolor="#39e5c5"] ;
319 -> 320 ;
321 [label="activities <= 0.5\ngini = 0.375\nsamples = 2\nvalue = [0, 3, 1, 0, 0]\nclass = 2", fillcolor="#a7ee7b"] ;
319 -> 321 ;
322 [label="gini = 0.0\nsamples = 1\nvalue = [0, 3, 0, 0, 0]\nclass = 2", fillcolor="#7be539"] ;
321 -> 322 ;
323 [label="gini = 0.0\nsamples = 1\nvalue = [0, 0, 1, 0, 0]\nclass = 3", fillcolor="#39e5c5"] ;
321 -> 323 ;
324 [label="studytime <= 3.0\ngini = 0.31999999999999995\nsamples = 3\nvalue = [1, 4, 0, 0, 0]\nclass = 2", fillcolor="#9cec6a"] ;
318 -> 324 ;
325 [label="gini = 0.0\nsamples = 2\nvalue = [0, 4, 0, 0, 0]\nclass = 2", fillcolor="#7be539"] ;
324 -> 325 ;
326 [label="gini = 0.0\nsamples = 1\nvalue = [1, 0, 0, 0, 0]\nclass = 1", fillcolor="#e58139"] ;
324 -> 326 ;
327 [label="traveltime <= 1.5\ngini = 0.6627218934911243\nsamples = 6\nvalue = [6, 2, 0, 1, 4]\nclass = 1", fillcolor="#f9e3d3"] ;
269 -> 327 ;
328 [label="activities <= 0.5\ngini = 0.31999999999999995\nsamples = 2\nvalue = [0, 0, 0, 1, 4]\nclass = 5", fillcolor="#ec6ad0"] ;
327 -> 328 ;
329 [label="gini = 0.0\nsamples = 1\nvalue = [0, 0, 0, 1, 0]\nclass = 4", fillcolor="#3c39e5"] ;
328 -> 329 ;
330 [label="gini = 0.0\nsamples = 1\nvalue = [0, 0, 0, 0, 4]\nclass = 5", fillcolor="#e539c0"] ;
328 -> 330 ;
331 [label="G1 <= 11.0\ngini = 0.375\nsamples = 4\nvalue = [6, 2, 0, 0, 0]\nclass = 1", fillcolor="#eeab7b"] ;
327 -> 331 ;
332 [label="absences <= 2.5\ngini = 0.4444444444444444\nsamples = 2\nvalue = [1, 2, 0, 0, 0]\nclass = 2", fillcolor="#bdf29c"] ;
331 -> 332 ;
333 [label="gini = 0.0\nsamples = 1\nvalue = [0, 2, 0, 0, 0]\nclass = 2", fillcolor="#7be539"] ;
332 -> 333 ;
334 [label="gini = 0.0\nsamples = 1\nvalue = [1, 0, 0, 0, 0]\nclass = 1", fillcolor="#e58139"] ;
332 -> 334 ;
335 [label="gini = 0.0\nsamples = 2\nvalue = [5, 0, 0, 0, 0]\nclass = 1", fillcolor="#e58139"] ;
331 -> 335 ;
336 [label="G3 <= 13.500000000000002\ngini = 0.41625000000000006\nsamples = 24\nvalue = [30, 4, 3, 3, 0]\nclass = 1", fillcolor="#eca470"] ;
268 -> 336 ;
337 [label="activities <= 0.5\ngini = 0.5710059171597632\nsamples = 16\nvalue = [16, 4, 3, 3, 0]\nclass = 1", fillcolor="#f1ba93"] ;
336 -> 337 ;
338 [label="studytime <= 2.5\ngini = 0.7083333333333333\nsamples = 7\nvalue = [5, 2, 3, 2, 0]\nclass = 1", fillcolor="#f9e3d3"] ;
337 -> 338 ;
339 [label="Medu <= 3.4999999999999996\ngini = 0.40816326530612246\nsamples = 4\nvalue = [5, 0, 2, 0, 0]\nclass = 1", fillcolor="#efb388"] ;
338 -> 339 ;
340 [label="gini = 0.0\nsamples = 3\nvalue = [5, 0, 0, 0, 0]\nclass = 1", fillcolor="#e58139"] ;
339 -> 340 ;
341 [label="gini = 0.0\nsamples = 1\nvalue = [0, 0, 2, 0, 0]\nclass = 3", fillcolor="#39e5c5"] ;
339 -> 341 ;
342 [label="G1 <= 10.5\ngini = 0.64\nsamples = 3\nvalue = [0, 2, 1, 2, 0]\nclass = 2", fillcolor="#ffffff"] ;
338 -> 342 ;
343 [label="health <= 4.5\ngini = 0.4444444444444444\nsamples = 2\nvalue = [0, 0, 1, 2, 0]\nclass = 4", fillcolor="#9e9cf2"] ;
342 -> 343 ;
344 [label="gini = 0.0\nsamples = 1\nvalue = [0, 0, 1, 0, 0]\nclass = 3", fillcolor="#39e5c5"] ;
343 -> 344 ;
345 [label="gini = 0.0\nsamples = 1\nvalue = [0, 0, 0, 2, 0]\nclass = 4", fillcolor="#3c39e5"] ;
343 -> 345 ;
346 [label="gini = 0.0\nsamples = 1\nvalue = [0, 2, 0, 0, 0]\nclass = 2", fillcolor="#7be539"] ;
342 -> 346 ;
347 [label="freetime <= 3.4999999999999996\ngini = 0.3571428571428571\nsamples = 9\nvalue = [11, 2, 0, 1, 0]\nclass = 1", fillcolor="#eca06b"] ;
337 -> 347 ;
348 [label="Pstatus <= 0.5\ngini = 0.5\nsamples = 3\nvalue = [2, 2, 0, 0, 0]\nclass = 1", fillcolor="#ffffff"] ;
347 -> 348 ;
349 [label="gini = 0.0\nsamples = 1\nvalue = [1, 0, 0, 0, 0]\nclass = 1", fillcolor="#e58139"] ;
348 -> 349 ;
350 [label="health <= 3.4999999999999996\ngini = 0.4444444444444444\nsamples = 2\nvalue = [1, 2, 0, 0, 0]\nclass = 2", fillcolor="#bdf29c"] ;
348 -> 350 ;
351 [label="gini = 0.0\nsamples = 1\nvalue = [1, 0, 0, 0, 0]\nclass = 1", fillcolor="#e58139"] ;
350 -> 351 ;
352 [label="gini = 0.0\nsamples = 1\nvalue = [0, 2, 0, 0, 0]\nclass = 2", fillcolor="#7be539"] ;
350 -> 352 ;
353 [label="studytime <= 2.5\ngini = 0.18000000000000005\nsamples = 6\nvalue = [9, 0, 0, 1, 0]\nclass = 1", fillcolor="#e88f4f"] ;
347 -> 353 ;
354 [label="famsup <= 0.5\ngini = 0.24489795918367355\nsamples = 5\nvalue = [6, 0, 0, 1, 0]\nclass = 1", fillcolor="#e9965a"] ;
353 -> 354 ;
355 [label="gini = 0.0\nsamples = 3\nvalue = [5, 0, 0, 0, 0]\nclass = 1", fillcolor="#e58139"] ;
354 -> 355 ;
356 [label="Fedu <= 1.5\ngini = 0.5\nsamples = 2\nvalue = [1, 0, 0, 1, 0]\nclass = 1", fillcolor="#ffffff"] ;
354 -> 356 ;
357 [label="gini = 0.0\nsamples = 1\nvalue = [0, 0, 0, 1, 0]\nclass = 4", fillcolor="#3c39e5"] ;
356 -> 357 ;
358 [label="gini = 0.0\nsamples = 1\nvalue = [1, 0, 0, 0, 0]\nclass = 1", fillcolor="#e58139"] ;
356 -> 358 ;
359 [label="gini = 0.0\nsamples = 1\nvalue = [3, 0, 0, 0, 0]\nclass = 1", fillcolor="#e58139"] ;
353 -> 359 ;
360 [label="gini = 0.0\nsamples = 8\nvalue = [14, 0, 0, 0, 0]\nclass = 1", fillcolor="#e58139"] ;
336 -> 360 ;
361 [label="health <= 4.5\ngini = 0.725685830692621\nsamples = 155\nvalue = [93, 44, 60, 30, 8]\nclass = 1", fillcolor="#fae7da"] ;
267 -> 361 ;
362 [label="freetime <= 4.5\ngini = 0.6984681737061273\nsamples = 111\nvalue = [72, 34, 40, 11, 7]\nclass = 1", fillcolor="#f8decc"] ;
361 -> 362 ;
363 [label="internet <= 0.5\ngini = 0.6767686245074123\nsamples = 97\nvalue = [70, 29, 32, 10, 5]\nclass = 1", fillcolor="#f6d5bd"] ;
362 -> 363 ;
364 [label="paid <= 0.5\ngini = 0.49905482041587906\nsamples = 14\nvalue = [15, 0, 6, 2, 0]\nclass = 1", fillcolor="#f1bc96"] ;
363 -> 364 ;
365 [label="nursery <= 0.5\ngini = 0.2076124567474048\nsamples = 11\nvalue = [15, 0, 2, 0, 0]\nclass = 1", fillcolor="#e89253"] ;
364 -> 365 ;
366 [label="health <= 2.0\ngini = 0.48\nsamples = 4\nvalue = [3, 0, 2, 0, 0]\nclass = 1", fillcolor="#f6d5bd"] ;
365 -> 366 ;
367 [label="gini = 0.0\nsamples = 1\nvalue = [0, 0, 1, 0, 0]\nclass = 3", fillcolor="#39e5c5"] ;
366 -> 367 ;
368 [label="freetime <= 3.4999999999999996\ngini = 0.375\nsamples = 3\nvalue = [3, 0, 1, 0, 0]\nclass = 1", fillcolor="#eeab7b"] ;
366 -> 368 ;
369 [label="gini = 0.0\nsamples = 1\nvalue = [1, 0, 0, 0, 0]\nclass = 1", fillcolor="#e58139"] ;
368 -> 369 ;
370 [label="traveltime <= 1.5\ngini = 0.4444444444444444\nsamples = 2\nvalue = [2, 0, 1, 0, 0]\nclass = 1", fillcolor="#f2c09c"] ;
368 -> 370 ;
371 [label="gini = 0.0\nsamples = 1\nvalue = [0, 0, 1, 0, 0]\nclass = 3", fillcolor="#39e5c5"] ;
370 -> 371 ;
372 [label="gini = 0.0\nsamples = 1\nvalue = [2, 0, 0, 0, 0]\nclass = 1", fillcolor="#e58139"] ;
370 -> 372 ;
373 [label="gini = 0.0\nsamples = 7\nvalue = [12, 0, 0, 0, 0]\nclass = 1", fillcolor="#e58139"] ;
365 -> 373 ;
374 [label="traveltime <= 1.5\ngini = 0.4444444444444444\nsamples = 3\nvalue = [0, 0, 4, 2, 0]\nclass = 3", fillcolor="#9cf2e2"] ;
364 -> 374 ;
375 [label="gini = 0.0\nsamples = 1\nvalue = [0, 0, 2, 0, 0]\nclass = 3", fillcolor="#39e5c5"] ;
374 -> 375 ;
376 [label="goout <= 3.4999999999999996\ngini = 0.5\nsamples = 2\nvalue = [0, 0, 2, 2, 0]\nclass = 3", fillcolor="#ffffff"] ;
374 -> 376 ;
377 [label="gini = 0.0\nsamples = 1\nvalue = [0, 0, 2, 0, 0]\nclass = 3", fillcolor="#39e5c5"] ;
376 -> 377 ;
378 [label="gini = 0.0\nsamples = 1\nvalue = [0, 0, 0, 2, 0]\nclass = 4", fillcolor="#3c39e5"] ;
376 -> 378 ;
379 [label="traveltime <= 2.5\ngini = 0.6938991341132923\nsamples = 83\nvalue = [55, 29, 26, 8, 5]\nclass = 1", fillcolor="#f8dcc8"] ;
363 -> 379 ;
380 [label="G2 <= 6.5\ngini = 0.6873808346868159\nsamples = 80\nvalue = [55, 28, 23, 8, 5]\nclass = 1", fillcolor="#f7dac4"] ;
379 -> 380 ;
381 [label="Fedu <= 2.0\ngini = 0.375\nsamples = 3\nvalue = [1, 0, 0, 3, 0]\nclass = 4", fillcolor="#7d7bee"] ;
380 -> 381 ;
382 [label="gini = 0.0\nsamples = 1\nvalue = [1, 0, 0, 0, 0]\nclass = 1", fillcolor="#e58139"] ;
381 -> 382 ;
383 [label="gini = 0.0\nsamples = 2\nvalue = [0, 0, 0, 3, 0]\nclass = 4", fillcolor="#3c39e5"] ;
381 -> 383 ;
384 [label="G1 <= 14.499999999999998\ngini = 0.676446124763705\nsamples = 77\nvalue = [54, 28, 23, 5, 5]\nclass = 1", fillcolor="#f7d9c4"] ;
380 -> 384 ;
385 [label="Medu <= 2.5\ngini = 0.7012345679012346\nsamples = 61\nvalue = [37, 24, 21, 5, 3]\nclass = 1", fillcolor="#fae6d8"] ;
384 -> 385 ;
386 [label="famsup <= 0.5\ngini = 0.62375\nsamples = 29\nvalue = [21, 12, 3, 2, 2]\nclass = 1", fillcolor="#f7d6bf"] ;
385 -> 386 ;
387 [label="goout <= 4.0\ngini = 0.1652892561983471\nsamples = 8\nvalue = [10, 0, 0, 1, 0]\nclass = 1", fillcolor="#e88e4d"] ;
386 -> 387 ;
388 [label="gini = 0.0\nsamples = 6\nvalue = [9, 0, 0, 0, 0]\nclass = 1", fillcolor="#e58139"] ;
387 -> 388 ;
389 [label="G1 <= 11.5\ngini = 0.5\nsamples = 2\nvalue = [1, 0, 0, 1, 0]\nclass = 1", fillcolor="#ffffff"] ;
387 -> 389 ;
390 [label="gini = 0.0\nsamples = 1\nvalue = [0, 0, 0, 1, 0]\nclass = 4", fillcolor="#3c39e5"] ;
389 -> 390 ;
391 [label="gini = 0.0\nsamples = 1\nvalue = [1, 0, 0, 0, 0]\nclass = 1", fillcolor="#e58139"] ;
389 -> 391 ;
392 [label="Fedu <= 3.4999999999999996\ngini = 0.6682520808561236\nsamples = 21\nvalue = [11, 12, 3, 1, 2]\nclass = 2", fillcolor="#f8fef4"] ;
386 -> 392 ;
393 [label="G3 <= 16.0\ngini = 0.6715976331360947\nsamples = 19\nvalue = [8, 12, 3, 1, 2]\nclass = 2", fillcolor="#e2f9d3"] ;
392 -> 393 ;
394 [label="G3 <= 13.500000000000002\ngini = 0.6284722222222222\nsamples = 18\nvalue = [8, 12, 1, 1, 2]\nclass = 2", fillcolor="#def8ce"] ;
393 -> 394 ;
395 [label="goout <= 2.5\ngini = 0.6728395061728395\nsamples = 14\nvalue = [8, 6, 1, 1, 2]\nclass = 1", fillcolor="#fbeade"] ;
394 -> 395 ;
396 [label="gini = 0.0\nsamples = 3\nvalue = [0, 4, 0, 0, 0]\nclass = 2", fillcolor="#7be539"] ;
395 -> 396 ;
397 [label="absences <= 7.5\ngini = 0.6224489795918368\nsamples = 11\nvalue = [8, 2, 1, 1, 2]\nclass = 1", fillcolor="#f2c09c"] ;
395 -> 397 ;
398 [label="G2 <= 12.5\ngini = 0.4462809917355371\nsamples = 8\nvalue = [8, 1, 0, 1, 1]\nclass = 1", fillcolor="#eda774"] ;
397 -> 398 ;
399 [label="school <= 0.5\ngini = 0.33999999999999997\nsamples = 7\nvalue = [8, 1, 0, 1, 0]\nclass = 1", fillcolor="#eb9d65"] ;
398 -> 399 ;
400 [label="freetime <= 3.4999999999999996\ngini = 0.6666666666666667\nsamples = 3\nvalue = [1, 1, 0, 1, 0]\nclass = 1", fillcolor="#ffffff"] ;
399 -> 400 ;
401 [label="goout <= 4.0\ngini = 0.5\nsamples = 2\nvalue = [1, 1, 0, 0, 0]\nclass = 1", fillcolor="#ffffff"] ;
400 -> 401 ;
402 [label="gini = 0.0\nsamples = 1\nvalue = [1, 0, 0, 0, 0]\nclass = 1", fillcolor="#e58139"] ;
401 -> 402 ;
403 [label="gini = 0.0\nsamples = 1\nvalue = [0, 1, 0, 0, 0]\nclass = 2", fillcolor="#7be539"] ;
401 -> 403 ;
404 [label="gini = 0.0\nsamples = 1\nvalue = [0, 0, 0, 1, 0]\nclass = 4", fillcolor="#3c39e5"] ;
400 -> 404 ;
405 [label="gini = 0.0\nsamples = 4\nvalue = [7, 0, 0, 0, 0]\nclass = 1", fillcolor="#e58139"] ;
399 -> 405 ;
406 [label="gini = 0.0\nsamples = 1\nvalue = [0, 0, 0, 0, 1]\nclass = 5", fillcolor="#e539c0"] ;
398 -> 406 ;
407 [label="health <= 3.4999999999999996\ngini = 0.6666666666666667\nsamples = 3\nvalue = [0, 1, 1, 0, 1]\nclass = 2", fillcolor="#ffffff"] ;
397 -> 407 ;
408 [label="gini = 0.0\nsamples = 1\nvalue = [0, 0, 1, 0, 0]\nclass = 3", fillcolor="#39e5c5"] ;
407 -> 408 ;
409 [label="failures <= 2.5\ngini = 0.5\nsamples = 2\nvalue = [0, 1, 0, 0, 1]\nclass = 2", fillcolor="#ffffff"] ;
407 -> 409 ;
410 [label="gini = 0.0\nsamples = 1\nvalue = [0, 1, 0, 0, 0]\nclass = 2", fillcolor="#7be539"] ;
409 -> 410 ;
411 [label="gini = 0.0\nsamples = 1\nvalue = [0, 0, 0, 0, 1]\nclass = 5", fillcolor="#e539c0"] ;
409 -> 411 ;
412 [label="gini = 0.0\nsamples = 4\nvalue = [0, 6, 0, 0, 0]\nclass = 2", fillcolor="#7be539"] ;
394 -> 412 ;
413 [label="gini = 0.0\nsamples = 1\nvalue = [0, 0, 2, 0, 0]\nclass = 3", fillcolor="#39e5c5"] ;
393 -> 413 ;
414 [label="gini = 0.0\nsamples = 2\nvalue = [3, 0, 0, 0, 0]\nclass = 1", fillcolor="#e58139"] ;
392 -> 414 ;
415 [label="G1 <= 11.5\ngini = 0.7063999999999999\nsamples = 32\nvalue = [16, 12, 18, 3, 1]\nclass = 3", fillcolor="#f3fdfc"] ;
385 -> 415 ;
416 [label="absences <= 9.5\ngini = 0.6255144032921811\nsamples = 16\nvalue = [14, 3, 8, 2, 0]\nclass = 1", fillcolor="#f7d7c0"] ;
415 -> 416 ;
417 [label="famrel <= 3.4999999999999996\ngini = 0.5416666666666667\nsamples = 14\nvalue = [14, 0, 8, 2, 0]\nclass = 1", fillcolor="#f5d0b5"] ;
416 -> 417 ;
418 [label="gini = 0.0\nsamples = 2\nvalue = [0, 0, 3, 0, 0]\nclass = 3", fillcolor="#39e5c5"] ;
417 -> 418 ;
419 [label="G2 <= 7.5\ngini = 0.4897959183673469\nsamples = 12\nvalue = [14, 0, 5, 2, 0]\nclass = 1", fillcolor="#f0b890"] ;
417 -> 419 ;
420 [label="gini = 0.0\nsamples = 1\nvalue = [3, 0, 0, 0, 0]\nclass = 1", fillcolor="#e58139"] ;
419 -> 420 ;
421 [label="higher <= 0.5\ngini = 0.537037037037037\nsamples = 11\nvalue = [11, 0, 5, 2, 0]\nclass = 1", fillcolor="#f3c5a4"] ;
419 -> 421 ;
422 [label="gini = 0.0\nsamples = 1\nvalue = [0, 0, 2, 0, 0]\nclass = 3", fillcolor="#39e5c5"] ;
421 -> 422 ;
423 [label="Fedu <= 3.4999999999999996\ngini = 0.4765625\nsamples = 10\nvalue = [11, 0, 3, 2, 0]\nclass = 1", fillcolor="#efb185"] ;
421 -> 423 ;
424 [label="G3 <= 4.0\ngini = 0.42666666666666664\nsamples = 9\nvalue = [11, 0, 2, 2, 0]\nclass = 1", fillcolor="#eda876"] ;
423 -> 424 ;
425 [label="gini = 0.0\nsamples = 1\nvalue = [0, 0, 1, 0, 0]\nclass = 3", fillcolor="#39e5c5"] ;
424 -> 425 ;
426 [label="famsup <= 0.5\ngini = 0.3571428571428571\nsamples = 8\nvalue = [11, 0, 1, 2, 0]\nclass = 1", fillcolor="#eca06b"] ;
424 -> 426 ;
427 [label="G2 <= 8.5\ngini = 0.5\nsamples = 4\nvalue = [2, 0, 0, 2, 0]\nclass = 1", fillcolor="#ffffff"] ;
426 -> 427 ;
428 [label="gini = 0.0\nsamples = 1\nvalue = [1, 0, 0, 0, 0]\nclass = 1", fillcolor="#e58139"] ;
427 -> 428 ;
429 [label="nursery <= 0.5\ngini = 0.4444444444444444\nsamples = 3\nvalue = [1, 0, 0, 2, 0]\nclass = 4", fillcolor="#9e9cf2"] ;
427 -> 429 ;
430 [label="gini = 0.0\nsamples = 1\nvalue = [0, 0, 0, 1, 0]\nclass = 4", fillcolor="#3c39e5"] ;
429 -> 430 ;
431 [label="famsize <= 0.5\ngini = 0.5\nsamples = 2\nvalue = [1, 0, 0, 1, 0]\nclass = 1", fillcolor="#ffffff"] ;
429 -> 431 ;
432 [label="gini = 0.0\nsamples = 1\nvalue = [0, 0, 0, 1, 0]\nclass = 4", fillcolor="#3c39e5"] ;
431 -> 432 ;
433 [label="gini = 0.0\nsamples = 1\nvalue = [1, 0, 0, 0, 0]\nclass = 1", fillcolor="#e58139"] ;
431 -> 433 ;
434 [label="goout <= 2.5\ngini = 0.18000000000000005\nsamples = 4\nvalue = [9, 0, 1, 0, 0]\nclass = 1", fillcolor="#e88f4f"] ;
426 -> 434 ;
435 [label="gini = 0.0\nsamples = 2\nvalue = [6, 0, 0, 0, 0]\nclass = 1", fillcolor="#e58139"] ;
434 -> 435 ;
436 [label="romantic <= 0.5\ngini = 0.375\nsamples = 2\nvalue = [3, 0, 1, 0, 0]\nclass = 1", fillcolor="#eeab7b"] ;
434 -> 436 ;
437 [label="gini = 0.0\nsamples = 1\nvalue = [3, 0, 0, 0, 0]\nclass = 1", fillcolor="#e58139"] ;
436 -> 437 ;
438 [label="gini = 0.0\nsamples = 1\nvalue = [0, 0, 1, 0, 0]\nclass = 3", fillcolor="#39e5c5"] ;
436 -> 438 ;
439 [label="gini = 0.0\nsamples = 1\nvalue = [0, 0, 1, 0, 0]\nclass = 3", fillcolor="#39e5c5"] ;
423 -> 439 ;
440 [label="gini = 0.0\nsamples = 2\nvalue = [0, 3, 0, 0, 0]\nclass = 2", fillcolor="#7be539"] ;
416 -> 440 ;
441 [label="age <= 17.5\ngini = 0.6465028355387523\nsamples = 16\nvalue = [2, 9, 10, 1, 1]\nclass = 3", fillcolor="#f1fdfb"] ;
415 -> 441 ;
442 [label="goout <= 4.5\ngini = 0.33999999999999997\nsamples = 8\nvalue = [0, 1, 8, 0, 1]\nclass = 3", fillcolor="#65ebd2"] ;
441 -> 442 ;
443 [label="G3 <= 14.499999999999998\ngini = 0.19753086419753085\nsamples = 7\nvalue = [0, 1, 8, 0, 0]\nclass = 3", fillcolor="#52e8cc"] ;
442 -> 443 ;
444 [label="G2 <= 13.500000000000002\ngini = 0.31999999999999995\nsamples = 5\nvalue = [0, 1, 4, 0, 0]\nclass = 3", fillcolor="#6aecd4"] ;
443 -> 444 ;
445 [label="gini = 0.0\nsamples = 4\nvalue = [0, 0, 4, 0, 0]\nclass = 3", fillcolor="#39e5c5"] ;
444 -> 445 ;
446 [label="gini = 0.0\nsamples = 1\nvalue = [0, 1, 0, 0, 0]\nclass = 2", fillcolor="#7be539"] ;
444 -> 446 ;
447 [label="gini = 0.0\nsamples = 2\nvalue = [0, 0, 4, 0, 0]\nclass = 3", fillcolor="#39e5c5"] ;
443 -> 447 ;
448 [label="gini = 0.0\nsamples = 1\nvalue = [0, 0, 0, 0, 1]\nclass = 5", fillcolor="#e539c0"] ;
442 -> 448 ;
449 [label="health <= 1.5\ngini = 0.5680473372781065\nsamples = 8\nvalue = [2, 8, 2, 1, 0]\nclass = 2", fillcolor="#b7f193"] ;
441 -> 449 ;
450 [label="famsup <= 0.5\ngini = 0.4444444444444444\nsamples = 2\nvalue = [1, 0, 2, 0, 0]\nclass = 3", fillcolor="#9cf2e2"] ;
449 -> 450 ;
451 [label="gini = 0.0\nsamples = 1\nvalue = [0, 0, 2, 0, 0]\nclass = 3", fillcolor="#39e5c5"] ;
450 -> 451 ;
452 [label="gini = 0.0\nsamples = 1\nvalue = [1, 0, 0, 0, 0]\nclass = 1", fillcolor="#e58139"] ;
450 -> 452 ;
453 [label="absences <= 6.5\ngini = 0.33999999999999997\nsamples = 6\nvalue = [1, 8, 0, 1, 0]\nclass = 2", fillcolor="#98eb65"] ;
449 -> 453 ;
454 [label="G3 <= 13.500000000000002\ngini = 0.21874999999999997\nsamples = 4\nvalue = [0, 7, 0, 1, 0]\nclass = 2", fillcolor="#8ee955"] ;
453 -> 454 ;
455 [label="gini = 0.0\nsamples = 2\nvalue = [0, 5, 0, 0, 0]\nclass = 2", fillcolor="#7be539"] ;
454 -> 455 ;
456 [label="G3 <= 15.5\ngini = 0.4444444444444444\nsamples = 2\nvalue = [0, 2, 0, 1, 0]\nclass = 2", fillcolor="#bdf29c"] ;
454 -> 456 ;
457 [label="gini = 0.0\nsamples = 1\nvalue = [0, 0, 0, 1, 0]\nclass = 4", fillcolor="#3c39e5"] ;
456 -> 457 ;
458 [label="gini = 0.0\nsamples = 1\nvalue = [0, 2, 0, 0, 0]\nclass = 2", fillcolor="#7be539"] ;
456 -> 458 ;
459 [label="G1 <= 13.0\ngini = 0.5\nsamples = 2\nvalue = [1, 1, 0, 0, 0]\nclass = 1", fillcolor="#ffffff"] ;
453 -> 459 ;
460 [label="gini = 0.0\nsamples = 1\nvalue = [0, 1, 0, 0, 0]\nclass = 2", fillcolor="#7be539"] ;
459 -> 460 ;
461 [label="gini = 0.0\nsamples = 1\nvalue = [1, 0, 0, 0, 0]\nclass = 1", fillcolor="#e58139"] ;
459 -> 461 ;
462 [label="famsup <= 0.5\ngini = 0.49920000000000003\nsamples = 16\nvalue = [17, 4, 2, 0, 2]\nclass = 1", fillcolor="#efb184"] ;
384 -> 462 ;
463 [label="famsize <= 0.5\ngini = 0.7083333333333333\nsamples = 7\nvalue = [5, 3, 2, 0, 2]\nclass = 1", fillcolor="#f9e3d3"] ;
462 -> 463 ;
464 [label="activities <= 0.5\ngini = 0.40816326530612246\nsamples = 4\nvalue = [5, 0, 0, 0, 2]\nclass = 1", fillcolor="#efb388"] ;
463 -> 464 ;
465 [label="gini = 0.0\nsamples = 3\nvalue = [5, 0, 0, 0, 0]\nclass = 1", fillcolor="#e58139"] ;
464 -> 465 ;
466 [label="gini = 0.0\nsamples = 1\nvalue = [0, 0, 0, 0, 2]\nclass = 5", fillcolor="#e539c0"] ;
464 -> 466 ;
467 [label="famrel <= 4.5\ngini = 0.48\nsamples = 3\nvalue = [0, 3, 2, 0, 0]\nclass = 2", fillcolor="#d3f6bd"] ;
463 -> 467 ;
468 [label="gini = 0.0\nsamples = 1\nvalue = [0, 2, 0, 0, 0]\nclass = 2", fillcolor="#7be539"] ;
467 -> 468 ;
469 [label="goout <= 3.0\ngini = 0.4444444444444444\nsamples = 2\nvalue = [0, 1, 2, 0, 0]\nclass = 3", fillcolor="#9cf2e2"] ;
467 -> 469 ;
470 [label="gini = 0.0\nsamples = 1\nvalue = [0, 1, 0, 0, 0]\nclass = 2", fillcolor="#7be539"] ;
469 -> 470 ;
471 [label="gini = 0.0\nsamples = 1\nvalue = [0, 0, 2, 0, 0]\nclass = 3", fillcolor="#39e5c5"] ;
469 -> 471 ;
472 [label="studytime <= 2.5\ngini = 0.14201183431952658\nsamples = 9\nvalue = [12, 1, 0, 0, 0]\nclass = 1", fillcolor="#e78c49"] ;
462 -> 472 ;
473 [label="gini = 0.0\nsamples = 6\nvalue = [10, 0, 0, 0, 0]\nclass = 1", fillcolor="#e58139"] ;
472 -> 473 ;
474 [label="Fedu <= 2.5\ngini = 0.4444444444444444\nsamples = 3\nvalue = [2, 1, 0, 0, 0]\nclass = 1", fillcolor="#f2c09c"] ;
472 -> 474 ;
475 [label="romantic <= 0.5\ngini = 0.5\nsamples = 2\nvalue = [1, 1, 0, 0, 0]\nclass = 1", fillcolor="#ffffff"] ;
474 -> 475 ;
476 [label="gini = 0.0\nsamples = 1\nvalue = [0, 1, 0, 0, 0]\nclass = 2", fillcolor="#7be539"] ;
475 -> 476 ;
477 [label="gini = 0.0\nsamples = 1\nvalue = [1, 0, 0, 0, 0]\nclass = 1", fillcolor="#e58139"] ;
475 -> 477 ;
478 [label="gini = 0.0\nsamples = 1\nvalue = [1, 0, 0, 0, 0]\nclass = 1", fillcolor="#e58139"] ;
474 -> 478 ;
479 [label="freetime <= 3.4999999999999996\ngini = 0.375\nsamples = 3\nvalue = [0, 1, 3, 0, 0]\nclass = 3", fillcolor="#7beed8"] ;
379 -> 479 ;
480 [label="gini = 0.0\nsamples = 1\nvalue = [0, 1, 0, 0, 0]\nclass = 2", fillcolor="#7be539"] ;
479 -> 480 ;
481 [label="gini = 0.0\nsamples = 2\nvalue = [0, 0, 3, 0, 0]\nclass = 3", fillcolor="#39e5c5"] ;
479 -> 481 ;
482 [label="paid <= 0.5\ngini = 0.6975308641975309\nsamples = 14\nvalue = [2, 5, 8, 1, 2]\nclass = 3", fillcolor="#d1f9f2"] ;
362 -> 482 ;
483 [label="G1 <= 9.5\ngini = 0.7107438016528926\nsamples = 9\nvalue = [2, 5, 2, 1, 1]\nclass = 2", fillcolor="#d3f6bd"] ;
482 -> 483 ;
484 [label="Medu <= 2.5\ngini = 0.72\nsamples = 5\nvalue = [1, 0, 2, 1, 1]\nclass = 3", fillcolor="#cef8f0"] ;
483 -> 484 ;
485 [label="G1 <= 7.5\ngini = 0.5\nsamples = 2\nvalue = [0, 0, 0, 1, 1]\nclass = 4", fillcolor="#ffffff"] ;
484 -> 485 ;
486 [label="gini = 0.0\nsamples = 1\nvalue = [0, 0, 0, 0, 1]\nclass = 5", fillcolor="#e539c0"] ;
485 -> 486 ;
487 [label="gini = 0.0\nsamples = 1\nvalue = [0, 0, 0, 1, 0]\nclass = 4", fillcolor="#3c39e5"] ;
485 -> 487 ;
488 [label="address <= 0.5\ngini = 0.4444444444444444\nsamples = 3\nvalue = [1, 0, 2, 0, 0]\nclass = 3", fillcolor="#9cf2e2"] ;
484 -> 488 ;
489 [label="health <= 2.0\ngini = 0.5\nsamples = 2\nvalue = [1, 0, 1, 0, 0]\nclass = 1", fillcolor="#ffffff"] ;
488 -> 489 ;
490 [label="gini = 0.0\nsamples = 1\nvalue = [1, 0, 0, 0, 0]\nclass = 1", fillcolor="#e58139"] ;
489 -> 490 ;
491 [label="gini = 0.0\nsamples = 1\nvalue = [0, 0, 1, 0, 0]\nclass = 3", fillcolor="#39e5c5"] ;
489 -> 491 ;
492 [label="gini = 0.0\nsamples = 1\nvalue = [0, 0, 1, 0, 0]\nclass = 3", fillcolor="#39e5c5"] ;
488 -> 492 ;
493 [label="absences <= 1.0\ngini = 0.2777777777777778\nsamples = 4\nvalue = [1, 5, 0, 0, 0]\nclass = 2", fillcolor="#95ea61"] ;
483 -> 493 ;
494 [label="G3 <= 13.500000000000002\ngini = 0.5\nsamples = 2\nvalue = [1, 1, 0, 0, 0]\nclass = 1", fillcolor="#ffffff"] ;
493 -> 494 ;
495 [label="gini = 0.0\nsamples = 1\nvalue = [1, 0, 0, 0, 0]\nclass = 1", fillcolor="#e58139"] ;
494 -> 495 ;
496 [label="gini = 0.0\nsamples = 1\nvalue = [0, 1, 0, 0, 0]\nclass = 2", fillcolor="#7be539"] ;
494 -> 496 ;
497 [label="gini = 0.0\nsamples = 2\nvalue = [0, 4, 0, 0, 0]\nclass = 2", fillcolor="#7be539"] ;
493 -> 497 ;
498 [label="G1 <= 9.5\ngini = 0.24489795918367355\nsamples = 5\nvalue = [0, 0, 6, 0, 1]\nclass = 3", fillcolor="#5ae9cf"] ;
482 -> 498 ;
499 [label="gini = 0.0\nsamples = 1\nvalue = [0, 0, 0, 0, 1]\nclass = 5", fillcolor="#e539c0"] ;
498 -> 499 ;
500 [label="gini = 0.0\nsamples = 4\nvalue = [0, 0, 6, 0, 0]\nclass = 3", fillcolor="#39e5c5"] ;
498 -> 500 ;
501 [label="G3 <= 16.5\ngini = 0.7415195397738543\nsamples = 44\nvalue = [21, 10, 20, 19, 1]\nclass = 1", fillcolor="#fefdfb"] ;
361 -> 501 ;
502 [label="G2 <= 11.5\ngini = 0.7410468319559229\nsamples = 42\nvalue = [21, 10, 15, 19, 1]\nclass = 1", fillcolor="#fefaf7"] ;
501 -> 502 ;
503 [label="sex <= 0.5\ngini = 0.6980609418282548\nsamples = 25\nvalue = [9, 4, 7, 17, 1]\nclass = 4", fillcolor="#c9c8f8"] ;
502 -> 503 ;
504 [label="G2 <= 8.5\ngini = 0.643598615916955\nsamples = 12\nvalue = [9, 3, 2, 3, 0]\nclass = 1", fillcolor="#f4c9aa"] ;
503 -> 504 ;
505 [label="freetime <= 3.4999999999999996\ngini = 0.24489795918367355\nsamples = 6\nvalue = [6, 1, 0, 0, 0]\nclass = 1", fillcolor="#e9965a"] ;
504 -> 505 ;
506 [label="gini = 0.0\nsamples = 5\nvalue = [6, 0, 0, 0, 0]\nclass = 1", fillcolor="#e58139"] ;
505 -> 506 ;
507 [label="gini = 0.0\nsamples = 1\nvalue = [0, 1, 0, 0, 0]\nclass = 2", fillcolor="#7be539"] ;
505 -> 507 ;
508 [label="internet <= 0.5\ngini = 0.74\nsamples = 6\nvalue = [3, 2, 2, 3, 0]\nclass = 1", fillcolor="#ffffff"] ;
504 -> 508 ;
509 [label="absences <= 2.0\ngini = 0.4444444444444444\nsamples = 2\nvalue = [1, 2, 0, 0, 0]\nclass = 2", fillcolor="#bdf29c"] ;
508 -> 509 ;
510 [label="gini = 0.0\nsamples = 1\nvalue = [1, 0, 0, 0, 0]\nclass = 1", fillcolor="#e58139"] ;
509 -> 510 ;
511 [label="gini = 0.0\nsamples = 1\nvalue = [0, 2, 0, 0, 0]\nclass = 2", fillcolor="#7be539"] ;
509 -> 511 ;
512 [label="age <= 17.5\ngini = 0.653061224489796\nsamples = 4\nvalue = [2, 0, 2, 3, 0]\nclass = 4", fillcolor="#d8d7fa"] ;
508 -> 512 ;
513 [label="gini = 0.0\nsamples = 2\nvalue = [0, 0, 0, 3, 0]\nclass = 4", fillcolor="#3c39e5"] ;
512 -> 513 ;
514 [label="G3 <= 8.5\ngini = 0.5\nsamples = 2\nvalue = [2, 0, 2, 0, 0]\nclass = 1", fillcolor="#ffffff"] ;
512 -> 514 ;
515 [label="gini = 0.0\nsamples = 1\nvalue = [0, 0, 2, 0, 0]\nclass = 3", fillcolor="#39e5c5"] ;
514 -> 515 ;
516 [label="gini = 0.0\nsamples = 1\nvalue = [2, 0, 0, 0, 0]\nclass = 1", fillcolor="#e58139"] ;
514 -> 516 ;
517 [label="romantic <= 0.5\ngini = 0.4943310657596372\nsamples = 13\nvalue = [0, 1, 5, 14, 1]\nclass = 4", fillcolor="#9190f0"] ;
503 -> 517 ;
518 [label="gini = 0.0\nsamples = 7\nvalue = [0, 0, 0, 11, 0]\nclass = 4", fillcolor="#3c39e5"] ;
517 -> 518 ;
519 [label="G2 <= 10.5\ngini = 0.64\nsamples = 6\nvalue = [0, 1, 5, 3, 1]\nclass = 3", fillcolor="#c6f8ee"] ;
517 -> 519 ;
520 [label="Fedu <= 2.0\ngini = 0.5625\nsamples = 5\nvalue = [0, 1, 5, 1, 1]\nclass = 3", fillcolor="#8ef0de"] ;
519 -> 520 ;
521 [label="gini = 0.0\nsamples = 1\nvalue = [0, 0, 0, 0, 1]\nclass = 5", fillcolor="#e539c0"] ;
520 -> 521 ;
522 [label="G3 <= 10.0\ngini = 0.44897959183673475\nsamples = 4\nvalue = [0, 1, 5, 1, 0]\nclass = 3", fillcolor="#7beed8"] ;
520 -> 522 ;
523 [label="age <= 17.5\ngini = 0.2777777777777778\nsamples = 3\nvalue = [0, 0, 5, 1, 0]\nclass = 3", fillcolor="#61ead1"] ;
522 -> 523 ;
524 [label="gini = 0.0\nsamples = 1\nvalue = [0, 0, 0, 1, 0]\nclass = 4", fillcolor="#3c39e5"] ;
523 -> 524 ;
525 [label="gini = 0.0\nsamples = 2\nvalue = [0, 0, 5, 0, 0]\nclass = 3", fillcolor="#39e5c5"] ;
523 -> 525 ;
526 [label="gini = 0.0\nsamples = 1\nvalue = [0, 1, 0, 0, 0]\nclass = 2", fillcolor="#7be539"] ;
522 -> 526 ;
527 [label="gini = 0.0\nsamples = 1\nvalue = [0, 0, 0, 2, 0]\nclass = 4", fillcolor="#3c39e5"] ;
519 -> 527 ;
528 [label="Medu <= 2.5\ngini = 0.6836734693877551\nsamples = 17\nvalue = [12, 6, 8, 2, 0]\nclass = 1", fillcolor="#fae6d7"] ;
502 -> 528 ;
529 [label="sex <= 0.5\ngini = 0.4140625\nsamples = 8\nvalue = [12, 2, 1, 1, 0]\nclass = 1", fillcolor="#eca572"] ;
528 -> 529 ;
530 [label="nursery <= 0.5\ngini = 0.33777777777777773\nsamples = 7\nvalue = [12, 2, 0, 1, 0]\nclass = 1", fillcolor="#eb9e67"] ;
529 -> 530 ;
531 [label="gini = 0.0\nsamples = 1\nvalue = [0, 2, 0, 0, 0]\nclass = 2", fillcolor="#7be539"] ;
530 -> 531 ;
532 [label="activities <= 0.5\ngini = 0.14201183431952658\nsamples = 6\nvalue = [12, 0, 0, 1, 0]\nclass = 1", fillcolor="#e78c49"] ;
530 -> 532 ;
533 [label="school <= 0.5\ngini = 0.2777777777777778\nsamples = 3\nvalue = [5, 0, 0, 1, 0]\nclass = 1", fillcolor="#ea9a61"] ;
532 -> 533 ;
534 [label="gini = 0.0\nsamples = 1\nvalue = [0, 0, 0, 1, 0]\nclass = 4", fillcolor="#3c39e5"] ;
533 -> 534 ;
535 [label="gini = 0.0\nsamples = 2\nvalue = [5, 0, 0, 0, 0]\nclass = 1", fillcolor="#e58139"] ;
533 -> 535 ;
536 [label="gini = 0.0\nsamples = 3\nvalue = [7, 0, 0, 0, 0]\nclass = 1", fillcolor="#e58139"] ;
532 -> 536 ;
537 [label="gini = 0.0\nsamples = 1\nvalue = [0, 0, 1, 0, 0]\nclass = 3", fillcolor="#39e5c5"] ;
529 -> 537 ;
538 [label="goout <= 3.4999999999999996\ngini = 0.5416666666666667\nsamples = 9\nvalue = [0, 4, 7, 1, 0]\nclass = 3", fillcolor="#b5f5e9"] ;
528 -> 538 ;
539 [label="romantic <= 0.5\ngini = 0.5\nsamples = 5\nvalue = [0, 4, 1, 1, 0]\nclass = 2", fillcolor="#b0ef88"] ;
538 -> 539 ;
540 [label="gini = 0.0\nsamples = 3\nvalue = [0, 4, 0, 0, 0]\nclass = 2", fillcolor="#7be539"] ;
539 -> 540 ;
541 [label="famsup <= 0.5\ngini = 0.5\nsamples = 2\nvalue = [0, 0, 1, 1, 0]\nclass = 3", fillcolor="#ffffff"] ;
539 -> 541 ;
542 [label="gini = 0.0\nsamples = 1\nvalue = [0, 0, 1, 0, 0]\nclass = 3", fillcolor="#39e5c5"] ;
541 -> 542 ;
543 [label="gini = 0.0\nsamples = 1\nvalue = [0, 0, 0, 1, 0]\nclass = 4", fillcolor="#3c39e5"] ;
541 -> 543 ;
544 [label="gini = 0.0\nsamples = 4\nvalue = [0, 0, 6, 0, 0]\nclass = 3", fillcolor="#39e5c5"] ;
538 -> 544 ;
545 [label="gini = 0.0\nsamples = 2\nvalue = [0, 0, 5, 0, 0]\nclass = 3", fillcolor="#39e5c5"] ;
501 -> 545 ;
546 [label="nursery <= 0.5\ngini = 0.533284023668639\nsamples = 63\nvalue = [68, 10, 16, 8, 2]\nclass = 1", fillcolor="#f0b58a"] ;
0 -> 546 [labeldistance=2.5, labelangle=-45, headlabel="False"] ;
547 [label="absences <= 3.4999999999999996\ngini = 0.5777777777777777\nsamples = 10\nvalue = [3, 2, 9, 1, 0]\nclass = 3", fillcolor="#9cf2e2"] ;
546 -> 547 ;
548 [label="G3 <= 11.5\ngini = 0.4297520661157025\nsamples = 7\nvalue = [0, 2, 8, 1, 0]\nclass = 3", fillcolor="#7beed8"] ;
547 -> 548 ;
549 [label="address <= 0.5\ngini = 0.625\nsamples = 4\nvalue = [0, 2, 1, 1, 0]\nclass = 2", fillcolor="#d3f6bd"] ;
548 -> 549 ;
550 [label="internet <= 0.5\ngini = 0.4444444444444444\nsamples = 3\nvalue = [0, 2, 1, 0, 0]\nclass = 2", fillcolor="#bdf29c"] ;
549 -> 550 ;
551 [label="gini = 0.0\nsamples = 1\nvalue = [0, 1, 0, 0, 0]\nclass = 2", fillcolor="#7be539"] ;
550 -> 551 ;
552 [label="famrel <= 4.5\ngini = 0.5\nsamples = 2\nvalue = [0, 1, 1, 0, 0]\nclass = 2", fillcolor="#ffffff"] ;
550 -> 552 ;
553 [label="gini = 0.0\nsamples = 1\nvalue = [0, 0, 1, 0, 0]\nclass = 3", fillcolor="#39e5c5"] ;
552 -> 553 ;
554 [label="gini = 0.0\nsamples = 1\nvalue = [0, 1, 0, 0, 0]\nclass = 2", fillcolor="#7be539"] ;
552 -> 554 ;
555 [label="gini = 0.0\nsamples = 1\nvalue = [0, 0, 0, 1, 0]\nclass = 4", fillcolor="#3c39e5"] ;
549 -> 555 ;
556 [label="gini = 0.0\nsamples = 3\nvalue = [0, 0, 7, 0, 0]\nclass = 3", fillcolor="#39e5c5"] ;
548 -> 556 ;
557 [label="G1 <= 8.0\ngini = 0.375\nsamples = 3\nvalue = [3, 0, 1, 0, 0]\nclass = 1", fillcolor="#eeab7b"] ;
547 -> 557 ;
558 [label="gini = 0.0\nsamples = 1\nvalue = [0, 0, 1, 0, 0]\nclass = 3", fillcolor="#39e5c5"] ;
557 -> 558 ;
559 [label="gini = 0.0\nsamples = 2\nvalue = [3, 0, 0, 0, 0]\nclass = 1", fillcolor="#e58139"] ;
557 -> 559 ;
560 [label="G3 <= 9.5\ngini = 0.4456508016664562\nsamples = 53\nvalue = [65, 8, 7, 7, 2]\nclass = 1", fillcolor="#eda674"] ;
546 -> 560 ;
561 [label="paid <= 0.5\ngini = 0.7013888888888888\nsamples = 12\nvalue = [11, 5, 3, 4, 1]\nclass = 1", fillcolor="#f7d7c0"] ;
560 -> 561 ;
562 [label="address <= 0.5\ngini = 0.7346938775510203\nsamples = 7\nvalue = [4, 5, 1, 3, 1]\nclass = 2", fillcolor="#f2fceb"] ;
561 -> 562 ;
563 [label="Medu <= 3.4999999999999996\ngini = 0.6446280991735538\nsamples = 6\nvalue = [4, 5, 1, 0, 1]\nclass = 2", fillcolor="#ecfbe3"] ;
562 -> 563 ;
564 [label="freetime <= 4.0\ngini = 0.40816326530612246\nsamples = 3\nvalue = [2, 5, 0, 0, 0]\nclass = 2", fillcolor="#b0ef88"] ;
563 -> 564 ;
565 [label="absences <= 8.0\ngini = 0.5\nsamples = 2\nvalue = [2, 2, 0, 0, 0]\nclass = 1", fillcolor="#ffffff"] ;
564 -> 565 ;
566 [label="gini = 0.0\nsamples = 1\nvalue = [2, 0, 0, 0, 0]\nclass = 1", fillcolor="#e58139"] ;
565 -> 566 ;
567 [label="gini = 0.0\nsamples = 1\nvalue = [0, 2, 0, 0, 0]\nclass = 2", fillcolor="#7be539"] ;
565 -> 567 ;
568 [label="gini = 0.0\nsamples = 1\nvalue = [0, 3, 0, 0, 0]\nclass = 2", fillcolor="#7be539"] ;
564 -> 568 ;
569 [label="Pstatus <= 0.5\ngini = 0.625\nsamples = 3\nvalue = [2, 0, 1, 0, 1]\nclass = 1", fillcolor="#f6d5bd"] ;
563 -> 569 ;
570 [label="age <= 16.5\ngini = 0.5\nsamples = 2\nvalue = [0, 0, 1, 0, 1]\nclass = 3", fillcolor="#ffffff"] ;
569 -> 570 ;
571 [label="gini = 0.0\nsamples = 1\nvalue = [0, 0, 0, 0, 1]\nclass = 5", fillcolor="#e539c0"] ;
570 -> 571 ;
572 [label="gini = 0.0\nsamples = 1\nvalue = [0, 0, 1, 0, 0]\nclass = 3", fillcolor="#39e5c5"] ;
570 -> 572 ;
573 [label="gini = 0.0\nsamples = 1\nvalue = [2, 0, 0, 0, 0]\nclass = 1", fillcolor="#e58139"] ;
569 -> 573 ;
574 [label="gini = 0.0\nsamples = 1\nvalue = [0, 0, 0, 3, 0]\nclass = 4", fillcolor="#3c39e5"] ;
562 -> 574 ;
575 [label="Medu <= 3.4999999999999996\ngini = 0.4599999999999999\nsamples = 5\nvalue = [7, 0, 2, 1, 0]\nclass = 1", fillcolor="#efb083"] ;
561 -> 575 ;
576 [label="G1 <= 7.5\ngini = 0.345679012345679\nsamples = 4\nvalue = [7, 0, 2, 0, 0]\nclass = 1", fillcolor="#eca572"] ;
575 -> 576 ;
577 [label="gini = 0.0\nsamples = 2\nvalue = [4, 0, 0, 0, 0]\nclass = 1", fillcolor="#e58139"] ;
576 -> 577 ;
578 [label="studytime <= 2.5\ngini = 0.48\nsamples = 2\nvalue = [3, 0, 2, 0, 0]\nclass = 1", fillcolor="#f6d5bd"] ;
576 -> 578 ;
579 [label="gini = 0.0\nsamples = 1\nvalue = [0, 0, 2, 0, 0]\nclass = 3", fillcolor="#39e5c5"] ;
578 -> 579 ;
580 [label="gini = 0.0\nsamples = 1\nvalue = [3, 0, 0, 0, 0]\nclass = 1", fillcolor="#e58139"] ;
578 -> 580 ;
581 [label="gini = 0.0\nsamples = 1\nvalue = [0, 0, 0, 1, 0]\nclass = 4", fillcolor="#3c39e5"] ;
575 -> 581 ;
582 [label="Fedu <= 1.5\ngini = 0.30153846153846153\nsamples = 41\nvalue = [54, 3, 4, 3, 1]\nclass = 1", fillcolor="#ea985d"] ;
560 -> 582 ;
583 [label="traveltime <= 1.5\ngini = 0.5066666666666666\nsamples = 10\nvalue = [10, 3, 0, 1, 1]\nclass = 1", fillcolor="#f0b68c"] ;
582 -> 583 ;
584 [label="Medu <= 2.0\ngini = 0.375\nsamples = 2\nvalue = [1, 3, 0, 0, 0]\nclass = 2", fillcolor="#a7ee7b"] ;
583 -> 584 ;
585 [label="gini = 0.0\nsamples = 1\nvalue = [1, 0, 0, 0, 0]\nclass = 1", fillcolor="#e58139"] ;
584 -> 585 ;
586 [label="gini = 0.0\nsamples = 1\nvalue = [0, 3, 0, 0, 0]\nclass = 2", fillcolor="#7be539"] ;
584 -> 586 ;
587 [label="traveltime <= 3.4999999999999996\ngini = 0.31404958677685946\nsamples = 8\nvalue = [9, 0, 0, 1, 1]\nclass = 1", fillcolor="#ea9a61"] ;
583 -> 587 ;
588 [label="internet <= 0.5\ngini = 0.19753086419753085\nsamples = 6\nvalue = [8, 0, 0, 1, 0]\nclass = 1", fillcolor="#e89152"] ;
587 -> 588 ;
589 [label="absences <= 4.0\ngini = 0.5\nsamples = 2\nvalue = [1, 0, 0, 1, 0]\nclass = 1", fillcolor="#ffffff"] ;
588 -> 589 ;
590 [label="gini = 0.0\nsamples = 1\nvalue = [1, 0, 0, 0, 0]\nclass = 1", fillcolor="#e58139"] ;
589 -> 590 ;
591 [label="gini = 0.0\nsamples = 1\nvalue = [0, 0, 0, 1, 0]\nclass = 4", fillcolor="#3c39e5"] ;
589 -> 591 ;
592 [label="gini = 0.0\nsamples = 4\nvalue = [7, 0, 0, 0, 0]\nclass = 1", fillcolor="#e58139"] ;
588 -> 592 ;
593 [label="age <= 17.0\ngini = 0.5\nsamples = 2\nvalue = [1, 0, 0, 0, 1]\nclass = 1", fillcolor="#ffffff"] ;
587 -> 593 ;
594 [label="gini = 0.0\nsamples = 1\nvalue = [1, 0, 0, 0, 0]\nclass = 1", fillcolor="#e58139"] ;
593 -> 594 ;
595 [label="gini = 0.0\nsamples = 1\nvalue = [0, 0, 0, 0, 1]\nclass = 5", fillcolor="#e539c0"] ;
593 -> 595 ;
596 [label="higher <= 0.5\ngini = 0.21760000000000002\nsamples = 31\nvalue = [44, 0, 4, 2, 0]\nclass = 1", fillcolor="#e89153"] ;
582 -> 596 ;
597 [label="gini = 0.0\nsamples = 1\nvalue = [0, 0, 1, 0, 0]\nclass = 3", fillcolor="#39e5c5"] ;
596 -> 597 ;
598 [label="G2 <= 11.5\ngini = 0.18825489379425242\nsamples = 30\nvalue = [44, 0, 3, 2, 0]\nclass = 1", fillcolor="#e88f4f"] ;
596 -> 598 ;
599 [label="absences <= 1.0\ngini = 0.07133058984910834\nsamples = 16\nvalue = [26, 0, 1, 0, 0]\nclass = 1", fillcolor="#e68641"] ;
598 -> 599 ;
600 [label="paid <= 0.5\ngini = 0.14201183431952658\nsamples = 6\nvalue = [12, 0, 1, 0, 0]\nclass = 1", fillcolor="#e78c49"] ;
599 -> 600 ;
601 [label="gini = 0.0\nsamples = 5\nvalue = [12, 0, 0, 0, 0]\nclass = 1", fillcolor="#e58139"] ;
600 -> 601 ;
602 [label="gini = 0.0\nsamples = 1\nvalue = [0, 0, 1, 0, 0]\nclass = 3", fillcolor="#39e5c5"] ;
600 -> 602 ;
603 [label="gini = 0.0\nsamples = 10\nvalue = [14, 0, 0, 0, 0]\nclass = 1", fillcolor="#e58139"] ;
599 -> 603 ;
604 [label="Fedu <= 3.4999999999999996\ngini = 0.31404958677685946\nsamples = 14\nvalue = [18, 0, 2, 2, 0]\nclass = 1", fillcolor="#ea9a61"] ;
598 -> 604 ;
605 [label="absences <= 31.0\ngini = 0.5\nsamples = 9\nvalue = [8, 0, 2, 2, 0]\nclass = 1", fillcolor="#efb388"] ;
604 -> 605 ;
606 [label="absences <= 4.0\ngini = 0.4297520661157025\nsamples = 8\nvalue = [8, 0, 2, 1, 0]\nclass = 1", fillcolor="#eeab7b"] ;
605 -> 606 ;
607 [label="famrel <= 3.4999999999999996\ngini = 0.24489795918367355\nsamples = 5\nvalue = [6, 0, 0, 1, 0]\nclass = 1", fillcolor="#e9965a"] ;
606 -> 607 ;
608 [label="G1 <= 13.0\ngini = 0.375\nsamples = 3\nvalue = [3, 0, 0, 1, 0]\nclass = 1", fillcolor="#eeab7b"] ;
607 -> 608 ;
609 [label="gini = 0.0\nsamples = 1\nvalue = [2, 0, 0, 0, 0]\nclass = 1", fillcolor="#e58139"] ;
608 -> 609 ;
610 [label="absences <= 1.0\ngini = 0.5\nsamples = 2\nvalue = [1, 0, 0, 1, 0]\nclass = 1", fillcolor="#ffffff"] ;
608 -> 610 ;
611 [label="gini = 0.0\nsamples = 1\nvalue = [0, 0, 0, 1, 0]\nclass = 4", fillcolor="#3c39e5"] ;
610 -> 611 ;
612 [label="gini = 0.0\nsamples = 1\nvalue = [1, 0, 0, 0, 0]\nclass = 1", fillcolor="#e58139"] ;
610 -> 612 ;
613 [label="gini = 0.0\nsamples = 2\nvalue = [3, 0, 0, 0, 0]\nclass = 1", fillcolor="#e58139"] ;
607 -> 613 ;
614 [label="freetime <= 3.4999999999999996\ngini = 0.5\nsamples = 3\nvalue = [2, 0, 2, 0, 0]\nclass = 1", fillcolor="#ffffff"] ;
606 -> 614 ;
615 [label="gini = 0.0\nsamples = 1\nvalue = [2, 0, 0, 0, 0]\nclass = 1", fillcolor="#e58139"] ;
614 -> 615 ;
616 [label="gini = 0.0\nsamples = 2\nvalue = [0, 0, 2, 0, 0]\nclass = 3", fillcolor="#39e5c5"] ;
614 -> 616 ;
617 [label="gini = 0.0\nsamples = 1\nvalue = [0, 0, 0, 1, 0]\nclass = 4", fillcolor="#3c39e5"] ;
605 -> 617 ;
618 [label="gini = 0.0\nsamples = 5\nvalue = [10, 0, 0, 0, 0]\nclass = 1", fillcolor="#e58139"] ;
604 -> 618 ;
}